{"learner":{"attributes":{"scikit_learn":"{\"_estimator_type\": \"regressor\"}"},"feature_names":["PCT_FGA_2PT_1","PCT_AST_2PM_1","PCT_PTS_2PT_1","AST_PCT_1","PCT_FG3M_1","PCT_BLKA_1","PCT_BLK_1","FG3_PCT_1","PCT_PTS_1","PCT_FGM_1","PCT_REB_1","PCT_FGA_1","E_USG_PCT_1","REB_PCT_1","PCT_PTS_OFF_TOV_1","PCT_DREB_1","OPP_OREB_PCT_1","PCT_UAST_3PM_1","PCT_TOV_1","DREB_PCT_1","PCT_FTM_1","OPP_TOV_PCT_1","PCT_UAST_2PM_1","PCT_AST_3PM_1","USG_PCT_1","PCT_AST_1","FG_PCT_1","EFG_PCT_1","TS_PCT_1","PCT_OREB_1","PCT_PTS_2PT_MR_1","PCT_PF_1","FT_PCT_1","PCT_PTS_PAINT_1","PCT_PTS_FT_1","PCT_PFD_1","PCT_FGA_3PT_1","OPP_EFG_PCT_1","CFG_PCT_1","TM_TOV_PCT_1","PCT_UAST_FGM_1","PCT_PTS_3PT_1","OREB_PCT_1","PCT_PTS_FB_1","PCT_AST_FGM_1","UFG_PCT_1","PCT_FG3A_1","PCT_STL_1","DFG_PCT_1","OREB_1","AST_1","REB_1","DFGA_1","SAST_1","OPP_PTS_2ND_CHANCE_1","PFD_1","TO_1","FG3A_1","STL_1","POSS_1","PASS_1","UFGM_1","FG3M_1","PTS_1","UFGA_1","DRBC_1","OPP_PTS_PAINT_1","FTM_1","ORBC_1","BLKA_1","PTS_FB_1","CFGA_1","PTS_PAINT_1","TCHS_1","CFGM_1","DFGM_1","OPP_PTS_OFF_TOV_1","PTS_OFF_TOV_1","FGA_1","FTA_1","PTS_2ND_CHANCE_1","FGM_1","PF_1","DREB_1","BLK_1","RBC_1","OPP_PTS_FB_1","FTAST_1","E_OFF_RATING_1","OFF_RATING_1","E_NET_RATING_1","E_DEF_RATING_1","NET_RATING_1","DEF_RATING_1","E_PACE_1","AST_RATIO_1","DIST_1","AST_TOV_1","FTA_RATE_1","OPP_FTA_RATE_1","MIN_1","PACE_PER40_1","PACE_1","PIE_1","PCT_FGA_2PT_2","PCT_AST_2PM_2","PCT_PTS_2PT_2","AST_PCT_2","PCT_FG3M_2","PCT_BLKA_2","PCT_BLK_2","FG3_PCT_2","PCT_PTS_2","PCT_FGM_2","PCT_REB_2","PCT_FGA_2","E_USG_PCT_2","REB_PCT_2","PCT_PTS_OFF_TOV_2","PCT_DREB_2","OPP_OREB_PCT_2","PCT_UAST_3PM_2","PCT_TOV_2","DREB_PCT_2","PCT_FTM_2","OPP_TOV_PCT_2","PCT_UAST_2PM_2","PCT_AST_3PM_2","USG_PCT_2","PCT_AST_2","FG_PCT_2","EFG_PCT_2","TS_PCT_2","PCT_OREB_2","PCT_PTS_2PT_MR_2","PCT_PF_2","FT_PCT_2","PCT_PTS_PAINT_2","PCT_PTS_FT_2","PCT_PFD_2","PCT_FGA_3PT_2","OPP_EFG_PCT_2","CFG_PCT_2","TM_TOV_PCT_2","PCT_UAST_FGM_2","PCT_PTS_3PT_2","OREB_PCT_2","PCT_PTS_FB_2","PCT_AST_FGM_2","UFG_PCT_2","PCT_FG3A_2","PCT_STL_2","DFG_PCT_2","OREB_2","AST_2","REB_2","DFGA_2","SAST_2","OPP_PTS_2ND_CHANCE_2","PFD_2","TO_2","FG3A_2","STL_2","POSS_2","PASS_2","UFGM_2","FG3M_2","PTS_2","UFGA_2","DRBC_2","OPP_PTS_PAINT_2","FTM_2","ORBC_2","BLKA_2","PTS_FB_2","CFGA_2","PTS_PAINT_2","TCHS_2","CFGM_2","DFGM_2","OPP_PTS_OFF_TOV_2","PTS_OFF_TOV_2","FGA_2","FTA_2","PTS_2ND_CHANCE_2","FGM_2","PF_2","DREB_2","BLK_2","RBC_2","OPP_PTS_FB_2","FTAST_2","E_OFF_RATING_2","OFF_RATING_2","E_NET_RATING_2","E_DEF_RATING_2","NET_RATING_2","DEF_RATING_2","E_PACE_2","AST_RATIO_2","DIST_2","AST_TOV_2","FTA_RATE_2","OPP_FTA_RATE_2","MIN_2","PACE_PER40_2","PACE_2","PIE_2"],"feature_types":["float","float","float","float","float","float","float","float","float","float","float","float","float","float","float","float","float","float","float","float","float","float","float","float","float","float","float","float","float","float","float","float","float","float","float","float","float","float","float","float","float","float","float","float","float","float","float","float","float","float","float","float","float","float","float","float","float","float","float","float","float","float","float","float","float","float","float","float","float","float","float","float","float","float","float","float","float","float","float","float","float","float","float","float","float","float","float","float","float","float","float","float","float","float","float","float","float","float","float","float","float","float","float","float","float","float","float","float","float","float","float","float","float","float","float","float","float","float","float","float","float","float","float","float","float","float","float","float","float","float","float","float","float","float","float","float","float","float","float","float","float","float","float","float","float","float","float","float","float","float","float","float","float","float","float","float","float","float","float","float","float","float","float","float","float","float","float","float","float","float","float","float","float","float","float","float","float","float","float","float","float","float","float","float","float","float","float","float","float","float","float","float","float","float","float","float","float","float","float","float","float","float","float","float","float","float","float","float"],"gradient_booster":{"model":{"cats":{"enc":[],"feature_segments":[],"sorted_idx":[]},"gbtree_model_param":{"num_parallel_tree":"1","num_trees":"100"},"iteration_indptr":[0,1,2,3,4,5,6,7,8,9,10,11,12,13,14,15,16,17,18,19,20,21,22,23,24,25,26,27,28,29,30,31,32,33,34,35,36,37,38,39,40,41,42,43,44,45,46,47,48,49,50,51,52,53,54,55,56,57,58,59,60,61,62,63,64,65,66,67,68,69,70,71,72,73,74,75,76,77,78,79,80,81,82,83,84,85,86,87,88,89,90,91,92,93,94,95,96,97,98,99,100],"tree_info":[0,0,0,0,0,0,0,0,0,0,0,0,0,0,0,0,0,0,0,0,0,0,0,0,0,0,0,0,0,0,0,0,0,0,0,0,0,0,0,0,0,0,0,0,0,0,0,0,0,0,0,0,0,0,0,0,0,0,0,0,0,0,0,0,0,0,0,0,0,0,0,0,0,0,0,0,0,0,0,0,0,0,0,0,0,0,0,0,0,0,0,0,0,0,0,0,0,0,0,0],"trees":[{"base_weights":[-8.5288346E-2,-1.0760328E1,1.058335E1,-1.9306923E1,-5.952342E0,5.66416E0,1.8886734E1,-2.633766E1,-1.626076E1,-9.12059E0,-3.0466025E0,2.962947E0,8.95823E0,1.6254688E1,2.672527E1,-3.113066E0,-2.3633106E0,-1.8683119E0,-1.4475769E0,-1.1006082E0,-7.660999E-1,-4.6141997E-1,-1.7247973E-1,1.5144475E-1,4.6576443E-1,7.4485576E-1,1.0303677E0,1.4137937E0,1.8882891E0,2.460047E0,3.2765148E0],"categories":[],"categories_nodes":[],"categories_segments":[],"categories_sizes":[],"default_left":[0,0,0,0,0,0,0,0,0,0,0,0,0,0,0,0,0,0,0,0,0,0,0,0,0,0,0,0,0,0,0],"id":0,"left_children":[1,3,5,7,9,11,13,15,17,19,21,23,25,27,29,-1,-1,-1,-1,-1,-1,-1,-1,-1,-1,-1,-1,-1,-1,-1,-1],"loss_changes":[1.1362619E6,2.048105E5,2.0371425E5,3.801475E4,2.9367305E4,2.7868633E4,3.7857438E4,6.2772188E3,5.1560312E3,4.1180625E3,3.4461611E3,4.2249688E3,2.791289E3,7.4770625E3,5.1615625E3,0E0,0E0,0E0,0E0,0E0,0E0,0E0,0E0,0E0,0E0,0E0,0E0,0E0,0E0,0E0,0E0],"parents":[2147483647,0,0,1,1,2,2,3,3,4,4,5,5,6,6,7,7,8,8,9,9,10,10,11,11,12,12,13,13,14,14],"right_children":[2,4,6,8,10,12,14,16,18,20,22,24,26,28,30,-1,-1,-1,-1,-1,-1,-1,-1,-1,-1,-1,-1,-1,-1,-1,-1],"split_conditions":[1.9E0,-1.43E1,1.84E1,-2.87E1,-5.4E0,1E1,3.52E1,-3.82E1,-2.09E1,-1.01E1,-2E0,6.3E0,1.38E1,2.53E1,4.95E1,-3.113066E0,-2.3633106E0,-1.8683119E0,-1.4475769E0,-1.1006082E0,-7.660999E-1,-4.6141997E-1,-1.7247973E-1,1.5144475E-1,4.6576443E-1,7.4485576E-1,1.0303677E0,1.4137937E0,1.8882891E0,2.460047E0,3.2765148E0],"split_indices":[92,92,92,92,92,92,92,92,92,92,92,92,92,92,92,0,0,0,0,0,0,0,0,0,0,0,0,0,0,0,0],"split_type":[0,0,0,0,0,0,0,0,0,0,0,0,0,0,0,0,0,0,0,0,0,0,0,0,0,0,0,0,0,0,0],"sum_hessian":[9.975E3,4.986E3,4.989E3,1.794E3,3.192E3,3.134E3,1.855E3,5.4E2,1.254E3,1.526E3,1.666E3,1.723E3,1.411E3,1.391E3,4.64E2,1.91E2,3.49E2,5.28E2,7.26E2,6.63E2,8.63E2,7.61E2,9.05E2,9.3E2,7.93E2,6.68E2,7.43E2,7.74E2,6.17E2,3.47E2,1.17E2],"tree_param":{"num_deleted":"0","num_feature":"208","num_nodes":"31","size_leaf_vector":"1"}},{"base_weights":[5.7034183E-2,-9.712365E0,9.548501E0,-1.7711433E1,-5.5216155E0,5.045488E0,1.6972107E1,-2.4496904E1,-1.5178572E1,-8.595608E0,-2.9414845E0,2.345275E0,7.6836734E0,1.4581096E1,2.4095045E1,-3.014312E0,-2.259857E0,-1.7139412E0,-1.3151603E0,-1.016145E0,-7.303233E-1,-4.3720508E-1,-1.5801519E-1,9.9840544E-2,3.5296473E-1,6.2462443E-1,9.1331047E-1,1.2633423E0,1.7011919E0,2.2157547E0,2.9692392E0],"categories":[],"categories_nodes":[],"categories_segments":[],"categories_sizes":[],"default_left":[0,0,0,0,0,0,0,0,0,0,0,0,0,0,0,0,0,0,0,0,0,0,0,0,0,0,0,0,0,0,0],"id":1,"left_children":[1,3,5,7,9,11,13,15,17,19,21,23,25,27,29,-1,-1,-1,-1,-1,-1,-1,-1,-1,-1,-1,-1,-1,-1,-1,-1],"loss_changes":[9.318028E5,1.6590356E5,1.7029997E5,2.8879875E4,2.5759375E4,2.2592484E4,3.2416312E4,4.26E3,4.711E3,2.926875E3,3.4381797E3,2.5009316E3,3.2868906E3,6.6169062E3,4.5693438E3,0E0,0E0,0E0,0E0,0E0,0E0,0E0,0E0,0E0,0E0,0E0,0E0,0E0,0E0,0E0,0E0],"parents":[2147483647,0,0,1,1,2,2,3,3,4,4,5,5,6,6,7,7,8,8,9,9,10,10,11,11,12,12,13,13,14,14],"right_children":[2,4,6,8,10,12,14,16,18,20,22,24,26,28,30,-1,-1,-1,-1,-1,-1,-1,-1,-1,-1,-1,-1,-1,-1,-1,-1],"split_conditions":[1.9E0,-1.49E1,1.81E1,-3E1,-6E0,9.1E0,3.52E1,-4.26E1,-2.09E1,-1.05E1,-2E0,5.4E0,1.33E1,2.53E1,4.95E1,-3.014312E0,-2.259857E0,-1.7139412E0,-1.3151603E0,-1.016145E0,-7.303233E-1,-4.3720508E-1,-1.5801519E-1,9.9840544E-2,3.5296473E-1,6.2462443E-1,9.1331047E-1,1.2633423E0,1.7011919E0,2.2157547E0,2.9692392E0],"split_indices":[92,92,92,92,92,92,92,92,92,92,92,92,92,92,92,0,0,0,0,0,0,0,0,0,0,0,0,0,0,0,0],"split_type":[0,0,0,0,0,0,0,0,0,0,0,0,0,0,0,0,0,0,0,0,0,0,0,0,0,0,0,0,0,0,0],"sum_hessian":[1.0047E4,4.951E3,5.096E3,1.701E3,3.25E3,3.173E3,1.923E3,4.6E2,1.241E3,1.482E3,1.768E3,1.569E3,1.604E3,1.442E3,4.81E2,1.12E2,3.48E2,6.27E2,6.14E2,6.67E2,8.15E2,8.61E2,9.07E2,7.35E2,8.34E2,8.08E2,7.96E2,8.04E2,6.38E2,3.61E2,1.2E2],"tree_param":{"num_deleted":"0","num_feature":"208","num_nodes":"31","size_leaf_vector":"1"}},{"base_weights":[-6.970607E-2,-8.786638E0,8.586718E0,-1.5827433E1,-4.903626E0,4.779856E0,1.5606948E1,-2.248382E1,-1.3695526E1,-7.286096E0,-2.2939436E0,2.4631307E0,7.6010065E0,1.3160562E1,2.1149168E1,-3.1025164E0,-2.1404896E0,-1.6699599E0,-1.2417583E0,-8.7736446E-1,-5.8690685E-1,-3.155849E-1,-9.205908E-2,1.3023354E-1,4.0202585E-1,6.402648E-1,8.94965E-1,1.1990651E0,1.5493934E0,1.9794763E0,2.8596468E0],"categories":[],"categories_nodes":[],"categories_segments":[],"categories_sizes":[],"default_left":[0,0,0,0,0,0,0,0,0,0,0,0,0,0,0,0,0,0,0,0,0,0,0,0,0,0,0,0,0,0,0],"id":2,"left_children":[1,3,5,7,9,11,13,15,17,19,21,23,25,27,29,-1,-1,-1,-1,-1,-1,-1,-1,-1,-1,-1,-1,-1,-1,-1,-1],"loss_changes":[7.58121E5,1.3678388E5,1.3464634E5,2.4937469E4,2.0053352E4,2.1353438E4,2.3747188E4,3.2985469E3,4.975328E3,3.5045156E3,1.8223608E3,3.2428525E3,2.324914E3,3.177375E3,4.890828E3,0E0,0E0,0E0,0E0,0E0,0E0,0E0,0E0,0E0,0E0,0E0,0E0,0E0,0E0,0E0,0E0],"parents":[2147483647,0,0,1,1,2,2,3,3,4,4,5,5,6,6,7,7,8,8,9,9,10,10,11,11,12,12,13,13,14,14],"right_children":[2,4,6,8,10,12,14,16,18,20,22,24,26,28,30,-1,-1,-1,-1,-1,-1,-1,-1,-1,-1,-1,-1,-1,-1,-1,-1],"split_conditions":[1.9E0,-1.46E1,1.94E1,-3.1E1,-4.9E0,1.04E1,3.34E1,-5.09E1,-2.42E1,-9.4E0,-3E-1,6.7E0,1.47E1,2.71E1,5.33E1,-3.1025164E0,-2.1404896E0,-1.6699599E0,-1.2417583E0,-8.7736446E-1,-5.8690685E-1,-3.155849E-1,-9.205908E-2,1.3023354E-1,4.0202585E-1,6.402648E-1,8.94965E-1,1.1990651E0,1.5493934E0,1.9794763E0,2.8596468E0],"split_indices":[92,92,92,92,92,92,92,92,92,92,92,92,92,92,92,0,0,0,0,0,0,0,0,0,0,0,0,0,0,0,0],"split_type":[0,0,0,0,0,0,0,0,0,0,0,0,0,0,0,0,0,0,0,0,0,0,0,0,0,0,0,0,0,0,0],"sum_hessian":[1.0045E4,5.005E3,5.04E3,1.778E3,3.227E3,3.269E3,1.771E3,4.29E2,1.349E3,1.686E3,1.541E3,1.796E3,1.473E3,1.231E3,5.4E2,4.5E1,3.84E2,3.99E2,9.5E2,8.2E2,8.66E2,9.46E2,5.95E2,1.03E3,7.66E2,7.83E2,6.9E2,8.24E2,4.07E2,4.6E2,8E1],"tree_param":{"num_deleted":"0","num_feature":"208","num_nodes":"31","size_leaf_vector":"1"}},{"base_weights":[-5.012234E-2,-7.504917E0,8.249767E0,-1.36901045E1,-3.7355661E0,5.1976585E0,1.5186997E1,-1.840998E1,-1.125804E1,-5.988908E0,-1.5096886E0,2.902693E0,7.677391E0,1.3117626E1,2.0653557E1,-2.2087092E0,-1.645315E0,-1.2762861E0,-9.6715784E-1,-7.145023E-1,-4.672492E-1,-2.6375633E-1,-5.075516E-2,1.8205895E-1,4.1041285E-1,6.596994E-1,9.0767604E-1,1.1928449E0,1.5069693E0,1.9235821E0,2.5606263E0],"categories":[],"categories_nodes":[],"categories_segments":[],"categories_sizes":[],"default_left":[0,0,0,0,0,0,0,0,0,0,0,0,0,0,0,0,0,0,0,0,0,0,0,0,0,0,0,0,0,0,0],"id":3,"left_children":[1,3,5,7,9,11,13,15,17,19,21,23,25,27,29,-1,-1,-1,-1,-1,-1,-1,-1,-1,-1,-1,-1,-1,-1,-1,-1],"loss_changes":[6.2635025E5,1.2428316E5,1.0134059E5,2.2968938E4,1.6617879E4,1.891704E4,1.6279031E4,4.5655E3,3.0636562E3,2.4732305E3,1.8851067E3,2.241662E3,2.3576094E3,2.2901719E3,2.3160781E3,0E0,0E0,0E0,0E0,0E0,0E0,0E0,0E0,0E0,0E0,0E0,0E0,0E0,0E0,0E0,0E0],"parents":[2147483647,0,0,1,1,2,2,3,3,4,4,5,5,6,6,7,7,8,8,9,9,10,10,11,11,12,12,13,13,14,14],"right_children":[2,4,6,8,10,12,14,16,18,20,22,24,26,28,30,-1,-1,-1,-1,-1,-1,-1,-1,-1,-1,-1,-1,-1,-1,-1,-1],"split_conditions":[3.3E0,-1.32E1,2.17E1,-2.65E1,-4.1E0,1.16E1,3.72E1,-3.64E1,-1.85E1,-8E0,-3E-1,7.5E0,1.65E1,2.94E1,5.33E1,-2.2087092E0,-1.645315E0,-1.2762861E0,-9.6715784E-1,-7.145023E-1,-4.672492E-1,-2.6375633E-1,-5.075516E-2,1.8205895E-1,4.1041285E-1,6.596994E-1,9.0767604E-1,1.1928449E0,1.5069693E0,1.9235821E0,2.5606263E0],"split_indices":[92,92,92,92,92,92,92,92,92,92,92,92,92,92,92,0,0,0,0,0,0,0,0,0,0,0,0,0,0,0,0],"split_type":[0,0,0,0,0,0,0,0,0,0,0,0,0,0,0,0,0,0,0,0,0,0,0,0,0,0,0,0,0,0,0],"sum_hessian":[1.0121E4,5.332E3,4.789E3,2.018E3,3.314E3,3.327E3,1.462E3,6.84E2,1.334E3,1.646E3,1.668E3,1.729E3,1.598E3,1.063E3,3.99E2,2.34E2,4.5E2,6.81E2,6.53E2,8.74E2,7.72E2,7.84E2,8.84E2,9.11E2,8.18E2,9.05E2,6.93E2,6.65E2,3.98E2,3.14E2,8.5E1],"tree_param":{"num_deleted":"0","num_feature":"208","num_nodes":"31","size_leaf_vector":"1"}},{"base_weights":[5.7905797E-2,-6.740042E0,7.4179826E0,-1.2096113E1,-3.1408274E0,4.673159E0,1.3578191E1,-1.6963572E1,-9.92259E0,-4.916302E0,-1.1133875E0,2.577859E0,6.8713155E0,1.2006813E1,1.9118307E1,-2.270746E0,-1.559388E0,-1.1331925E0,-8.408928E-1,-5.9298575E-1,-3.7681457E-1,-1.793124E-1,-1.0000269E-2,1.5465312E-1,3.5776278E-1,5.915062E-1,8.2049984E-1,1.0761068E0,1.3978623E0,1.8092154E0,2.5124013E0],"categories":[],"categories_nodes":[],"categories_segments":[],"categories_sizes":[],"default_left":[0,0,0,0,0,0,0,0,0,0,0,0,0,0,0,0,0,0,0,0,0,0,0,0,0,0,0,0,0,0,0],"id":4,"left_children":[1,3,5,7,9,11,13,15,17,19,21,23,25,27,29,-1,-1,-1,-1,-1,-1,-1,-1,-1,-1,-1,-1,-1,-1,-1,-1],"loss_changes":[5.0153497E5,1.0041784E5,8.131806E4,2.1985219E4,1.1218293E4,1.5324195E4,1.2680875E4,4.7203594E3,2.9979375E3,1.9117578E3,1.0034525E3,1.7545361E3,2.0238906E3,2.6940469E3,1.5545156E3,0E0,0E0,0E0,0E0,0E0,0E0,0E0,0E0,0E0,0E0,0E0,0E0,0E0,0E0,0E0,0E0],"parents":[2147483647,0,0,1,1,2,2,3,3,4,4,5,5,6,6,7,7,8,8,9,9,10,10,11,11,12,12,13,13,14,14],"right_children":[2,4,6,8,10,12,14,16,18,20,22,24,26,28,30,-1,-1,-1,-1,-1,-1,-1,-1,-1,-1,-1,-1,-1,-1,-1,-1],"split_conditions":[3.3E0,-1.22E1,2.17E1,-2.65E1,-3.1E0,1.14E1,3.91E1,-4.26E1,-1.78E1,-7E0,6E-1,7.1E0,1.68E1,3E1,5.87E1,-2.270746E0,-1.559388E0,-1.1331925E0,-8.408928E-1,-5.9298575E-1,-3.7681457E-1,-1.793124E-1,-1.0000269E-2,1.5465312E-1,3.5776278E-1,5.915062E-1,8.2049984E-1,1.0761068E0,1.3978623E0,1.8092154E0,2.5124013E0],"split_indices":[92,92,92,92,92,92,92,90,92,92,92,92,92,92,92,0,0,0,0,0,0,0,0,0,0,0,0,0,0,0,0],"split_type":[0,0,0,0,0,0,0,0,0,0,0,0,0,0,0,0,0,0,0,0,0,0,0,0,0,0,0,0,0,0,0],"sum_hessian":[1.0022E4,5.21E3,4.812E3,2.093E3,3.117E3,3.33E3,1.482E3,6.44E2,1.449E3,1.661E3,1.456E3,1.706E3,1.624E3,1.157E3,3.25E2,1.21E2,5.23E2,7.47E2,7.02E2,8.8E2,7.81E2,8.71E2,5.85E2,8.41E2,8.65E2,9.49E2,6.75E2,7.13E2,4.44E2,2.81E2,4.4E1],"tree_param":{"num_deleted":"0","num_feature":"208","num_nodes":"31","size_leaf_vector":"1"}},{"base_weights":[-4.221698E-2,-5.95006E0,6.6266537E0,-1.1258266E1,-3.0651798E0,3.796053E0,1.1269309E1,-1.5917911E1,-9.489518E0,-5.050633E0,-1.3394638E0,2.1715243E0,5.3767796E0,9.411784E0,1.5157086E1,-1.949E0,-1.4252374E0,-1.0801127E0,-8.0643386E-1,-6.203469E-1,-4.2086068E-1,-2.509515E-1,-6.776035E-2,1.3937695E-1,2.8570417E-1,4.257804E-1,5.9208816E-1,8.2438374E-1,1.0612819E0,1.3717859E0,1.9119402E0],"categories":[],"categories_nodes":[],"categories_segments":[],"categories_sizes":[],"default_left":[0,0,0,0,0,0,0,0,0,0,0,0,0,0,0,0,0,0,0,0,0,0,0,0,0,0,0,0,0,0,0],"id":5,"left_children":[1,3,5,7,9,11,13,15,17,19,21,23,25,27,29,-1,-1,-1,-1,-1,-1,-1,-1,-1,-1,-1,-1,-1,-1,-1,-1],"loss_changes":[3.9847788E5,8.2092E4,6.23925E4,1.5409359E4,1.1903154E4,7.5714375E3,1.2849078E4,2.8040312E3,2.4756797E3,1.5425703E3,1.439477E3,7.733716E2,8.856094E2,1.6238438E3,3.0452969E3,0E0,0E0,0E0,0E0,0E0,0E0,0E0,0E0,0E0,0E0,0E0,0E0,0E0,0E0,0E0,0E0],"parents":[2147483647,0,0,1,1,2,2,3,3,4,4,5,5,6,6,7,7,8,8,9,9,10,10,11,11,12,12,13,13,14,14],"right_children":[2,4,6,8,10,12,14,16,18,20,22,24,26,28,30,-1,-1,-1,-1,-1,-1,-1,-1,-1,-1,-1,-1,-1,-1,-1,-1],"split_conditions":[3.6E0,-1.45E1,1.91E1,-2.94E1,-5.3E0,1.08E1,3.22E1,-4.01E1,-1.96E1,-1.03E1,-2.1E0,6.9E0,7.3E1,2.46E1,4.6E1,-1.949E0,-1.4252374E0,-1.0801127E0,-8.0643386E-1,-6.203469E-1,-4.2086068E-1,-2.509515E-1,-6.776035E-2,1.3937695E-1,2.8570417E-1,4.257804E-1,5.9208816E-1,8.2438374E-1,1.0612819E0,1.3717859E0,1.9119402E0],"split_indices":[90,90,90,90,90,90,90,90,90,90,90,90,59,90,90,0,0,0,0,0,0,0,0,0,0,0,0,0,0,0,0],"split_type":[0,0,0,0,0,0,0,0,0,0,0,0,0,0,0,0,0,0,0,0,0,0,0,0,0,0,0,0,0,0,0],"sum_hessian":[1.0112E4,5.362E3,4.75E3,1.887E3,3.475E3,2.952E3,1.798E3,5.17E2,1.37E3,1.615E3,1.86E3,1.457E3,1.495E3,1.219E3,5.79E2,1.61E2,3.56E2,7.1E2,6.6E2,6.79E2,9.36E2,6.71E2,1.189E3,6.84E2,7.73E2,4.92E2,1.003E3,6.22E2,5.97E2,4.28E2,1.51E2],"tree_param":{"num_deleted":"0","num_feature":"208","num_nodes":"31","size_leaf_vector":"1"}},{"base_weights":[1.161585E-2,-5.259741E0,6.196702E0,-1.0072038E1,-2.5799747E0,4.064512E0,1.1079317E1,-1.3358914E1,-8.076357E0,-4.5266266E0,-1.0605072E0,2.5036645E0,5.81521E0,9.772352E0,1.5566659E1,-1.7035147E0,-1.2045552E0,-9.0974706E-1,-6.986055E-1,-5.228419E-1,-3.4915394E-1,-2.027688E-1,-2.4929427E-2,1.7902774E-1,3.339585E-1,4.5950004E-1,6.770994E-1,7.6857316E-1,1.0803655E0,1.3094429E0,1.739588E0],"categories":[],"categories_nodes":[],"categories_segments":[],"categories_sizes":[],"default_left":[0,0,0,0,0,0,0,0,0,0,0,0,0,0,0,0,0,0,0,0,0,0,0,0,0,0,0,0,0,0,0],"id":6,"left_children":[1,3,5,7,9,11,13,15,17,19,21,23,25,27,29,-1,-1,-1,-1,-1,-1,-1,-1,-1,-1,-1,-1,-1,-1,-1,-1],"loss_changes":[3.274399E5,6.98952E4,4.8062656E4,1.2611078E4,1.0300432E4,8.778859E3,8.082047E3,3.3242422E3,1.2824531E3,1.0909844E3,1.5357205E3,1.0095791E3,1.7369297E3,2.262586E3,1.1967266E3,0E0,0E0,0E0,0E0,0E0,0E0,0E0,0E0,0E0,0E0,0E0,0E0,0E0,0E0,0E0,0E0],"parents":[2147483647,0,0,1,1,2,2,3,3,4,4,5,5,6,6,7,7,8,8,9,9,10,10,11,11,12,12,13,13,14,14],"right_children":[2,4,6,8,10,12,14,16,18,20,22,24,26,28,30,-1,-1,-1,-1,-1,-1,-1,-1,-1,-1,-1,-1,-1,-1,-1,-1],"split_conditions":[4.2E0,-1.32E1,2.21E1,-2.54E1,-4.7E0,1.22E1,3.91E1,-3.82E1,-1.81E1,-7.8E0,-3E-1,8.3E0,7.5E1,6.7E1,6.2E1,-1.7035147E0,-1.2045552E0,-9.0974706E-1,-6.986055E-1,-5.228419E-1,-3.4915394E-1,-2.027688E-1,-2.4929427E-2,1.7902774E-1,3.339585E-1,4.5950004E-1,6.770994E-1,7.6857316E-1,1.0803655E0,1.3094429E0,1.739588E0],"split_indices":[92,92,92,92,92,92,92,92,92,92,92,92,59,59,59,0,0,0,0,0,0,0,0,0,0,0,0,0,0,0,0],"split_type":[0,0,0,0,0,0,0,0,0,0,0,0,0,0,0,0,0,0,0,0,0,0,0,0,0,0,0,0,0,0,0],"sum_hessian":[1.0041E4,5.421E3,4.62E3,1.938E3,3.483E3,3.217E3,1.403E3,7.3E2,1.208E3,1.526E3,1.957E3,1.702E3,1.515E3,1.089E3,3.14E2,1.89E2,5.41E2,6.2E2,5.88E2,9.07E2,6.19E2,8.92E2,1.065E3,9.2E2,7.82E2,6.68E2,8.47E2,3.63E2,7.26E2,1.37E2,1.77E2],"tree_param":{"num_deleted":"0","num_feature":"208","num_nodes":"31","size_leaf_vector":"1"}},{"base_weights":[2.154707E-2,-5.5249777E0,4.830531E0,-9.892901E0,-3.414467E0,2.482575E0,9.138978E0,-1.429931E1,-8.741869E0,-4.953885E0,-1.9541527E0,8.236027E-1,3.8935006E0,7.2804418E0,1.2026331E1,-1.293179E0,-1.7380545E0,-7.039151E-1,-9.472203E-1,-5.800024E-1,-4.2027235E-1,-2.7252015E-1,-1.2725939E-1,8.856449E-3,1.5376602E-1,3.067257E-1,4.933319E-1,6.006345E-1,8.656756E-1,1.0884725E0,1.5841641E0],"categories":[],"categories_nodes":[],"categories_segments":[],"categories_sizes":[],"default_left":[0,0,0,0,0,0,0,0,0,0,0,0,0,0,0,0,0,0,0,0,0,0,0,0,0,0,0,0,0,0,0],"id":7,"left_children":[1,3,5,7,9,11,13,15,17,19,21,23,25,27,29,-1,-1,-1,-1,-1,-1,-1,-1,-1,-1,-1,-1,-1,-1,-1,-1],"loss_changes":[2.670249E5,4.282328E4,5.4219547E4,7.553875E3,7.0401523E3,8.1236562E3,1.0060016E4,1.0898945E3,1.4293203E3,9.4553125E2,8.431367E2,8.3806433E2,1.596623E3,1.9698555E3,3.0463438E3,0E0,0E0,0E0,0E0,0E0,0E0,0E0,0E0,0E0,0E0,0E0,0E0,0E0,0E0,0E0,0E0],"parents":[2147483647,0,0,1,1,2,2,3,3,4,4,5,5,6,6,7,7,8,8,9,9,10,10,11,11,12,12,13,13,14,14],"right_children":[2,4,6,8,10,12,14,16,18,20,22,24,26,28,30,-1,-1,-1,-1,-1,-1,-1,-1,-1,-1,-1,-1,-1,-1,-1,-1],"split_conditions":[6E-1,-1.66E1,1.84E1,-3.39E1,-6.8E0,8.1E0,3E1,7E1,6.7E1,-1.15E1,-3.1E0,4.3E0,1.33E1,7.4E1,4.62E1,-1.293179E0,-1.7380545E0,-7.039151E-1,-9.472203E-1,-5.800024E-1,-4.2027235E-1,-2.7252015E-1,-1.2725939E-1,8.856449E-3,1.5376602E-1,3.067257E-1,4.933319E-1,6.006345E-1,8.656756E-1,1.0884725E0,1.5841641E0],"split_indices":[92,92,92,92,92,92,92,59,59,92,92,92,92,59,92,0,0,0,0,0,0,0,0,0,0,0,0,0,0,0,0],"split_type":[0,0,0,0,0,0,0,0,0,0,0,0,0,0,0,0,0,0,0,0,0,0,0,0,0,0,0,0,0,0,0],"sum_hessian":[1.0009E4,4.648E3,5.361E3,1.513E3,3.135E3,3.471E3,1.89E3,3.11E2,1.202E3,1.525E3,1.61E3,1.596E3,1.875E3,1.152E3,7.38E2,2.19E2,9.2E1,3.64E2,8.38E2,7.14E2,8.11E2,7.54E2,8.56E2,7.87E2,8.09E2,1.047E3,8.28E2,6.01E2,5.51E2,5.71E2,1.67E2],"tree_param":{"num_deleted":"0","num_feature":"208","num_nodes":"31","size_leaf_vector":"1"}},{"base_weights":[-6.1517294E-2,-5.0264564E0,4.342043E0,-8.877333E0,-3.036484E0,2.131434E0,8.050981E0,-1.2180103E1,-7.6158767E0,-4.412615E0,-1.7642924E0,7.6633E-1,3.4800074E0,6.771352E0,1.142936E1,-1.834608E0,-1.1547294E0,-8.7940425E-1,-6.748678E-1,-5.267694E-1,-3.79323E-1,-2.4255286E-1,-1.1898156E-1,1.3501777E-2,1.4499536E-1,2.9548958E-1,4.4360372E-1,5.84442E-1,7.934967E-1,1.0712293E0,1.5640396E0],"categories":[],"categories_nodes":[],"categories_segments":[],"categories_sizes":[],"default_left":[0,0,0,0,0,0,0,0,0,0,0,0,0,0,0,0,0,0,0,0,0,0,0,0,0,0,0,0,0,0,0],"id":8,"left_children":[1,3,5,7,9,11,13,15,17,19,21,23,25,27,29,-1,-1,-1,-1,-1,-1,-1,-1,-1,-1,-1,-1,-1,-1,-1,-1],"loss_changes":[2.2219777E5,3.657986E4,4.414271E4,6.6858203E3,5.508676E3,6.2123564E3,8.616305E3,1.5362031E3,1.1462656E3,7.8133984E2,6.197119E2,7.24427E2,8.393262E2,1.5294453E3,1.4962578E3,0E0,0E0,0E0,0E0,0E0,0E0,0E0,0E0,0E0,0E0,0E0,0E0,0E0,0E0,0E0,0E0],"parents":[2147483647,0,0,1,1,2,2,3,3,4,4,5,5,6,6,7,7,8,8,9,9,10,10,11,11,12,12,13,13,14,14],"right_children":[2,4,6,8,10,12,14,16,18,20,22,24,26,28,30,-1,-1,-1,-1,-1,-1,-1,-1,-1,-1,-1,-1,-1,-1,-1,-1],"split_conditions":[6E-1,-1.62E1,1.76E1,-3.1E1,-6.8E0,8.3E0,3.34E1,-5.09E1,-2.31E1,-1.18E1,-3.1E0,4.7E0,1.4E1,2.45E1,5.33E1,-1.834608E0,-1.1547294E0,-8.7940425E-1,-6.748678E-1,-5.267694E-1,-3.79323E-1,-2.4255286E-1,-1.1898156E-1,1.3501777E-2,1.4499536E-1,2.9548958E-1,4.4360372E-1,5.84442E-1,7.934967E-1,1.0712293E0,1.5640396E0],"split_indices":[92,92,92,92,92,92,92,92,92,92,92,92,92,92,92,0,0,0,0,0,0,0,0,0,0,0,0,0,0,0,0],"split_type":[0,0,0,0,0,0,0,0,0,0,0,0,0,0,0,0,0,0,0,0,0,0,0,0,0,0,0,0,0,0,0],"sum_hessian":[1.0161E4,4.776E3,5.385E3,1.626E3,3.15E3,3.375E3,2.01E3,4.47E2,1.179E3,1.512E3,1.638E3,1.678E3,1.697E3,1.46E3,5.5E2,3.9E1,4.08E2,4.96E2,6.83E2,6.32E2,8.8E2,7.6E2,8.78E2,8.73E2,8.05E2,1.098E3,5.99E2,8.16E2,6.44E2,4.73E2,7.7E1],"tree_param":{"num_deleted":"0","num_feature":"208","num_nodes":"31","size_leaf_vector":"1"}},{"base_weights":[3.6298424E-2,-4.1468744E0,4.245276E0,-8.102041E0,-2.5445337E0,2.2460456E0,7.377311E0,-1.1568279E1,-7.11632E0,-4.083013E0,-1.3866286E0,1.2493867E0,3.4562461E0,6.291822E0,1.0562005E1,-1.0441805E0,-1.4724201E0,-5.0005776E-1,-7.6156086E-1,-4.7021958E-1,-3.4759974E-1,-1.9598232E-1,-6.6325754E-2,4.808146E-2,1.6865878E-1,2.7452543E-1,4.210894E-1,4.059836E-1,6.800882E-1,9.581856E-1,1.3488183E0],"categories":[],"categories_nodes":[],"categories_segments":[],"categories_sizes":[],"default_left":[0,0,0,0,0,0,0,0,0,0,0,0,0,0,0,0,0,0,0,0,0,0,0,0,0,0,0,0,0,0,0],"id":9,"left_children":[1,3,5,7,9,11,13,15,17,19,21,23,25,27,29,-1,-1,-1,-1,-1,-1,-1,-1,-1,-1,-1,-1,-1,-1,-1,-1],"loss_changes":[1.7745975E5,3.201557E4,3.1442008E4,4.895875E3,6.4056445E3,3.69617E3,6.698789E3,9.874258E2,1.1630039E3,5.643457E2,8.507693E2,5.650476E2,7.3156055E2,1.6335391E3,1.2933281E3,0E0,0E0,0E0,0E0,0E0,0E0,0E0,0E0,0E0,0E0,0E0,0E0,0E0,0E0,0E0,0E0],"parents":[2147483647,0,0,1,1,2,2,3,3,4,4,5,5,6,6,7,7,8,8,9,9,10,10,11,11,12,12,13,13,14,14],"right_children":[2,4,6,8,10,12,14,16,18,20,22,24,26,28,30,-1,-1,-1,-1,-1,-1,-1,-1,-1,-1,-1,-1,-1,-1,-1,-1],"split_conditions":[2.3E0,-1.76E1,1.85E1,-3.39E1,-7.6E0,1.08E1,3.43E1,7.1E1,6.4E1,-1.23E1,-2.1E0,5.3E0,7.7E1,6.5E1,4.89E1,-1.0441805E0,-1.4724201E0,-5.0005776E-1,-7.6156086E-1,-4.7021958E-1,-3.4759974E-1,-1.9598232E-1,-6.6325754E-2,4.808146E-2,1.6865878E-1,2.7452543E-1,4.210894E-1,4.059836E-1,6.800882E-1,9.581856E-1,1.3488183E0],"split_indices":[90,90,90,90,90,90,90,59,59,90,90,90,59,59,90,0,0,0,0,0,0,0,0,0,0,0,0,0,0,0,0],"split_type":[0,0,0,0,0,0,0,0,0,0,0,0,0,0,0,0,0,0,0,0,0,0,0,0,0,0,0,0,0,0,0],"sum_hessian":[1.0077E4,5.054E3,5.023E3,1.456E3,3.598E3,3.067E3,1.956E3,3.2E2,1.136E3,1.544E3,2.054E3,1.683E3,1.384E3,1.461E3,4.95E2,2.39E2,8.1E1,2.19E2,9.17E2,7.61E2,7.83E2,1.145E3,9.09E2,6.11E2,1.072E3,7.15E2,6.69E2,2.73E2,1.188E3,3.74E2,1.21E2],"tree_param":{"num_deleted":"0","num_feature":"208","num_nodes":"31","size_leaf_vector":"1"}},{"base_weights":[3.025038E-2,-3.432188E0,4.132595E0,-6.407076E0,-1.5504147E0,2.7690804E0,7.767515E0,-8.740181E0,-5.052194E0,-2.6116722E0,-4.869618E-1,1.5252973E0,3.8216207E0,6.856559E0,1.1041175E1,-1.2787689E0,-8.031047E-1,-4.0725943E-1,-5.8543235E-1,-3.4432894E-1,-2.1909109E-1,-9.304812E-2,1.5937191E-3,9.292364E-2,2.001059E-1,2.2148995E-1,4.3322492E-1,5.62481E-1,8.566123E-1,8.553446E-1,1.2755388E0],"categories":[],"categories_nodes":[],"categories_segments":[],"categories_sizes":[],"default_left":[0,0,0,0,0,0,0,0,0,0,0,0,0,0,0,0,0,0,0,0,0,0,0,0,0,0,0,0,0,0,0],"id":10,"left_children":[1,3,5,7,9,11,13,15,17,19,21,23,25,27,29,-1,-1,-1,-1,-1,-1,-1,-1,-1,-1,-1,-1,-1,-1,-1,-1],"loss_changes":[1.4306383E5,3.0566691E4,2.2826875E4,6.6446875E3,3.776144E3,4.385E3,3.672875E3,2.1246016E3,1.0298672E3,5.785586E2,3.7316992E2,4.3457446E2,1.4803203E3,2.0280859E3,1.0508398E3,0E0,0E0,0E0,0E0,0E0,0E0,0E0,0E0,0E0,0E0,0E0,0E0,0E0,0E0,0E0,0E0],"parents":[2147483647,0,0,1,1,2,2,3,3,4,4,5,5,6,6,7,7,8,8,9,9,10,10,11,11,12,12,13,13,14,14],"right_children":[2,4,6,8,10,12,14,16,18,20,22,24,26,28,30,-1,-1,-1,-1,-1,-1,-1,-1,-1,-1,-1,-1,-1,-1,-1,-1],"split_conditions":[4.2E0,-1.22E1,2.37E1,-2.47E1,-3.1E0,1.16E1,4.07E1,-4.26E1,7.3E1,-8.8E0,6E-1,7.7E1,7E1,7.2E1,6.2E1,-1.2787689E0,-8.031047E-1,-4.0725943E-1,-5.8543235E-1,-3.4432894E-1,-2.1909109E-1,-9.304812E-2,1.5937191E-3,9.292364E-2,2.001059E-1,2.2148995E-1,4.3322492E-1,5.62481E-1,8.566123E-1,8.553446E-1,1.2755388E0],"split_indices":[92,92,92,92,92,92,92,90,59,92,92,59,59,59,59,0,0,0,0,0,0,0,0,0,0,0,0,0,0,0,0],"split_type":[0,0,0,0,0,0,0,0,0,0,0,0,0,0,0,0,0,0,0,0,0,0,0,0,0,0,0,0,0,0,0],"sum_hessian":[1.007E4,5.461E3,4.609E3,2.115E3,3.346E3,3.353E3,1.256E3,7.75E2,1.34E3,1.674E3,1.672E3,1.538E3,1.815E3,9.85E2,2.71E2,1.13E2,6.62E2,6.06E2,7.34E2,5.6E2,1.114E3,8.88E2,7.84E2,6.84E2,8.54E2,4.39E2,1.376E3,5.75E2,4.1E2,1.13E2,1.58E2],"tree_param":{"num_deleted":"0","num_feature":"208","num_nodes":"31","size_leaf_vector":"1"}},{"base_weights":[-7.58277E-3,-3.250307E0,3.5802145E0,-6.8540344E0,-1.9516906E0,2.14666E0,6.513273E0,-9.249503E0,-5.7831707E0,-3.312262E0,-9.566089E-1,1.1645572E0,3.1595707E0,5.625671E0,9.161799E0,-1.4906055E0,-8.619849E-1,-4.5500833E-1,-6.8802595E-1,-3.861021E-1,-2.6997012E-1,-1.6322294E-1,-3.648574E-2,5.4492403E-2,1.5802488E-1,2.3863006E-1,4.0313563E-1,4.618604E-1,7.030681E-1,7.885042E-1,1.1208248E0],"categories":[],"categories_nodes":[],"categories_segments":[],"categories_sizes":[],"default_left":[0,0,0,0,0,0,0,0,0,0,0,0,0,0,0,0,0,0,0,0,0,0,0,0,0,0,0,0,0,0,0],"id":11,"left_children":[1,3,5,7,9,11,13,15,17,19,21,23,25,27,29,-1,-1,-1,-1,-1,-1,-1,-1,-1,-1,-1,-1,-1,-1,-1,-1],"loss_changes":[1.1768031E5,2.4850723E4,2.0176984E4,3.5557734E3,5.2864395E3,3.2064824E3,3.653375E3,1.4137188E3,1.2876816E3,5.442207E2,9.021516E2,4.2156396E2,1.0608936E3,1.6414023E3,9.410742E2,0E0,0E0,0E0,0E0,0E0,0E0,0E0,0E0,0E0,0E0,0E0,0E0,0E0,0E0,0E0,0E0],"parents":[2147483647,0,0,1,1,2,2,3,3,4,4,5,5,6,6,7,7,8,8,9,9,10,10,11,11,12,12,13,13,14,14],"right_children":[2,4,6,8,10,12,14,16,18,20,22,24,26,28,30,-1,-1,-1,-1,-1,-1,-1,-1,-1,-1,-1,-1,-1,-1,-1,-1],"split_conditions":[3.3E0,-1.78E1,2.08E1,-3.1E1,-6.8E0,1.1E1,3.72E1,-5.09E1,7.1E1,-1.13E1,-2E0,6.3E0,7.7E1,7.3E1,6.7E1,-1.4906055E0,-8.619849E-1,-4.5500833E-1,-6.8802595E-1,-3.861021E-1,-2.6997012E-1,-1.6322294E-1,-3.648574E-2,5.4492403E-2,1.5802488E-1,2.3863006E-1,4.0313563E-1,4.618604E-1,7.030681E-1,7.885042E-1,1.1208248E0],"split_indices":[92,92,92,92,92,92,92,92,59,92,92,92,59,59,59,0,0,0,0,0,0,0,0,0,0,0,0,0,0,0,0],"split_type":[0,0,0,0,0,0,0,0,0,0,0,0,0,0,0,0,0,0,0,0,0,0,0,0,0,0,0,0,0,0,0],"sum_hessian":[1.0113E4,5.312E3,4.801E3,1.406E3,3.906E3,3.226E3,1.575E3,4.32E2,9.74E2,1.649E3,2.257E3,1.639E3,1.587E3,1.182E3,3.93E2,4.1E1,3.91E2,4.61E2,5.13E2,8.67E2,7.82E2,1.053E3,1.204E3,6.59E2,9.8E2,8.43E2,7.44E2,6.91E2,4.91E2,2.45E2,1.48E2],"tree_param":{"num_deleted":"0","num_feature":"208","num_nodes":"31","size_leaf_vector":"1"}},{"base_weights":[-1.4155225E-2,-3.1131258E0,3.0256565E0,-6.0841904E0,-1.8935623E0,1.6995465E0,5.678439E0,-8.793696E0,-5.3336105E0,-2.8564565E0,-9.4258726E-1,7.4231213E-1,2.5695374E0,4.430474E0,7.2341638E0,-1.3074573E0,-8.044874E-1,-4.1208407E-1,-6.058885E-1,-1.9804585E-1,-3.263894E-1,-1.4146991E-1,-4.9472775E-2,2.4678964E-2,1.1600568E-1,2.0793454E-1,3.296753E-1,2.5077975E-1,4.8844776E-1,6.605973E-1,1.0487584E0],"categories":[],"categories_nodes":[],"categories_segments":[],"categories_sizes":[],"default_left":[0,0,0,0,0,0,0,0,0,0,0,0,0,0,0,0,0,0,0,0,0,0,0,0,0,0,0,0,0,0,0],"id":12,"left_children":[1,3,5,7,9,11,13,15,17,19,21,23,25,27,29,-1,-1,-1,-1,-1,-1,-1,-1,-1,-1,-1,-1,-1,-1,-1,-1],"loss_changes":[9.481519E4,1.8047516E4,1.7864703E4,2.9019648E3,3.2342646E3,2.8204014E3,3.2548984E3,8.981719E2,9.7600586E2,6.202783E2,3.7566296E2,3.3402185E2,6.258877E2,8.100254E2,1.4676289E3,0E0,0E0,0E0,0E0,0E0,0E0,0E0,0E0,0E0,0E0,0E0,0E0,0E0,0E0,0E0,0E0],"parents":[2147483647,0,0,1,1,2,2,3,3,4,4,5,5,6,6,7,7,8,8,9,9,10,10,11,11,12,12,13,13,14,14],"right_children":[2,4,6,8,10,12,14,16,18,20,22,24,26,28,30,-1,-1,-1,-1,-1,-1,-1,-1,-1,-1,-1,-1,-1,-1,-1,-1],"split_conditions":[1.9E0,-1.73E1,2E1,-3.39E1,-6E0,9.3E0,3E1,-5.09E1,3.332E1,3.604E1,-2E0,5.4E0,1.51E1,3.152E1,4.95E1,-1.3074573E0,-8.044874E-1,-4.1208407E-1,-6.058885E-1,-1.9804585E-1,-3.263894E-1,-1.4146991E-1,-4.9472775E-2,2.4678964E-2,1.1600568E-1,2.0793454E-1,3.296753E-1,2.5077975E-1,4.8844776E-1,6.605973E-1,1.0487584E0],"split_indices":[92,92,92,92,92,92,92,92,100,100,92,92,92,100,92,0,0,0,0,0,0,0,0,0,0,0,0,0,0,0,0],"split_type":[0,0,0,0,0,0,0,0,0,0,0,0,0,0,0,0,0,0,0,0,0,0,0,0,0,0,0,0,0,0,0],"sum_hessian":[1.0063E4,4.983E3,5.08E3,1.449E3,3.534E3,3.388E3,1.692E3,3.12E2,1.137E3,1.755E3,1.779E3,1.614E3,1.774E3,9.41E2,7.51E2,4.4E1,2.68E2,4.28E2,7.09E2,5.59E2,1.196E3,8.65E2,9.14E2,7.39E2,8.75E2,1.062E3,7.12E2,1.81E2,7.6E2,6.32E2,1.19E2],"tree_param":{"num_deleted":"0","num_feature":"208","num_nodes":"31","size_leaf_vector":"1"}},{"base_weights":[-8.2287835E-3,-2.9781265E0,2.5870838E0,-6.0260344E0,-2.0162265E0,1.2286999E0,4.8802614E0,-9.524924E0,-5.6195803E0,-3.0518386E0,-1.1927053E0,3.498205E-1,1.8741655E0,3.8272853E0,6.599067E0,-6.952299E-1,-1.062786E0,-4.330693E-1,-6.284432E-1,-2.4938448E-1,-3.5915986E-1,-1.5766792E-1,-7.029409E-2,7.5599262E-3,6.836488E-2,1.6203676E-1,2.7616525E-1,2.775263E-1,4.3800288E-1,6.259003E-1,1.1668149E0],"categories":[],"categories_nodes":[],"categories_segments":[],"categories_sizes":[],"default_left":[0,0,0,0,0,0,0,0,0,0,0,0,0,0,0,0,0,0,0,0,0,0,0,0,0,0,0,0,0,0,0],"id":13,"left_children":[1,3,5,7,9,11,13,15,17,19,21,23,25,27,29,-1,-1,-1,-1,-1,-1,-1,-1,-1,-1,-1,-1,-1,-1,-1,-1],"loss_changes":[7.8442414E4,1.390209E4,1.6911656E4,1.5648672E3,3.074291E3,1.9349258E3,3.6306602E3,2.5809277E2,8.485547E2,4.7233203E2,3.7726172E2,1.323192E2,4.3857666E2,7.17625E2,1.2474102E3,0E0,0E0,0E0,0E0,0E0,0E0,0E0,0E0,0E0,0E0,0E0,0E0,0E0,0E0,0E0,0E0],"parents":[2147483647,0,0,1,1,2,2,3,3,4,4,5,5,6,6,7,7,8,8,9,9,10,10,11,11,12,12,13,13,14,14],"right_children":[2,4,6,8,10,12,14,16,18,20,22,24,26,28,30,-1,-1,-1,-1,-1,-1,-1,-1,-1,-1,-1,-1,-1,-1,-1,-1],"split_conditions":[6E-1,-2.05E1,1.76E1,-4.26E1,-8.8E0,7.1E0,3E1,3E1,3.221E1,3.658E1,-3.1E0,4.2E0,1.49E1,3.45E1,5.87E1,-6.952299E-1,-1.062786E0,-4.330693E-1,-6.284432E-1,-2.4938448E-1,-3.5915986E-1,-1.5766792E-1,-7.029409E-2,7.5599262E-3,6.836488E-2,1.6203676E-1,2.7616525E-1,2.775263E-1,4.3800288E-1,6.259003E-1,1.1668149E0],"split_indices":[92,92,92,92,92,92,92,66,100,100,92,92,92,100,92,0,0,0,0,0,0,0,0,0,0,0,0,0,0,0,0],"split_type":[0,0,0,0,0,0,0,0,0,0,0,0,0,0,0,0,0,0,0,0,0,0,0,0,0,0,0,0,0,0,0],"sum_hessian":[1.0175E4,4.745E3,5.43E3,1.137E3,3.608E3,3.411E3,2.019E3,1.16E2,1.021E3,1.597E3,2.011E3,1.445E3,1.966E3,1.254E3,7.65E2,3.7E1,7.9E1,3.5E2,6.71E2,7.88E2,8.09E2,1.126E3,8.85E2,7.94E2,6.51E2,1.531E3,4.35E2,4.34E2,8.2E2,7.19E2,4.6E1],"tree_param":{"num_deleted":"0","num_feature":"208","num_nodes":"31","size_leaf_vector":"1"}},{"base_weights":[-2.0028849E-3,-2.6612313E0,2.3200781E0,-5.3990035E0,-1.7927868E0,9.625976E-1,4.13945E0,-7.614499E0,-4.802014E0,-2.7508686E0,-1.0724111E0,2.8347132E-1,1.537292E0,3.1295924E0,5.681286E0,-6.424915E-1,-1.1216048E0,-3.5392228E-1,-5.601237E-1,-2.3239937E-1,-3.6246487E-1,-1.5691222E-1,-7.245651E-2,-6.4798156E-3,5.8852315E-2,4.771912E-2,1.8492961E-1,2.3997355E-1,4.4271818E-1,5.08146E-1,8.3824366E-1],"categories":[],"categories_nodes":[],"categories_segments":[],"categories_sizes":[],"default_left":[0,0,0,0,0,0,0,0,0,0,0,0,0,0,0,0,0,0,0,0,0,0,0,0,0,0,0,0,0,0,0],"id":14,"left_children":[1,3,5,7,9,11,13,15,17,19,21,23,25,27,29,-1,-1,-1,-1,-1,-1,-1,-1,-1,-1,-1,-1,-1,-1,-1,-1],"loss_changes":[6.2403984E4,1.1191207E4,1.3320381E4,1.4632969E3,2.4665098E3,1.2059509E3,3.5711836E3,9.518955E2,8.8446484E2,5.64124E2,3.520232E2,1.506868E2,5.528025E2,1.3105176E3,1.4334277E3,0E0,0E0,0E0,0E0,0E0,0E0,0E0,0E0,0E0,0E0,0E0,0E0,0E0,0E0,0E0,0E0],"parents":[2147483647,0,0,1,1,2,2,3,3,4,4,5,5,6,6,7,7,8,8,9,9,10,10,11,11,12,12,13,13,14,14],"right_children":[2,4,6,8,10,12,14,16,18,20,22,24,26,28,30,-1,-1,-1,-1,-1,-1,-1,-1,-1,-1,-1,-1,-1,-1,-1,-1],"split_conditions":[6E-1,-2.05E1,1.57E1,-3.64E1,-9E0,7.1E0,2.77E1,7.1E1,6.8E1,7.9E1,-4.7E0,7.7E1,7.2E1,7.7E1,4.62E1,-6.424915E-1,-1.1216048E0,-3.5392228E-1,-5.601237E-1,-2.3239937E-1,-3.6246487E-1,-1.5691222E-1,-7.245651E-2,-6.4798156E-3,5.8852315E-2,4.771912E-2,1.8492961E-1,2.3997355E-1,4.4271818E-1,5.08146E-1,8.3824366E-1],"split_indices":[92,92,92,92,92,92,92,59,59,59,92,59,59,59,92,0,0,0,0,0,0,0,0,0,0,0,0,0,0,0,0],"split_type":[0,0,0,0,0,0,0,0,0,0,0,0,0,0,0,0,0,0,0,0,0,0,0,0,0,0,0,0,0,0,0],"sum_hessian":[1.0104E4,4.71E3,5.394E3,1.133E3,3.577E3,3.09E3,2.304E3,2.38E2,8.95E2,1.534E3,2.043E3,1.417E3,1.673E3,1.394E3,9.1E2,1.81E2,5.7E1,3.49E2,5.46E2,1.033E3,5.01E2,8.4E2,1.203E3,6.62E2,7.55E2,3.81E2,1.292E3,8.94E2,5E2,7.47E2,1.63E2],"tree_param":{"num_deleted":"0","num_feature":"208","num_nodes":"31","size_leaf_vector":"1"}},{"base_weights":[4.37964E-3,-2.039429E0,2.4773288E0,-4.0010066E0,-9.8473096E-1,1.5600438E0,4.5209217E0,-5.64101E0,-3.2144089E0,-1.68686E0,-3.7738666E-1,1.0543954E0,2.4578443E0,4.0719676E0,7.095782E0,-3.88954E-1,-6.5609807E-1,-2.3297791E-1,-3.8019368E-1,-1.0258961E-1,-1.9181693E-1,-7.6927096E-2,-5.014533E-3,7.147507E-2,1.7118166E-1,1.9608705E-1,3.9418373E-1,2.386565E-1,4.9468088E-1,5.488077E-1,9.932868E-1],"categories":[],"categories_nodes":[],"categories_segments":[],"categories_sizes":[],"default_left":[0,0,0,0,0,0,0,0,0,0,0,0,0,0,0,0,0,0,0,0,0,0,0,0,0,0,0,0,0,0,0],"id":15,"left_children":[1,3,5,7,9,11,13,15,17,19,21,23,25,27,29,-1,-1,-1,-1,-1,-1,-1,-1,-1,-1,-1,-1,-1,-1,-1,-1],"loss_changes":[5.0855707E4,1.1393475E4,8.527803E3,2.4664531E3,1.5277034E3,1.4246953E3,1.6010586E3,9.7831836E2,6.6888965E2,2.5213037E2,2.4656833E2,4.482583E2,8.2712695E2,1.7619668E3,8.942168E2,0E0,0E0,0E0,0E0,0E0,0E0,0E0,0E0,0E0,0E0,0E0,0E0,0E0,0E0,0E0,0E0],"parents":[2147483647,0,0,1,1,2,2,3,3,4,4,5,5,6,6,7,7,8,8,9,9,10,10,11,11,12,12,13,13,14,14],"right_children":[2,4,6,8,10,12,14,16,18,20,22,24,26,28,30,-1,-1,-1,-1,-1,-1,-1,-1,-1,-1,-1,-1,-1,-1,-1,-1],"split_conditions":[4.2E0,-1.35E1,2.26E1,-2.71E1,-4.3E0,1.45E1,4.39E1,6.4E1,7.1E1,7.2E1,-3E-1,8.1E1,8.1E1,6.7E1,6.4E1,-3.88954E-1,-6.5609807E-1,-2.3297791E-1,-3.8019368E-1,-1.0258961E-1,-1.9181693E-1,-7.6927096E-2,-5.014533E-3,7.147507E-2,1.7118166E-1,1.9608705E-1,3.9418373E-1,2.386565E-1,4.9468088E-1,5.488077E-1,9.932868E-1],"split_indices":[92,92,92,92,92,92,92,59,59,59,92,59,59,59,59,0,0,0,0,0,0,0,0,0,0,0,0,0,0,0,0],"split_type":[0,0,0,0,0,0,0,0,0,0,0,0,0,0,0,0,0,0,0,0,0,0,0,0,0,0,0,0,0,0,0],"sum_hessian":[1.006E4,5.508E3,4.552E3,1.925E3,3.583E3,3.143E3,1.409E3,6.22E2,1.303E3,1.661E3,1.922E3,2.012E3,1.131E3,1.202E3,2.07E2,2.16E2,4.06E2,5.22E2,7.81E2,4.32E2,1.229E3,8.74E2,1.048E3,1.328E3,6.84E2,8.49E2,2.82E2,4.12E2,7.9E2,1.34E2,7.3E1],"tree_param":{"num_deleted":"0","num_feature":"208","num_nodes":"31","size_leaf_vector":"1"}},{"base_weights":[7.647801E-3,-1.9434857E0,2.1263669E0,-3.873392E0,-1.1139702E0,1.3538774E0,4.2280436E0,-5.689394E0,-3.3566635E0,-1.8915557E0,-5.772524E-1,6.712266E-1,2.0238717E0,3.851959E0,6.7452374E0,-4.1640288E-1,-6.899121E-1,-2.5592694E-1,-3.9336964E-1,-1.4925422E-1,-2.4712144E-1,-9.6949734E-2,-2.2595456E-2,3.2567326E-2,9.584842E-2,2.5401125E-2,2.1784167E-1,1.5900719E-1,4.331297E-1,5.6789154E-1,9.19722E-1],"categories":[],"categories_nodes":[],"categories_segments":[],"categories_sizes":[],"default_left":[0,0,0,0,0,0,0,0,0,0,0,0,0,0,0,0,0,0,0,0,0,0,0,0,0,0,0,0,0,0,0],"id":16,"left_children":[1,3,5,7,9,11,13,15,17,19,21,23,25,27,29,-1,-1,-1,-1,-1,-1,-1,-1,-1,-1,-1,-1,-1,-1,-1,-1],"loss_changes":[4.1562266E4,8.37473E3,7.8196562E3,1.4569727E3,1.5272222E3,1.611335E3,1.1999648E3,6.1158203E2,5.545039E2,3.420923E2,2.9852008E2,1.7319928E2,4.8604492E2,1.2171836E3,3.8440918E2,0E0,0E0,0E0,0E0,0E0,0E0,0E0,0E0,0E0,0E0,0E0,0E0,0E0,0E0,0E0,0E0],"parents":[2147483647,0,0,1,1,2,2,3,3,4,4,5,5,6,6,7,7,8,8,9,9,10,10,11,11,12,12,13,13,14,14],"right_children":[2,4,6,8,10,12,14,16,18,20,22,24,26,28,30,-1,-1,-1,-1,-1,-1,-1,-1,-1,-1,-1,-1,-1,-1,-1,-1],"split_conditions":[3E0,-1.62E1,2.37E1,-3.29E1,-6.8E0,1.14E1,4.62E1,3.105E1,3.423E1,3.818E1,-2E0,3.746E1,3.111E1,2.959E1,2.2E0,-4.1640288E-1,-6.899121E-1,-2.5592694E-1,-3.9336964E-1,-1.4925422E-1,-2.4712144E-1,-9.6949734E-2,-2.2595456E-2,3.2567326E-2,9.584842E-2,2.5401125E-2,2.1784167E-1,1.5900719E-1,4.331297E-1,5.6789154E-1,9.19722E-1],"split_indices":[92,92,92,92,92,92,92,100,100,100,92,100,100,100,96,0,0,0,0,0,0,0,0,0,0,0,0,0,0,0,0],"split_type":[0,0,0,0,0,0,0,0,0,0,0,0,0,0,0,0,0,0,0,0,0,0,0,0,0,0,0,0,0,0,0],"sum_hessian":[1.0052E4,5.233E3,4.819E3,1.572E3,3.661E3,3.525E3,1.294E3,3.46E2,1.226E3,1.494E3,2.167E3,1.747E3,1.778E3,1.128E3,1.66E2,1.55E2,1.91E2,5.17E2,7.09E2,8.87E2,6.07E2,1.023E3,1.144E3,7.94E2,9.53E2,1.43E2,1.635E3,1.98E2,9.3E2,1.18E2,4.8E1],"tree_param":{"num_deleted":"0","num_feature":"208","num_nodes":"31","size_leaf_vector":"1"}},{"base_weights":[-5.9546907E-3,-1.7787992E0,1.8990399E0,-4.171235E0,-1.1952714E0,1.206733E0,3.854154E0,-7.778784E0,-3.8517566E0,-1.9744148E0,-5.8721685E-1,7.9714453E-1,2.069699E0,3.6797638E0,9.24639E0,-6.4803576E-1,-1.203539E0,-3.3119008E-1,-5.60105E-1,-1.4598915E-1,-2.4527009E-1,-9.1545686E-2,-2.2595119E-2,-5.512403E-3,9.754354E-2,3.965065E-2,2.4361764E-1,1.432753E-1,4.1365728E-1,4.199298E-1,1.0219215E0],"categories":[],"categories_nodes":[],"categories_segments":[],"categories_sizes":[],"default_left":[0,0,0,0,0,0,0,0,0,0,0,0,0,0,0,0,0,0,0,0,0,0,0,0,0,0,0,0,0,0,0],"id":17,"left_children":[1,3,5,7,9,11,13,15,17,19,21,23,25,27,29,-1,-1,-1,-1,-1,-1,-1,-1,-1,-1,-1,-1,-1,-1,-1,-1],"loss_changes":[3.3931324E4,7.2600723E3,6.550537E3,1.145623E3,1.9815332E3,1.2630337E3,1.1564629E3,3.7521143E2,8.6821094E2,4.4774707E2,2.7869757E2,3.689923E2,7.04812E2,1.2545605E3,1.4857373E2,0E0,0E0,0E0,0E0,0E0,0E0,0E0,0E0,0E0,0E0,0E0,0E0,0E0,0E0,0E0,0E0],"parents":[2147483647,0,0,1,1,2,2,3,3,4,4,5,5,6,6,7,7,8,8,9,9,10,10,11,11,12,12,13,13,14,14],"right_children":[2,4,6,8,10,12,14,16,18,20,22,24,26,28,30,-1,-1,-1,-1,-1,-1,-1,-1,-1,-1,-1,-1,-1,-1,-1,-1],"split_conditions":[2.9E0,-2.16E1,2.37E1,-4.63E1,-8E0,1.51E1,5.71E1,6.8E1,7.5E1,7.5E1,-2E0,7E1,6.7E1,6.1E1,2.617E1,-6.4803576E-1,-1.203539E0,-3.3119008E-1,-5.60105E-1,-1.4598915E-1,-2.4527009E-1,-9.1545686E-2,-2.2595119E-2,-5.512403E-3,9.754354E-2,3.965065E-2,2.4361764E-1,1.432753E-1,4.1365728E-1,4.199298E-1,1.0219215E0],"split_indices":[90,92,90,92,92,92,90,59,59,59,92,59,59,59,100,0,0,0,0,0,0,0,0,0,0,0,0,0,0,0,0],"split_type":[0,0,0,0,0,0,0,0,0,0,0,0,0,0,0,0,0,0,0,0,0,0,0,0,0,0,0,0,0,0,0],"sum_hessian":[1.0045E4,5.203E3,4.842E3,1.019E3,4.184E3,3.577E3,1.265E3,8.1E1,9.38E2,1.833E3,2.351E3,2.427E3,1.15E3,1.227E3,3.8E1,6.4E1,1.7E1,7.19E2,2.19E2,8.85E2,9.48E2,1.231E3,1.12E3,4.2E2,2.007E3,2.07E2,9.43E2,2.08E2,1.019E3,7E0,3.1E1],"tree_param":{"num_deleted":"0","num_feature":"208","num_nodes":"31","size_leaf_vector":"1"}},{"base_weights":[2.134516E-2,-1.5010364E0,1.8101798E0,-2.8578548E0,-6.549488E-1,1.2729886E0,3.870885E0,-4.211632E0,-2.28111E0,-1.056708E0,-2.4410403E-1,7.323172E-1,1.8477608E0,2.3077133E0,4.686026E0,-3.4153092E-1,-5.8991593E-1,-1.4353548E-1,-2.69525E-1,-8.815732E-2,-1.5934378E-1,-3.4450423E-2,1.9206781E-2,4.6335295E-2,1.2292265E-1,1.3101995E-1,2.6093516E-1,1.2842372E-1,4.0505186E-1,4.118304E-1,6.902136E-1],"categories":[],"categories_nodes":[],"categories_segments":[],"categories_sizes":[],"default_left":[0,0,0,0,0,0,0,0,0,0,0,0,0,0,0,0,0,0,0,0,0,0,0,0,0,0,0,0,0,0,0],"id":18,"left_children":[1,3,5,7,9,11,13,15,17,19,21,23,25,27,29,-1,-1,-1,-1,-1,-1,-1,-1,-1,-1,-1,-1,-1,-1,-1,-1],"loss_changes":[2.751338E4,6.2638438E3,5.1370537E3,1.626916E3,5.5484094E2,1.1441191E3,1.2124238E3,8.197383E2,5.1171582E2,1.5839551E2,7.293564E1,2.5350073E2,7.2777295E2,5.8520935E2,7.641992E2,0E0,0E0,0E0,0E0,0E0,0E0,0E0,0E0,0E0,0E0,0E0,0E0,0E0,0E0,0E0,0E0],"parents":[2147483647,0,0,1,1,2,2,3,3,4,4,5,5,6,6,7,7,8,8,9,9,10,10,11,11,12,12,13,13,14,14],"right_children":[2,4,6,8,10,12,14,16,18,20,22,24,26,28,30,-1,-1,-1,-1,-1,-1,-1,-1,-1,-1,-1,-1,-1,-1,-1,-1],"split_conditions":[4.3E0,-1.22E1,2.71E1,-2.73E1,-3.1E0,1.38E1,6.4E1,7.1E1,7E1,4.03E1,4.3E0,8.1E1,7.7E1,4.39E1,4.07E1,-3.4153092E-1,-5.8991593E-1,-1.4353548E-1,-2.69525E-1,-8.815732E-2,-1.5934378E-1,-3.4450423E-2,1.9206781E-2,4.6335295E-2,1.2292265E-1,1.3101995E-1,2.6093516E-1,1.2842372E-1,4.0505186E-1,4.118304E-1,6.902136E-1],"split_indices":[90,92,92,90,92,90,59,59,59,100,92,59,59,92,92,0,0,0,0,0,0,0,0,0,0,0,0,0,0,0,0],"split_type":[0,0,0,0,0,0,0,0,0,0,0,0,0,0,0,0,0,0,0,0,0,0,0,0,0,0,0,0,0,0,0],"sum_hessian":[1.0101E4,5.457E3,4.644E3,2.095E3,3.362E3,3.685E3,9.59E2,6.24E2,1.471E3,1.699E3,1.663E3,1.9E3,1.785E3,3.3E2,6.29E2,4.26E2,1.98E2,4.85E2,9.86E2,1.283E3,4.16E2,1.352E3,3.11E2,1.234E3,6.66E2,1.048E3,7.37E2,2.09E2,1.21E2,5.03E2,1.26E2],"tree_param":{"num_deleted":"0","num_feature":"208","num_nodes":"31","size_leaf_vector":"1"}},{"base_weights":[-6.900023E-3,-1.3452747E0,1.6731377E0,-3.1974258E0,-8.133407E-1,1.2462474E0,3.652351E0,-8.191532E0,-3.0207038E0,-1.3527422E0,-2.8972283E-1,7.748621E-1,1.8717712E0,3.0424056E0,5.9059052E0,-5.783481E-1,-1.0551213E0,-1.08993135E-1,-3.413099E-1,-1.1524808E-1,-1.9658267E-1,-4.9888846E-2,-6.359235E-4,5.4253396E-2,1.4825018E-1,1.450018E-1,3.117443E-1,2.7524754E-1,7.693421E-1,4.9542794E-1,7.915187E-1],"categories":[],"categories_nodes":[],"categories_segments":[],"categories_sizes":[],"default_left":[0,0,0,0,0,0,0,0,0,0,0,0,0,0,0,0,0,0,0,0,0,0,0,0,0,0,0,0,0,0,0],"id":19,"left_children":[1,3,5,7,9,11,13,15,17,19,21,23,25,27,29,-1,-1,-1,-1,-1,-1,-1,-1,-1,-1,-1,-1,-1,-1,-1,-1],"loss_changes":[2.2566146E4,5.5008506E3,3.7552842E3,1.0749355E3,1.2256814E3,1.0783369E3,1.0665479E3,1.7763086E2,9.092197E2,2.6023218E2,1.3062773E2,3.4280115E2,8.218804E2,8.189209E2,2.80104E2,0E0,0E0,0E0,0E0,0E0,0E0,0E0,0E0,0E0,0E0,0E0,0E0,0E0,0E0,0E0,0E0],"parents":[2147483647,0,0,1,1,2,2,3,3,4,4,5,5,6,6,7,7,8,8,9,9,10,10,11,11,12,12,13,13,14,14],"right_children":[2,4,6,8,10,12,14,16,18,20,22,24,26,28,30,-1,-1,-1,-1,-1,-1,-1,-1,-1,-1,-1,-1,-1,-1,-1,-1],"split_conditions":[4.9E0,-1.92E1,2.94E1,-5.09E1,-5.1E0,1.53E1,7.4E1,6.4E1,6.2E1,8.2E1,6E-1,8.3E1,7.9E1,5.87E1,3.72E1,-5.783481E-1,-1.0551213E0,-1.08993135E-1,-3.413099E-1,-1.1524808E-1,-1.9658267E-1,-4.9888846E-2,-6.359235E-4,5.4253396E-2,1.4825018E-1,1.450018E-1,3.117443E-1,2.7524754E-1,7.693421E-1,4.9542794E-1,7.915187E-1],"split_indices":[92,92,92,92,92,92,59,59,59,59,92,59,59,92,92,0,0,0,0,0,0,0,0,0,0,0,0,0,0,0,0],"split_type":[0,0,0,0,0,0,0,0,0,0,0,0,0,0,0,0,0,0,0,0,0,0,0,0,0,0,0,0,0,0,0],"sum_hessian":[1.0034E4,5.585E3,4.449E3,1.245E3,4.34E3,3.661E3,7.88E2,4.1E1,1.204E3,2.137E3,2.203E3,2.089E3,1.572E3,6.22E2,1.66E2,2.2E1,1.9E1,2.04E2,1E3,1.613E3,5.24E2,1.267E3,9.36E2,1.574E3,5.15E2,1.176E3,3.96E2,5.87E2,3.5E1,1.15E2,5.1E1],"tree_param":{"num_deleted":"0","num_feature":"208","num_nodes":"31","size_leaf_vector":"1"}},{"base_weights":[9.308098E-4,-1.1419466E0,1.583023E0,-3.0677135E0,-7.2747606E-1,1.1139659E0,3.2652314E0,-5.0205555E0,-2.7240424E0,-1.2867589E0,-2.3260134E-1,7.670889E-1,1.5979329E0,3.0948095E0,6.8517385E0,-3.8751546E-1,-6.9017607E-1,-2.479605E-1,-4.8013765E-1,-1.0404539E-1,-1.7402624E-1,-4.2773794E-2,6.7586373E-3,-2.7139927E-3,8.6876236E-2,9.175005E-2,2.0103525E-1,2.0104106E-1,3.7877467E-1,1.2524752E-1,8.1711817E-1],"categories":[],"categories_nodes":[],"categories_segments":[],"categories_sizes":[],"default_left":[0,0,0,0,0,0,0,0,0,0,0,0,0,0,0,0,0,0,0,0,0,0,0,0,0,0,0,0,0,0,0],"id":20,"left_children":[1,3,5,7,9,11,13,15,17,19,21,23,25,27,29,-1,-1,-1,-1,-1,-1,-1,-1,-1,-1,-1,-1,-1,-1,-1,-1],"loss_changes":[1.8240492E4,4.672671E3,3.3348398E3,6.82292E2,1.334033E3,5.544468E2,5.4233887E2,3.0508325E2,4.3696973E2,2.5096631E2,1.4992902E2,1.5587488E2,3.8569678E2,6.551387E2,2.9267004E2,0E0,0E0,0E0,0E0,0E0,0E0,0E0,0E0,0E0,0E0,0E0,0E0,0E0,0E0,0E0,0E0],"parents":[2147483647,0,0,1,1,2,2,3,3,4,4,5,5,6,6,7,7,8,8,9,9,10,10,11,11,12,12,13,13,14,14],"right_children":[2,4,6,8,10,12,14,16,18,20,22,24,26,28,30,-1,-1,-1,-1,-1,-1,-1,-1,-1,-1,-1,-1,-1,-1,-1,-1],"split_conditions":[5.9E0,-2.16E1,2.76E1,-4.03E1,-6.3E0,1.57E1,5.87E1,3.152E1,3.906E1,2.67E0,1.5E0,3.336E1,3.514E1,3.152E1,1.282E2,-3.8751546E-1,-6.9017607E-1,-2.479605E-1,-4.8013765E-1,-1.0404539E-1,-1.7402624E-1,-4.2773794E-2,6.7586373E-3,-2.7139927E-3,8.6876236E-2,9.175005E-2,2.0103525E-1,2.0104106E-1,3.7877467E-1,1.2524752E-1,8.1711817E-1],"split_indices":[92,92,90,92,90,92,92,100,100,96,90,100,100,100,89,0,0,0,0,0,0,0,0,0,0,0,0,0,0,0,0],"split_type":[0,0,0,0,0,0,0,0,0,0,0,0,0,0,0,0,0,0,0,0,0,0,0,0,0,0,0,0,0,0,0],"sum_hessian":[1.0086E4,5.856E3,4.23E3,1.036E3,4.82E3,3.309E3,9.21E2,1.53E2,8.83E2,2.262E3,2.558E3,1.929E3,1.38E3,8.81E2,4E1,9.7E1,5.6E1,7.92E2,9.1E1,1.468E3,7.94E2,1.55E3,1.008E3,2.19E2,1.71E3,5.22E2,8.58E2,3.45E2,5.36E2,8E0,3.2E1],"tree_param":{"num_deleted":"0","num_feature":"208","num_nodes":"31","size_leaf_vector":"1"}},{"base_weights":[-1.379393E-2,-1.2368834E0,1.1676211E0,-3.0442998E0,-8.7110996E-1,5.9717757E-1,2.243309E0,-2.6091816E0,-4.953678E0,-1.4943353E0,-4.5966524E-1,2.5412565E-1,1.0211978E0,4.0451154E-1,2.5127516E0,-5.321888E-1,-2.2503872E-1,-4.4765612E-1,-9.710807E-1,-1.20033555E-1,-2.1892488E-1,-6.187976E-2,-1.8138098E-2,2.0168878E-3,4.7277633E-2,-2.0014139E-2,1.2260329E-1,-2.52284E-2,2.2258507E-1,1.9728912E-1,3.9879468E-1],"categories":[],"categories_nodes":[],"categories_segments":[],"categories_sizes":[],"default_left":[0,0,0,0,0,0,0,0,0,0,0,0,0,0,0,0,0,0,0,0,0,0,0,0,0,0,0,0,0,0,0],"id":21,"left_children":[1,3,5,7,9,11,13,15,17,19,21,23,25,27,29,-1,-1,-1,-1,-1,-1,-1,-1,-1,-1,-1,-1,-1,-1,-1,-1],"loss_changes":[1.4422309E4,3.2394072E3,3.1140054E3,6.724888E2,1.0455176E3,4.8252527E2,8.7048047E2,6.4403076E2,3.0152393E2,3.2875415E2,1.0878223E2,9.391069E1,3.7150244E2,2.7091342E2,1.2138086E3,0E0,0E0,0E0,0E0,0E0,0E0,0E0,0E0,0E0,0E0,0E0,0E0,0E0,0E0,0E0,0E0],"parents":[2147483647,0,0,1,1,2,2,3,3,4,4,5,5,6,6,7,7,8,8,9,9,10,10,11,11,12,12,13,13,14,14],"right_children":[2,4,6,8,10,12,14,16,18,20,22,24,26,28,30,-1,-1,-1,-1,-1,-1,-1,-1,-1,-1,-1,-1,-1,-1,-1,-1],"split_conditions":[1.5E0,-2.42E1,1.94E1,7.5E1,-1.03E1,1.03E1,6E1,-4.63E1,8.8E1,7.9E1,-2E0,7.8E1,6.8E1,4.6E1,3.34E1,-5.321888E-1,-2.2503872E-1,-4.4765612E-1,-9.710807E-1,-1.20033555E-1,-2.1892488E-1,-6.187976E-2,-1.8138098E-2,2.0168878E-3,4.7277633E-2,-2.0014139E-2,1.2260329E-1,-2.52284E-2,2.2258507E-1,1.9728912E-1,3.9879468E-1],"split_indices":[90,92,92,59,92,92,59,92,59,59,92,59,59,90,92,0,0,0,0,0,0,0,0,0,0,0,0,0,0,0,0],"split_type":[0,0,0,0,0,0,0,0,0,0,0,0,0,0,0,0,0,0,0,0,0,0,0,0,0,0,0,0,0,0,0],"sum_hessian":[9.979E3,4.903E3,5.076E3,8.24E2,4.079E3,3.318E3,1.758E3,6.73E2,1.51E2,1.621E3,2.458E3,1.835E3,1.483E3,2.25E2,1.533E3,7.7E1,5.96E2,1.39E2,1.2E1,1.141E3,4.8E2,1.563E3,8.95E2,8.87E2,9.48E2,2.13E2,1.27E3,1.66E2,5.9E1,1.124E3,4.09E2],"tree_param":{"num_deleted":"0","num_feature":"208","num_nodes":"31","size_leaf_vector":"1"}},{"base_weights":[-8.7927096E-4,-9.9725074E-1,1.1924572E0,-2.2719278E0,-5.735625E-1,8.198704E-1,2.55942E0,-3.6514275E0,-1.9224458E0,-1.1317229E0,-3.316228E-1,-2.5122944E-1,9.5859E-1,2.021265E0,4.1989937E0,-2.2006348E-1,-4.7604248E-1,-4.3465853E-2,-2.1736617E-1,-2.6765272E-2,-1.3224381E-1,-5.0587423E-2,-5.6495904E-3,-1.4979468E-1,-7.144896E-3,6.558733E-2,1.5376422E-1,1.7931564E-1,5.860942E-1,3.618469E-1,6.6470903E-1],"categories":[],"categories_nodes":[],"categories_segments":[],"categories_sizes":[],"default_left":[0,0,0,0,0,0,0,0,0,0,0,0,0,0,0,0,0,0,0,0,0,0,0,0,0,0,0,0,0,0,0],"id":22,"left_children":[1,3,5,7,9,11,13,15,17,19,21,23,25,27,29,-1,-1,-1,-1,-1,-1,-1,-1,-1,-1,-1,-1,-1,-1,-1,-1],"loss_changes":[1.1949515E4,2.9566362E3,2.3269858E3,6.5154297E2,5.5491406E2,5.343948E2,8.553281E2,4.3197803E2,4.0719653E2,2.0448157E2,1.3756284E2,9.2460915E1,5.5693555E2,6.3675366E2,3.1845264E2,0E0,0E0,0E0,0E0,0E0,0E0,0E0,0E0,0E0,0E0,0E0,0E0,0E0,0E0,0E0,0E0],"parents":[2147483647,0,0,1,1,2,2,3,3,4,4,5,5,6,6,7,7,8,8,9,9,10,10,11,11,12,12,13,13,14,14],"right_children":[2,4,6,8,10,12,14,16,18,20,22,24,26,28,30,-1,-1,-1,-1,-1,-1,-1,-1,-1,-1,-1,-1,-1,-1,-1,-1],"split_conditions":[4.3E0,-1.83E1,2.66E1,-3.51E1,-9.4E0,6.6E1,7.4E1,6.4E1,6.2E1,3.34E1,-3E-1,5.6E1,1.57E1,5.87E1,3.79E1,-2.2006348E-1,-4.7604248E-1,-4.3465853E-2,-2.1736617E-1,-2.6765272E-2,-1.3224381E-1,-5.0587423E-2,-5.6495904E-3,-1.4979468E-1,-7.144896E-3,6.558733E-2,1.5376422E-1,1.7931564E-1,5.860942E-1,3.618469E-1,6.6470903E-1],"split_indices":[90,90,92,92,92,59,59,59,59,100,92,59,92,92,92,0,0,0,0,0,0,0,0,0,0,0,0,0,0,0,0],"split_type":[0,0,0,0,0,0,0,0,0,0,0,0,0,0,0,0,0,0,0,0,0,0,0,0,0,0,0,0,0,0,0],"sum_hessian":[1.0048E4,5.476E3,4.572E3,1.365E3,4.111E3,3.594E3,9.78E2,2.74E2,1.091E3,1.242E3,2.869E3,4.12E2,3.182E3,7.38E2,2.4E2,1.2E2,1.54E2,1.58E2,9.33E2,2.25E2,1.017E3,1.756E3,1.113E3,5.1E1,3.61E2,2.091E3,1.091E3,6.98E2,4E1,1.96E2,4.4E1],"tree_param":{"num_deleted":"0","num_feature":"208","num_nodes":"31","size_leaf_vector":"1"}},{"base_weights":[3.8116476E-3,-8.584662E-1,1.1322966E0,-2.4904003E0,-5.7998466E-1,7.9769677E-1,2.164327E0,-6.453973E-1,-2.8287385E0,-1.1232765E0,-2.7399296E-1,3.520721E-1,1.1324943E0,1.3491368E0,3.1222908E0,-3.0461097E-1,-3.087008E-2,-5.603938E-1,-2.5767535E-1,-9.682745E-2,-2.333651E-1,-4.438148E-2,-4.3624244E-3,-1.0162325E-1,4.628889E-2,7.4613445E-2,1.5957078E-1,-7.054498E-2,1.6779663E-1,2.808722E-1,6.510692E-1],"categories":[],"categories_nodes":[],"categories_segments":[],"categories_sizes":[],"default_left":[0,0,0,0,0,0,0,0,0,0,0,0,0,0,0,0,0,0,0,0,0,0,0,0,0,0,0,0,0,0,0],"id":23,"left_children":[1,3,5,7,9,11,13,15,17,19,21,23,25,27,29,-1,-1,-1,-1,-1,-1,-1,-1,-1,-1,-1,-1,-1,-1,-1,-1],"loss_changes":[9.860092E3,2.6089937E3,1.5138706E3,5.206592E2,8.156117E2,4.9432886E2,8.3449854E2,1.04948456E2,4.7997168E2,3.294358E2,1.2286171E2,2.1639308E2,3.37594E2,3.9438806E2,5.055244E2,0E0,0E0,0E0,0E0,0E0,0E0,0E0,0E0,0E0,0E0,0E0,0E0,0E0,0E0,0E0,0E0],"parents":[2147483647,0,0,1,1,2,2,3,3,4,4,5,5,6,6,7,7,8,8,9,9,10,10,11,11,12,12,13,13,14,14],"right_children":[2,4,6,8,10,12,14,16,18,20,22,24,26,28,30,-1,-1,-1,-1,-1,-1,-1,-1,-1,-1,-1,-1,-1,-1,-1,-1],"split_conditions":[5.4E0,-2.42E1,2.58E1,6E1,-9.4E0,7.5E1,6.9E1,-5.09E1,-4.63E1,8.5E1,-3E-1,5.9E1,1.33E1,5.7E1,4.19E1,-3.0461097E-1,-3.087008E-2,-5.603938E-1,-2.5767535E-1,-9.682745E-2,-2.333651E-1,-4.438148E-2,-4.3624244E-3,-1.0162325E-1,4.628889E-2,7.4613445E-2,1.5957078E-1,-7.054498E-2,1.6779663E-1,2.808722E-1,6.510692E-1],"split_indices":[92,92,92,59,92,59,59,92,92,59,92,59,92,59,92,0,0,0,0,0,0,0,0,0,0,0,0,0,0,0,0],"split_type":[0,0,0,0,0,0,0,0,0,0,0,0,0,0,0,0,0,0,0,0,0,0,0,0,0,0,0,0,0,0,0],"sum_hessian":[1.0131E4,5.743E3,4.388E3,8.36E2,4.907E3,3.315E3,1.073E3,1.3E2,7.06E2,1.767E3,3.14E3,1.423E3,1.892E3,5.81E2,4.92E2,1.5E1,1.15E2,5.7E1,6.49E2,1.568E3,1.99E2,1.807E3,1.333E3,1.06E2,1.317E3,1.033E3,8.59E2,8E1,5.01E2,4.52E2,4E1],"tree_param":{"num_deleted":"0","num_feature":"208","num_nodes":"31","size_leaf_vector":"1"}},{"base_weights":[5.529845E-3,-7.362774E-1,1.0823805E0,-1.6361911E0,-2.987291E-1,8.394057E-1,2.4912086E0,-2.738045E0,-1.3253762E0,-5.042608E-1,1.9151979E-3,5.711545E-1,1.1843528E0,2.2113564E0,4.370573E0,-5.5909085E-1,-2.4287286E-1,-1.0048628E-1,-1.6667907E-1,-2.425282E-2,-6.271268E-2,-3.5793935E-3,6.693882E-2,3.5952557E-2,8.234344E-2,9.45117E-2,1.5870309E-1,1.7963585E-1,2.9180816E-1,1.826795E-2,4.658862E-1],"categories":[],"categories_nodes":[],"categories_segments":[],"categories_sizes":[],"default_left":[0,0,0,0,0,0,0,0,0,0,0,0,0,0,0,0,0,0,0,0,0,0,0,0,0,0,0,0,0,0,0],"id":24,"left_children":[1,3,5,7,9,11,13,15,17,19,21,23,25,27,29,-1,-1,-1,-1,-1,-1,-1,-1,-1,-1,-1,-1,-1,-1,-1,-1],"loss_changes":[8.0217046E3,2.340783E3,1.4000098E3,6.6248047E2,2.4729233E2,3.2272437E2,3.0695337E2,3.6322168E2,1.6454614E2,7.6287476E1,4.09501E1,1.0477496E2,1.457002E2,1.4902808E2,9.211279E1,0E0,0E0,0E0,0E0,0E0,0E0,0E0,0E0,0E0,0E0,0E0,0E0,0E0,0E0,0E0,0E0],"parents":[2147483647,0,0,1,1,2,2,3,3,4,4,5,5,6,6,7,7,8,8,9,9,10,10,11,11,12,12,13,13,14,14],"right_children":[2,4,6,8,10,12,14,16,18,20,22,24,26,28,30,-1,-1,-1,-1,-1,-1,-1,-1,-1,-1,-1,-1,-1,-1,-1,-1],"split_conditions":[6.7E0,-1.32E1,3.27E1,-3.1E1,-9E-1,1.68E1,5.33E1,-5.09E1,9.865E1,3.2E1,3.11E0,6.6E1,9.934E1,8.343E1,7.522E1,-5.5909085E-1,-2.4287286E-1,-1.0048628E-1,-1.6667907E-1,-2.425282E-2,-6.271268E-2,-3.5793935E-3,6.693882E-2,3.5952557E-2,8.234344E-2,9.45117E-2,1.5870309E-1,1.7963585E-1,2.9180816E-1,1.826795E-2,4.658862E-1],"split_indices":[92,92,92,92,92,92,92,92,94,66,200,73,102,101,101,0,0,0,0,0,0,0,0,0,0,0,0,0,0,0,0],"split_type":[0,0,0,0,0,0,0,0,0,0,0,0,0,0,0,0,0,0,0,0,0,0,0,0,0,0,0,0,0,0,0],"sum_hessian":[1.004E4,5.945E3,4.095E3,1.944E3,4.001E3,3.494E3,6.01E2,4.26E2,1.518E3,2.376E3,1.625E3,1.967E3,1.527E3,5.25E2,7.6E1,4E1,3.86E2,7.85E2,7.33E2,7.6E2,1.616E3,1.539E3,8.6E1,1.071E3,8.96E2,9.6E2,5.67E2,3.33E2,1.92E2,5E0,7.1E1],"tree_param":{"num_deleted":"0","num_feature":"208","num_nodes":"31","size_leaf_vector":"1"}},{"base_weights":[-5.9802323E-3,-6.8068E-1,9.819921E-1,-1.5861399E0,-3.2865572E-1,7.898135E-1,2.5727804E0,-1.4488509E0,-3.8234453E0,-6.218882E-1,-7.506477E-2,4.1732642E-1,1.210689E0,1.9956746E0,4.4360027E0,-3.2572848E-1,-1.297567E-1,-6.667027E-1,-2.9874107E-1,3.2991224E-3,-7.253495E-2,-1.1575322E-2,3.2548618E-2,-1.02376595E-1,5.383284E-2,8.952901E-2,2.4724336E-1,1.6396503E-1,4.7538757E-1,3.773037E-1,6.1623865E-1],"categories":[],"categories_nodes":[],"categories_segments":[],"categories_sizes":[],"default_left":[0,0,0,0,0,0,0,0,0,0,0,0,0,0,0,0,0,0,0,0,0,0,0,0,0,0,0,0,0,0,0],"id":25,"left_children":[1,3,5,7,9,11,13,15,17,19,21,23,25,27,29,-1,-1,-1,-1,-1,-1,-1,-1,-1,-1,-1,-1,-1,-1,-1,-1],"loss_changes":[6.6971777E3,1.9023796E3,1.2443706E3,5.077207E2,3.1970605E2,5.699829E2,4.631936E2,4.269463E2,2.0830676E2,1.3512671E2,3.7636684E1,3.3744376E2,6.7749E2,3.2313477E2,9.463611E1,0E0,0E0,0E0,0E0,0E0,0E0,0E0,0E0,0E0,0E0,0E0,0E0,0E0,0E0,0E0,0E0],"parents":[2147483647,0,0,1,1,2,2,3,3,4,4,5,5,6,6,7,7,8,8,9,9,10,10,11,11,12,12,13,13,14,14],"right_children":[2,4,6,8,10,12,14,16,18,20,22,24,26,28,30,-1,-1,-1,-1,-1,-1,-1,-1,-1,-1,-1,-1,-1,-1,-1,-1],"split_conditions":[6.6E0,-1.52E1,3.6E1,8.5E1,-4.5E0,7.6E1,7.1E1,-4.26E1,-2.47E1,3.34E1,6E0,5.9E1,2.05E1,5.87E1,4.39E1,-3.2572848E-1,-1.297567E-1,-6.667027E-1,-2.9874107E-1,3.2991224E-3,-7.253495E-2,-1.1575322E-2,3.2548618E-2,-1.02376595E-1,5.383284E-2,8.952901E-2,2.4724336E-1,1.6396503E-1,4.7538757E-1,3.773037E-1,6.1623865E-1],"split_indices":[90,92,92,59,90,59,59,92,92,100,80,59,92,92,92,0,0,0,0,0,0,0,0,0,0,0,0,0,0,0,0],"split_type":[0,0,0,0,0,0,0,0,0,0,0,0,0,0,0,0,0,0,0,0,0,0,0,0,0,0,0,0,0,0,0],"sum_hessian":[1.0045E4,5.969E3,4.076E3,1.67E3,4.299E3,3.638E3,4.38E2,1.575E3,9.5E1,1.993E3,2.306E3,1.931E3,1.707E3,3.36E2,1.02E2,1.2E2,1.455E3,2E1,7.5E1,2.72E2,1.721E3,2.094E3,2.12E2,1.49E2,1.782E3,1.367E3,3.4E2,2.99E2,3.7E1,7.6E1,2.6E1],"tree_param":{"num_deleted":"0","num_feature":"208","num_nodes":"31","size_leaf_vector":"1"}},{"base_weights":[5.418492E-3,-6.23381E-1,8.811487E-1,-1.7546295E0,-3.969103E-1,6.2975764E-1,1.7826071E0,-1.2575517E0,-2.5183773E0,-7.405893E-1,-1.7550829E-1,3.7882155E-1,9.142428E-1,1.052396E0,2.2932909E0,3.7718688E-3,-1.6008237E-1,-4.6991348E-1,-2.299337E-1,-4.4817705E-2,-1.1940701E-1,-2.815502E-2,-1.8912174E-3,2.9165158E-2,1.0823804E-1,6.820551E-2,1.5529363E-1,5.2702725E-2,1.9833682E-1,1.908101E-1,3.302243E-1],"categories":[],"categories_nodes":[],"categories_segments":[],"categories_sizes":[],"default_left":[0,0,0,0,0,0,0,0,0,0,0,0,0,0,0,0,0,0,0,0,0,0,0,0,0,0,0,0,0,0,0],"id":26,"left_children":[1,3,5,7,9,11,13,15,17,19,21,23,25,27,29,-1,-1,-1,-1,-1,-1,-1,-1,-1,-1,-1,-1,-1,-1,-1,-1],"loss_changes":[5.525859E3,1.4957366E3,9.493154E2,3.666045E2,3.702823E2,2.3387646E2,3.3842358E2,2.6328125E2,1.7214429E2,2.5233936E2,4.9180923E1,1.06703766E2,2.2687292E2,1.8383585E2,2.023977E2,0E0,0E0,0E0,0E0,0E0,0E0,0E0,0E0,0E0,0E0,0E0,0E0,0E0,0E0,0E0,0E0],"parents":[2147483647,0,0,1,1,2,2,3,3,4,4,5,5,6,6,7,7,8,8,9,9,10,10,11,11,12,12,13,13,14,14],"right_children":[2,4,6,8,10,12,14,16,18,20,22,24,26,28,30,-1,-1,-1,-1,-1,-1,-1,-1,-1,-1,-1,-1,-1,-1,-1,-1],"split_conditions":[6.1E0,-2.21E1,2.76E1,3.8E1,-7.6E0,1.56E1,3.152E1,2.927E1,-4.63E1,3.804E1,6E-1,4.243E1,3.856E1,4.39E1,8.446E1,3.7718688E-3,-1.6008237E-1,-4.6991348E-1,-2.299337E-1,-4.4817705E-2,-1.1940701E-1,-2.815502E-2,-1.8912174E-3,2.9165158E-2,1.0823804E-1,6.820551E-2,1.5529363E-1,5.2702725E-2,1.9833682E-1,1.908101E-1,3.302243E-1],"split_indices":[92,92,90,66,92,90,100,100,92,100,92,100,100,92,205,0,0,0,0,0,0,0,0,0,0,0,0,0,0,0,0],"split_type":[0,0,0,0,0,0,0,0,0,0,0,0,0,0,0,0,0,0,0,0,0,0,0,0,0,0,0,0,0,0,0],"sum_hessian":[1.0033E4,5.84E3,4.193E3,9.73E2,4.867E3,3.28E3,9.13E2,5.91E2,3.82E2,1.906E3,2.961E3,1.744E3,1.536E3,3.77E2,5.36E2,1.24E2,4.67E2,3.3E1,3.49E2,1.16E3,7.46E2,1.765E3,1.196E3,1.553E3,1.91E2,1.128E3,4.08E2,2.42E2,1.35E2,3.9E2,1.46E2],"tree_param":{"num_deleted":"0","num_feature":"208","num_nodes":"31","size_leaf_vector":"1"}},{"base_weights":[1.05871465E-2,-4.686057E-1,8.871432E-1,-1.1201783E0,-1.21605605E-1,6.804089E-1,1.8980117E0,-4.753641E0,-1.0590059E0,-3.8815683E-1,7.5974977E-3,5.135977E-1,1.7551463E0,1.3074745E0,3.4376276E0,-1.4383824E-1,-5.9282416E-1,4.171152E-2,-1.1952561E-1,-2.5337253E-2,-7.4512854E-2,-1.9525879E-3,6.0910136E-2,-1.058088E-2,7.0725664E-2,1.4493743E-1,3.4382173E-1,-9.484527E-2,1.6087751E-1,2.9712185E-1,4.8802623E-1],"categories":[],"categories_nodes":[],"categories_segments":[],"categories_sizes":[],"default_left":[0,0,0,0,0,0,0,0,0,0,0,0,0,0,0,0,0,0,0,0,0,0,0,0,0,0,0,0,0,0,0],"id":27,"left_children":[1,3,5,7,9,11,13,15,17,19,21,23,25,27,29,-1,-1,-1,-1,-1,-1,-1,-1,-1,-1,-1,-1,-1,-1,-1,-1],"loss_changes":[4.21047E3,1.4651904E3,7.391289E2,4.9551367E2,1.4568094E2,5.2671423E2,5.419348E2,1.3555469E2,4.4618457E2,6.625691E1,4.6509117E1,3.0583655E2,1.9829797E2,2.9788043E2,9.7194214E1,0E0,0E0,0E0,0E0,0E0,0E0,0E0,0E0,0E0,0E0,0E0,0E0,0E0,0E0,0E0,0E0],"parents":[2147483647,0,0,1,1,2,2,3,3,4,4,5,5,6,6,7,7,8,8,9,9,10,10,11,11,12,12,13,13,14,14],"right_children":[2,4,6,8,10,12,14,16,18,20,22,24,26,28,30,-1,-1,-1,-1,-1,-1,-1,-1,-1,-1,-1,-1,-1,-1,-1,-1],"split_conditions":[9E0,-1.15E1,3.27E1,-5.03E1,-4.5E0,8.4E1,7E1,5.9E1,6E1,8.2E1,9.3E1,6.8E1,2.19E1,5.6E1,7.8E1,-1.4383824E-1,-5.9282416E-1,4.171152E-2,-1.1952561E-1,-2.5337253E-2,-7.4512854E-2,-1.9525879E-3,6.0910136E-2,-1.058088E-2,7.0725664E-2,1.4493743E-1,3.4382173E-1,-9.484527E-2,1.6087751E-1,2.9712185E-1,4.8802623E-1],"split_indices":[92,92,92,90,90,59,59,59,59,163,59,59,90,59,59,0,0,0,0,0,0,0,0,0,0,0,0,0,0,0,0],"split_type":[0,0,0,0,0,0,0,0,0,0,0,0,0,0,0,0,0,0,0,0,0,0,0,0,0,0,0,0,0,0,0],"sum_hessian":[1.0022E4,6.48E3,3.542E3,2.251E3,4.229E3,2.942E3,6E2,3.6E1,2.215E3,1.38E3,2.849E3,2.548E3,3.94E2,4.35E2,1.65E2,1E1,2.6E1,1.87E2,2.028E3,1.003E3,3.77E2,2.727E3,1.22E2,6.07E2,1.941E3,3.35E2,5.9E1,5.1E1,3.84E2,1.27E2,3.8E1],"tree_param":{"num_deleted":"0","num_feature":"208","num_nodes":"31","size_leaf_vector":"1"}},{"base_weights":[7.3158913E-3,-4.5457774E-1,7.7139354E-1,-1.033719E0,-1.5598601E-1,5.6099755E-1,1.5139183E0,-2.0050755E0,-8.5422385E-1,-2.9231519E-1,4.428522E-3,4.524037E-1,1.9669704E0,1.1617217E0,3.4654243E0,-1.2929167E-1,-3.483867E-1,-4.484004E-2,-1.2682164E-1,-1.68844E-2,-6.0791165E-2,-1.3253272E-2,3.1182284E-2,-4.902061E-2,5.5491876E-2,1.4376883E-1,3.0588773E-1,-1.6600524E-1,1.3512067E-1,2.9932794E-1,4.5757562E-1],"categories":[],"categories_nodes":[],"categories_segments":[],"categories_sizes":[],"default_left":[0,0,0,0,0,0,0,0,0,0,0,0,0,0,0,0,0,0,0,0,0,0,0,0,0,0,0,0,0,0,0],"id":28,"left_children":[1,3,5,7,9,11,13,15,17,19,21,23,25,27,29,-1,-1,-1,-1,-1,-1,-1,-1,-1,-1,-1,-1,-1,-1,-1,-1],"loss_changes":[3.5408704E3,1.08115E3,5.896782E2,3.691377E2,9.02554E1,4.4905786E2,5.691941E2,3.4408313E2,3.0134143E2,8.68329E1,7.990712E1,2.64753E2,1.1754492E2,3.8079944E2,5.2881714E1,0E0,0E0,0E0,0E0,0E0,0E0,0E0,0E0,0E0,0E0,0E0,0E0,0E0,0E0,0E0,0E0],"parents":[2147483647,0,0,1,1,2,2,3,3,4,4,5,5,6,6,7,7,8,8,9,9,10,10,11,11,12,12,13,13,14,14],"right_children":[2,4,6,8,10,12,14,16,18,20,22,24,26,28,30,-1,-1,-1,-1,-1,-1,-1,-1,-1,-1,-1,-1,-1,-1,-1,-1],"split_conditions":[8.1E0,-1.2E1,2.87E1,-3.29E1,-3E-1,8.8E1,7.6E1,6.9E1,7.3E1,8.2E1,8.2E1,6.4E1,1.68E1,5.5E1,3.72E1,-1.2929167E-1,-3.483867E-1,-4.484004E-2,-1.2682164E-1,-1.68844E-2,-6.0791165E-2,-1.3253272E-2,3.1182284E-2,-4.902061E-2,5.5491876E-2,1.4376883E-1,3.0588773E-1,-1.6600524E-1,1.3512067E-1,2.9932794E-1,4.5757562E-1],"split_indices":[92,92,92,92,92,59,59,59,59,163,59,59,92,59,92,0,0,0,0,0,0,0,0,0,0,0,0,0,0,0,0],"split_type":[0,0,0,0,0,0,0,0,0,0,0,0,0,0,0,0,0,0,0,0,0,0,0,0,0,0,0,0,0,0,0],"sum_hessian":[1.0031E4,6.252E3,3.779E3,2.126E3,4.126E3,2.946E3,8.33E2,3.3E2,1.796E3,2.23E3,1.896E3,2.736E3,2.1E2,7.07E2,1.26E2,2.24E2,1.06E2,9.08E2,8.88E2,1.604E3,6.26E2,1.312E3,5.84E2,2.68E2,2.468E3,1.43E2,6.7E1,4.4E1,6.63E2,9.1E1,3.5E1],"tree_param":{"num_deleted":"0","num_feature":"208","num_nodes":"31","size_leaf_vector":"1"}},{"base_weights":[5.8100005E-3,-4.1630358E-1,7.00124E-1,-1.4093976E0,-2.6942012E-1,6.08191E-1,2.4388115E0,-1.2695769E0,-5.7098374E0,-5.020793E-1,-6.460292E-2,-1.0229825E-1,7.830215E-1,-9.388861E-1,2.8417106E0,1.612188E-2,-1.5778624E-1,-4.3872437E-1,-1.0122763E0,2.2764249E-2,-5.9978068E-2,1.05963005E-2,-1.4267112E-2,-1.1505114E-1,7.28573E-3,6.2021345E-2,1.7029212E-1,-4.1825127E-2,-2.5212675E-1,2.1925683E-1,3.856593E-1],"categories":[],"categories_nodes":[],"categories_segments":[],"categories_sizes":[],"default_left":[0,0,0,0,0,0,0,0,0,0,0,0,0,0,0,0,0,0,0,0,0,0,0,0,0,0,0,0,0,0,0],"id":29,"left_children":[1,3,5,7,9,11,13,15,17,19,21,23,25,27,29,-1,-1,-1,-1,-1,-1,-1,-1,-1,-1,-1,-1,-1,-1,-1,-1],"loss_changes":[2.9378257E3,9.0896826E2,6.0432104E2,4.7558752E2,2.588165E2,4.473789E2,2.612334E2,3.438662E2,1.0150165E2,1.8143927E2,3.849771E1,1.3080727E2,4.3177075E2,1.6246176E1,1.0354065E2,0E0,0E0,0E0,0E0,0E0,0E0,0E0,0E0,0E0,0E0,0E0,0E0,0E0,0E0,0E0,0E0],"parents":[2147483647,0,0,1,1,2,2,3,3,4,4,5,5,6,6,7,7,8,8,9,9,10,10,11,11,12,12,13,13,14,14],"right_children":[2,4,6,8,10,12,14,16,18,20,22,24,26,28,30,-1,-1,-1,-1,-1,-1,-1,-1,-1,-1,-1,-1,-1,-1,-1,-1],"split_conditions":[8E0,-2.44E1,4.39E1,8.4E1,-6.1E0,6.7E1,5.5E1,6E1,9.5E1,6.5E1,8E0,5.7E1,2.76E1,2.76E-1,6.5E1,1.612188E-2,-1.5778624E-1,-4.3872437E-1,-1.0122763E0,2.2764249E-2,-5.9978068E-2,1.05963005E-2,-1.4267112E-2,-1.1505114E-1,7.28573E-3,6.2021345E-2,1.7029212E-1,-4.1825127E-2,-2.5212675E-1,2.1925683E-1,3.856593E-1],"split_indices":[90,90,92,59,90,59,59,59,59,59,54,59,90,11,59,0,0,0,0,0,0,0,0,0,0,0,0,0,0,0,0],"split_type":[0,0,0,0,0,0,0,0,0,0,0,0,0,0,0,0,0,0,0,0,0,0,0,0,0,0,0,0,0,0,0],"sum_hessian":[1.0022E4,6.233E3,3.789E3,8.02E2,5.431E3,3.6E3,1.89E2,7.78E2,2.4E1,2.542E3,2.889E3,7.11E2,2.889E3,2E1,1.69E2,1.38E2,6.4E2,2E1,4E0,3E2,2.242E3,9.07E2,1.982E3,1.01E2,6.1E2,2.456E3,4.33E2,1.6E1,4E0,1.05E2,6.4E1],"tree_param":{"num_deleted":"0","num_feature":"208","num_nodes":"31","size_leaf_vector":"1"}},{"base_weights":[-2.2017108E-2,-3.437636E-1,7.5230217E-1,-1.1626394E0,-1.7491212E-1,6.4234084E-1,1.9610504E0,-7.056285E-1,-1.7768196E0,-3.6378038E-1,4.2205248E-2,8.22064E-2,9.223623E-1,-1.2277972E0,2.3290002E0,-1.688777E-1,-4.7897078E-2,-3.65937E-1,-1.5257697E-1,-2.323559E-2,-6.6136144E-2,-1.8250411E-2,1.9707458E-2,-2.5345147E-1,1.444867E-2,6.920969E-2,1.534838E-1,-2.6256847E-1,-6.771466E-2,1.9434267E-1,4.1245523E-1],"categories":[],"categories_nodes":[],"categories_segments":[],"categories_sizes":[],"default_left":[0,0,0,0,0,0,0,0,0,0,0,0,0,0,0,0,0,0,0,0,0,0,0,0,0,0,0,0,0,0,0],"id":30,"left_children":[1,3,5,7,9,11,13,15,17,19,21,23,25,27,29,-1,-1,-1,-1,-1,-1,-1,-1,-1,-1,-1,-1,-1,-1,-1,-1],"loss_changes":[2.4985793E3,9.794281E2,3.9004395E2,3.386582E2,2.4092899E2,4.2341833E2,2.9032684E2,1.5428653E2,2.3828564E2,1.2272818E2,9.518077E1,1.4720229E2,2.5279529E2,1.8235462E1,1.4429407E2,0E0,0E0,0E0,0E0,0E0,0E0,0E0,0E0,0E0,0E0,0E0,0E0,0E0,0E0,0E0,0E0],"parents":[2147483647,0,0,1,1,2,2,3,3,4,4,5,5,6,6,7,7,8,8,9,9,10,10,11,11,12,12,13,13,14,14],"right_children":[2,4,6,8,10,12,14,16,18,20,22,24,26,28,30,-1,-1,-1,-1,-1,-1,-1,-1,-1,-1,-1,-1,-1,-1,-1,-1],"split_conditions":[1.27E1,-1.96E1,4.14E1,7.1E1,-1.2E0,7E1,5.5E1,-4.03E1,-3.5E1,2.74E0,7.6E1,5.1E1,2.41E1,4.9E1,5.71E1,-1.688777E-1,-4.7897078E-2,-3.65937E-1,-1.5257697E-1,-2.323559E-2,-6.6136144E-2,-1.8250411E-2,1.9707458E-2,-2.5345147E-1,1.444867E-2,6.920969E-2,1.534838E-1,-2.6256847E-1,-6.771466E-2,1.9434267E-1,4.1245523E-1],"split_indices":[90,90,90,59,90,59,59,92,90,96,59,59,92,59,90,0,0,0,0,0,0,0,0,0,0,0,0,0,0,0,0],"split_type":[0,0,0,0,0,0,0,0,0,0,0,0,0,0,0,0,0,0,0,0,0,0,0,0,0,0,0,0,0,0,0],"sum_hessian":[1.0027E4,7.084E3,2.943E3,1.21E3,5.874E3,2.699E3,2.44E2,6.95E2,5.15E2,3.141E3,2.733E3,9E2,1.799E3,2.5E1,2.19E2,1.29E2,5.66E2,5.9E1,4.56E2,2.18E3,9.61E2,1.115E3,1.618E3,2E1,8.8E2,1.309E3,4.9E2,6E0,1.9E1,1.82E2,3.7E1],"tree_param":{"num_deleted":"0","num_feature":"208","num_nodes":"31","size_leaf_vector":"1"}},{"base_weights":[-3.2374384E-3,-3.1268954E-1,6.385132E-1,-1.2272615E0,-1.929156E-1,4.7704867E-1,1.3124415E0,-6.3741606E-1,-2.1474192E0,-4.938529E-1,-3.9945476E-2,3.4531543E-1,1.6744027E0,9.357207E-1,2.551561E0,2.7920304E-2,-9.067459E-2,-2.0252693E-1,-9.120221E-1,8.725498E-3,-6.500098E-2,7.825994E-3,-1.3986281E-2,-8.563368E-2,4.2405482E-2,5.6960464E-2,2.2789982E-1,6.8906166E-2,1.6007708E-1,2.1346147E-1,3.9832556E-1],"categories":[],"categories_nodes":[],"categories_segments":[],"categories_sizes":[],"default_left":[0,0,0,0,0,0,0,0,0,0,0,0,0,0,0,0,0,0,0,0,0,0,0,0,0,0,0,0,0,0,0],"id":31,"left_children":[1,3,5,7,9,11,13,15,17,19,21,23,25,27,29,-1,-1,-1,-1,-1,-1,-1,-1,-1,-1,-1,-1,-1,-1,-1,-1],"loss_changes":[2.0010048E3,7.444289E2,3.5607117E2,4.2577625E2,2.7673917E2,4.1677893E2,2.9309814E2,1.1899901E2,2.4300952E2,1.8390408E2,4.710048E1,2.260256E2,1.737063E2,7.878473E1,7.9247375E1,0E0,0E0,0E0,0E0,0E0,0E0,0E0,0E0,0E0,0E0,0E0,0E0,0E0,0E0,0E0,0E0],"parents":[2147483647,0,0,1,1,2,2,3,3,4,4,5,5,6,6,7,7,8,8,9,9,10,10,11,11,12,12,13,13,14,14],"right_children":[2,4,6,8,10,12,14,16,18,20,22,24,26,28,30,-1,-1,-1,-1,-1,-1,-1,-1,-1,-1,-1,-1,-1,-1,-1,-1],"split_conditions":[1.03E1,-2.48E1,8.1E1,7E1,-8.9E0,3.99E1,2.05E1,5.9E1,9.3E1,3.34E1,1E1,5.9E1,6.1E1,8.8E1,3E1,2.7920304E-2,-9.067459E-2,-2.0252693E-1,-9.120221E-1,8.725498E-3,-6.500098E-2,7.825994E-3,-1.3986281E-2,-8.563368E-2,4.2405482E-2,5.6960464E-2,2.2789982E-1,6.8906166E-2,1.6007708E-1,2.1346147E-1,3.9832556E-1],"split_indices":[92,90,59,59,90,90,92,59,59,100,54,59,59,59,92,0,0,0,0,0,0,0,0,0,0,0,0,0,0,0,0],"split_type":[0,0,0,0,0,0,0,0,0,0,0,0,0,0,0,0,0,0,0,0,0,0,0,0,0,0,0,0,0,0,0],"sum_hessian":[1.0074E4,6.797E3,3.277E3,7.86E2,6.011E3,2.645E3,6.32E2,4.8E2,3.06E2,2.025E3,3.986E3,2.384E3,2.61E2,4.86E2,1.46E2,1.09E2,3.71E2,3.02E2,4E0,4.29E2,1.596E3,1.826E3,2.16E3,1.46E2,2.238E3,9.3E1,1.68E2,3.56E2,1.3E2,1.15E2,3.1E1],"tree_param":{"num_deleted":"0","num_feature":"208","num_nodes":"31","size_leaf_vector":"1"}},{"base_weights":[5.6895004E-3,-3.1438223E-1,5.148706E-1,-8.170244E-1,-1.3883305E-1,3.74908E-1,1.1329551E0,-7.6807153E-1,-5.076767E0,-2.823693E-1,-3.9435007E-2,2.3078276E-1,1.0235713E0,6.433207E-2,1.5996795E0,5.957801E-2,-8.653653E-2,-3.5928246E-1,-8.216452E-1,-1.4267335E-2,-7.349522E-2,-6.321908E-3,4.446098E-2,-8.007328E-3,3.644179E-2,8.402393E-2,2.0306824E-1,-9.7862035E-2,4.731847E-2,1.3529274E-1,3.1980237E-1],"categories":[],"categories_nodes":[],"categories_segments":[],"categories_sizes":[],"default_left":[0,0,0,0,0,0,0,0,0,0,0,0,0,0,0,0,0,0,0,0,0,0,0,0,0,0,0,0,0,0,0],"id":32,"left_children":[1,3,5,7,9,11,13,15,17,19,21,23,25,27,29,-1,-1,-1,-1,-1,-1,-1,-1,-1,-1,-1,-1,-1,-1,-1,-1],"loss_changes":[1.6408257E3,5.4537646E2,3.3574805E2,3.297433E2,6.537552E1,2.961231E2,3.575027E2,2.105705E2,5.434372E1,1.1844014E2,3.121562E1,1.0782883E2,1.0464392E2,9.38477E1,1.9247632E2,0E0,0E0,0E0,0E0,0E0,0E0,0E0,0E0,0E0,0E0,0E0,0E0,0E0,0E0,0E0,0E0],"parents":[2147483647,0,0,1,1,2,2,3,3,4,4,5,5,6,6,7,7,8,8,9,9,10,10,11,11,12,12,13,13,14,14],"right_children":[2,4,6,8,10,12,14,16,18,20,22,24,26,28,30,-1,-1,-1,-1,-1,-1,-1,-1,-1,-1,-1,-1,-1,-1,-1,-1],"split_conditions":[7.5E0,-1.58E1,3.06E1,9.2E1,-4.9E0,8.3E1,6.2E1,5.7E1,1.79E-1,4.03E1,1.04E2,7E1,2.03E1,5.6E1,7.8E1,5.957801E-2,-8.653653E-2,-3.5928246E-1,-8.216452E-1,-1.4267335E-2,-7.349522E-2,-6.321908E-3,4.446098E-2,-8.007328E-3,3.644179E-2,8.402393E-2,2.0306824E-1,-9.7862035E-2,4.731847E-2,1.3529274E-1,3.1980237E-1],"split_indices":[92,92,92,59,92,59,59,59,125,100,73,59,92,59,59,0,0,0,0,0,0,0,0,0,0,0,0,0,0,0,0],"split_type":[0,0,0,0,0,0,0,0,0,0,0,0,0,0,0,0,0,0,0,0,0,0,0,0,0,0,0,0,0,0,0],"sum_hessian":[1.0066E4,6.181E3,3.885E3,1.599E3,4.582E3,3.169E3,7.16E2,1.582E3,1.7E1,1.874E3,2.708E3,2.594E3,5.75E2,2.18E2,4.98E2,1.05E2,1.477E3,1.3E1,4E0,1.433E3,4.41E2,2.582E3,1.26E2,7.8E2,1.814E3,4.88E2,8.7E1,6.1E1,1.57E2,4.33E2,6.5E1],"tree_param":{"num_deleted":"0","num_feature":"208","num_nodes":"31","size_leaf_vector":"1"}},{"base_weights":[-4.7314004E-3,-2.8208837E-1,4.8453492E-1,-1.0778956E0,-1.7508648E-1,4.2097116E-1,1.881078E0,-9.001585E-1,-3.7550545E0,-3.7981388E-1,-5.9273265E-2,3.528626E-1,1.5183643E0,-3.388577E-1,2.4475605E0,-2.1428363E-2,-1.2924783E-1,-3.1832284E-1,-7.92175E-1,-2.9849934E-3,-6.115802E-2,-1.306071E-2,8.5718185E-3,-4.150806E-2,4.369725E-2,1.05485044E-1,2.5316516E-1,-9.47885E-2,2.559746E-1,1.9272424E-1,3.979915E-1],"categories":[],"categories_nodes":[],"categories_segments":[],"categories_sizes":[],"default_left":[0,0,0,0,0,0,0,0,0,0,0,0,0,0,0,0,0,0,0,0,0,0,0,0,0,0,0,0,0,0,0],"id":33,"left_children":[1,3,5,7,9,11,13,15,17,19,21,23,25,27,29,-1,-1,-1,-1,-1,-1,-1,-1,-1,-1,-1,-1,-1,-1,-1,-1],"loss_changes":[1.3638003E3,5.459819E2,3.2197418E2,3.5825122E2,1.3405833E2,2.5949127E2,1.9952301E2,1.9184784E2,8.676666E1,1.6568918E2,3.7379715E1,2.118482E2,9.2673065E1,6.0682186E1,9.279108E1,0E0,0E0,0E0,0E0,0E0,0E0,0E0,0E0,0E0,0E0,0E0,0E0,0E0,0E0,0E0,0E0],"parents":[2147483647,0,0,1,1,2,2,3,3,4,4,5,5,6,6,7,7,8,8,9,9,10,10,11,11,12,12,13,13,14,14],"right_children":[2,4,6,8,10,12,14,16,18,20,22,24,26,28,30,-1,-1,-1,-1,-1,-1,-1,-1,-1,-1,-1,-1,-1,-1,-1,-1],"split_conditions":[8.6E0,-2.56E1,4.62E1,8.1E1,-8.7E0,8.8E1,5.7E1,6.4E1,3.1E1,7.3E1,1.109E2,6.2E1,1.68E1,1.57E0,5.71E1,-2.1428363E-2,-1.2924783E-1,-3.1832284E-1,-7.92175E-1,-2.9849934E-3,-6.115802E-2,-1.306071E-2,8.5718185E-3,-4.150806E-2,4.369725E-2,1.05485044E-1,2.5316516E-1,-9.47885E-2,2.559746E-1,1.9272424E-1,3.979915E-1],"split_indices":[92,90,92,59,90,59,59,59,76,59,88,59,92,201,90,0,0,0,0,0,0,0,0,0,0,0,0,0,0,0,0],"split_type":[0,0,0,0,0,0,0,0,0,0,0,0,0,0,0,0,0,0,0,0,0,0,0,0,0,0,0,0,0,0,0],"sum_hessian":[1.0048E4,6.413E3,3.635E3,7.59E2,5.654E3,3.478E3,1.57E2,7.13E2,4.6E1,2.042E3,3.612E3,3.276E3,2.02E2,3.2E1,1.25E2,2.6E2,4.53E2,4.2E1,4E0,8.14E2,1.228E3,2.421E3,1.191E3,3.23E2,2.953E3,1.4E2,6.2E1,2.7E1,5E0,9.5E1,3E1],"tree_param":{"num_deleted":"0","num_feature":"208","num_nodes":"31","size_leaf_vector":"1"}},{"base_weights":[-9.577712E-4,-2.0842129E-1,5.553639E-1,-1.0813487E0,-1.3227743E-1,4.9359316E-1,1.983139E0,-9.2798644E-1,-4.142838E0,-3.6835483E-1,-1.0207924E-2,4.567656E-1,2.7642732E0,1.6403825E0,3.8423748E0,9.811679E-2,-1.05184436E-1,-7.4659693E-1,-3.2779005E-1,-2.1215599E-2,-9.920197E-2,-2.7547598E-2,2.5494786E-3,-8.679229E-2,5.1667448E-2,-9.4836496E-2,3.533897E-1,1.1942893E-1,2.3435552E-1,2.850125E-1,5.1864785E-1],"categories":[],"categories_nodes":[],"categories_segments":[],"categories_sizes":[],"default_left":[0,0,0,0,0,0,0,0,0,0,0,0,0,0,0,0,0,0,0,0,0,0,0,0,0,0,0,0,0,0,0],"id":34,"left_children":[1,3,5,7,9,11,13,15,17,19,21,23,25,27,29,-1,-1,-1,-1,-1,-1,-1,-1,-1,-1,-1,-1,-1,-1,-1,-1],"loss_changes":[1.1714773E3,4.9125528E2,2.4217383E2,2.7457904E2,1.9598648E2,2.198382E2,6.6345276E1,1.3487057E2,5.600772E1,2.2559918E2,4.2474037E1,2.0702405E2,1.23359436E2,2.7941803E1,7.890564E0,0E0,0E0,0E0,0E0,0E0,0E0,0E0,0E0,0E0,0E0,0E0,0E0,0E0,0E0,0E0,0E0],"parents":[2147483647,0,0,1,1,2,2,3,3,4,4,5,5,6,6,7,7,8,8,9,9,10,10,11,11,12,12,13,13,14,14],"right_children":[2,4,6,8,10,12,14,16,18,20,22,24,26,28,30,-1,-1,-1,-1,-1,-1,-1,-1,-1,-1,-1,-1,-1,-1,-1,-1],"split_conditions":[1.38E1,-2.8E1,8.8E1,8.1E1,-7.6E0,5.71E1,2.46E1,2.652E1,1.01E-1,8.2E1,6.8E1,5.7E1,2.538E1,2.92E-1,9.058E1,9.811679E-2,-1.05184436E-1,-7.4659693E-1,-3.2779005E-1,-2.1215599E-2,-9.920197E-2,-2.7547598E-2,2.5494786E-3,-8.679229E-2,5.1667448E-2,-9.4836496E-2,3.533897E-1,1.1942893E-1,2.3435552E-1,2.850125E-1,5.1864785E-1],"split_indices":[90,92,59,59,92,90,90,100,207,59,59,59,100,113,101,0,0,0,0,0,0,0,0,0,0,0,0,0,0,0,0],"split_type":[0,0,0,0,0,0,0,0,0,0,0,0,0,0,0,0,0,0,0,0,0,0,0,0,0,0,0,0,0,0,0],"sum_hessian":[1.0148E4,7.392E3,2.756E3,5.92E2,6.8E3,2.643E3,1.13E2,5.65E2,2.7E1,2.317E3,4.483E3,2.602E3,4.1E1,9.7E1,1.6E1,3.4E1,5.31E2,4E0,2.3E1,1.854E3,4.63E2,5.31E2,3.952E3,1.12E2,2.49E3,7E0,3.4E1,6.1E1,3.6E1,1.1E1,5E0],"tree_param":{"num_deleted":"0","num_feature":"208","num_nodes":"31","size_leaf_vector":"1"}},{"base_weights":[5.862747E-3,-1.5454888E-1,5.495556E-1,-8.8561755E-1,-8.176353E-2,4.1500005E-1,1.2423043E0,-6.757633E-1,-2.8550518E0,-2.876342E-1,1.239014E-2,3.6594898E-1,2.6977615E0,8.981313E-1,2.4987118E0,-1.9109632E-1,-5.1133376E-2,-2.4823289E-1,-6.980352E-1,-1.8027363E-2,-1.0128172E-1,-4.832948E-3,2.7691154E-2,-1.791785E-1,4.0210325E-2,-6.715444E-2,3.998931E-1,7.579533E-3,9.920027E-2,2.0225947E-1,3.6403522E-1],"categories":[],"categories_nodes":[],"categories_segments":[],"categories_sizes":[],"default_left":[0,0,0,0,0,0,0,0,0,0,0,0,0,0,0,0,0,0,0,0,0,0,0,0,0,0,0,0,0,0,0],"id":35,"left_children":[1,3,5,7,9,11,13,15,17,19,21,23,25,27,29,-1,-1,-1,-1,-1,-1,-1,-1,-1,-1,-1,-1,-1,-1,-1,-1],"loss_changes":[8.7205707E2,4.107704E2,2.118241E2,2.8696332E2,1.3613371E2,2.1276703E2,1.5775177E2,1.2758728E2,8.569122E1,1.7141217E2,7.743048E1,1.4660152E2,1.7804694E2,2.2465424E1,3.557779E1,0E0,0E0,0E0,0E0,0E0,0E0,0E0,0E0,0E0,0E0,0E0,0E0,0E0,0E0,0E0,0E0],"parents":[2147483647,0,0,1,1,2,2,3,3,4,4,5,5,6,6,7,7,8,8,9,9,10,10,11,11,12,12,13,13,14,14],"right_children":[2,4,6,8,10,12,14,16,18,20,22,24,26,28,30,-1,-1,-1,-1,-1,-1,-1,-1,-1,-1,-1,-1,-1,-1,-1,-1],"split_conditions":[1.62E1,-2.6E1,8E1,7.7E1,-7.6E0,5.87E1,2.61E1,-4.57E1,4.511E1,8.5E1,8.5E1,5.3E1,1.3E2,2.4E0,3.22E1,-1.9109632E-1,-5.1133376E-2,-2.4823289E-1,-6.980352E-1,-1.8027363E-2,-1.0128172E-1,-4.832948E-3,2.7691154E-2,-1.791785E-1,4.0210325E-2,-6.715444E-2,3.998931E-1,7.579533E-3,9.920027E-2,2.0225947E-1,3.6403522E-1],"split_indices":[90,92,59,59,92,92,90,90,100,59,59,59,88,143,90,0,0,0,0,0,0,0,0,0,0,0,0,0,0,0,0],"split_type":[0,0,0,0,0,0,0,0,0,0,0,0,0,0,0,0,0,0,0,0,0,0,0,0,0,0,0,0,0,0,0],"sum_hessian":[9.997E3,7.72E3,2.277E3,6.98E2,7.022E3,1.908E3,3.69E2,6.32E2,6.6E1,2.203E3,4.819E3,1.869E3,3.9E1,2.91E2,7.8E1,7.3E1,5.59E2,6.2E1,4E0,1.92E3,2.83E2,3.92E3,8.99E2,3E1,1.839E3,1.1E1,2.8E1,3E1,2.61E2,5.7E1,2.1E1],"tree_param":{"num_deleted":"0","num_feature":"208","num_nodes":"31","size_leaf_vector":"1"}},{"base_weights":[-7.875569E-3,-1.5783149E-1,4.9556527E-1,-5.8972204E-1,-4.6511196E-2,4.0356362E-1,1.3384849E0,-3.1732674E0,-5.292586E-1,-1.9049147E-1,3.290785E-2,2.3605771E-1,7.1144235E-1,2.3164027E0,9.7912234E-1,1.2146778E-2,-4.276011E-1,-4.4756155E-2,-1.6477472E-1,1.95978E-2,-2.9860038E-2,-3.7343137E-2,6.9584525E-3,-7.108419E-2,2.8934455E-2,6.204614E-2,1.4651617E-1,1.8925765E-1,4.8347005E-1,5.5400856E-2,1.7087626E-1],"categories":[],"categories_nodes":[],"categories_segments":[],"categories_sizes":[],"default_left":[0,0,0,0,0,0,0,0,0,0,0,0,0,0,0,0,0,0,0,0,0,0,0,0,0,0,0,0,0,0,0],"id":36,"left_children":[1,3,5,7,9,11,13,15,17,19,21,23,25,27,29,-1,-1,-1,-1,-1,-1,-1,-1,-1,-1,-1,-1,-1,-1,-1,-1],"loss_changes":[7.569048E2,3.7137656E2,1.779024E2,2.4560083E2,7.02501E1,1.0689453E2,7.715445E1,1.3131638E2,1.4071451E2,9.1307785E1,5.904254E1,6.812116E1,4.9218567E1,5.488916E1,5.085341E1,0E0,0E0,0E0,0E0,0E0,0E0,0E0,0E0,0E0,0E0,0E0,0E0,0E0,0E0,0E0,0E0],"parents":[2147483647,0,0,1,1,2,2,3,3,4,4,5,5,6,6,7,7,8,8,9,9,10,10,11,11,12,12,13,13,14,14],"right_children":[2,4,6,8,10,12,14,16,18,20,22,24,26,28,30,-1,-1,-1,-1,-1,-1,-1,-1,-1,-1,-1,-1,-1,-1,-1,-1],"split_conditions":[1.62E1,-1.58E1,4.19E1,-5.03E1,-3.1E0,2.57E0,5.6E-2,1.231E2,2.2E1,3.46E1,3.227E1,2.713E1,3.06E1,6.82E-1,8.361E1,1.2146778E-2,-4.276011E-1,-4.4756155E-2,-1.6477472E-1,1.95978E-2,-2.9860038E-2,-3.7343137E-2,6.9584525E-3,-7.108419E-2,2.8934455E-2,6.204614E-2,1.4651617E-1,1.8925765E-1,4.8347005E-1,5.5400856E-2,1.7087626E-1],"split_indices":[90,92,92,90,92,96,138,93,86,100,100,100,92,141,101,0,0,0,0,0,0,0,0,0,0,0,0,0,0,0,0],"split_type":[0,0,0,0,0,0,0,0,0,0,0,0,0,0,0,0,0,0,0,0,0,0,0,0,0,0,0,0,0,0,0],"sum_hessian":[1.0024E4,7.724E3,2.3E3,1.582E3,6.142E3,2.075E3,2.25E2,3.5E1,1.547E3,2.183E3,3.959E3,1.345E3,7.3E2,5.9E1,1.66E2,9E0,2.6E1,1.443E3,1.04E2,4.77E2,1.706E3,3.27E2,3.632E3,7.1E1,1.274E3,6.53E2,7.7E1,5.2E1,7E0,1.06E2,6E1],"tree_param":{"num_deleted":"0","num_feature":"208","num_nodes":"31","size_leaf_vector":"1"}},{"base_weights":[1.0304472E-2,-1.3671578E-1,4.185483E-1,-1.547644E0,-1.05517134E-1,2.8160694E-1,9.948729E-1,-1.3535836E0,-6.270586E-1,-3.1335005E-1,-1.4991541E-2,1.9187398E-1,1.1811852E0,8.2195365E-1,2.4954348E0,-3.340623E-2,-1.7583553E-1,4.7366757E-2,-4.0989704E-2,2.0851186E-2,-5.0174906E-3,-3.179274E-2,3.1846657E-2,6.944695E-2,2.1589755E-1,6.1065435E-2,1.5422381E-1,2.1299659E-1,4.004902E-1],"categories":[],"categories_nodes":[],"categories_segments":[],"categories_sizes":[],"default_left":[0,0,0,0,0,0,0,0,0,0,0,0,0,0,0,0,0,0,0,0,0,0,0,0,0,0,0,0,0],"id":37,"left_children":[1,3,5,7,9,11,13,15,-1,17,19,21,23,25,27,-1,-1,-1,-1,-1,-1,-1,-1,-1,-1,-1,-1,-1,-1],"loss_changes":[6.0025836E2,3.2350885E2,2.0870709E2,1.3724142E2,1.3536345E2,1.7259877E2,1.2976266E2,6.2964233E1,0E0,1.6606755E2,3.94307E1,1.2581948E2,9.0826385E1,6.86116E1,2.015622E1,0E0,0E0,0E0,0E0,0E0,0E0,0E0,0E0,0E0,0E0,0E0,0E0,0E0,0E0],"parents":[2147483647,0,0,1,1,2,2,3,3,4,4,5,5,6,6,7,7,9,9,10,10,11,11,12,12,13,13,14,14],"right_children":[2,4,6,8,10,12,14,16,-1,18,20,22,24,26,28,-1,-1,-1,-1,-1,-1,-1,-1,-1,-1,-1,-1,-1,-1],"split_conditions":[1.43E1,-4.03E1,8E1,7.9E1,-1.15E1,4.39E1,2.83E1,2.848E1,-6.270586E-1,6.2E1,1.58E-1,6.4E1,6.4E1,8.8E1,3.72E1,-3.340623E-2,-1.7583553E-1,4.7366757E-2,-4.0989704E-2,2.0851186E-2,-5.0174906E-3,-3.179274E-2,3.1846657E-2,6.944695E-2,2.1589755E-1,6.1065435E-2,1.5422381E-1,2.1299659E-1,4.004902E-1],"split_indices":[90,92,59,59,90,92,92,100,0,59,99,59,59,59,92,0,0,0,0,0,0,0,0,0,0,0,0,0,0],"split_type":[0,0,0,0,0,0,0,0,0,0,0,0,0,0,0,0,0,0,0,0,0,0,0,0,0,0,0,0,0],"sum_hessian":[9.999E3,7.352E3,2.647E3,1.58E2,7.194E3,2.14E3,5.07E2,1.53E2,5E0,2.182E3,5.012E3,1.947E3,1.93E2,4.56E2,5.1E1,4.4E1,1.09E2,2.38E2,1.944E3,6.81E2,4.331E3,3.87E2,1.56E3,1.3E2,6.3E1,3.54E2,1.02E2,4.3E1,8E0],"tree_param":{"num_deleted":"0","num_feature":"208","num_nodes":"29","size_leaf_vector":"1"}},{"base_weights":[-4.3984763E-3,-1.03967644E-1,4.9668124E-1,-7.60725E-1,-5.4724894E-2,2.4848765E-1,9.975723E-1,-5.7557106E-1,-2.770558E0,1.4789406E-2,-2.3330986E-1,-6.131386E-1,3.3500037E-1,8.612968E-1,2.7645407E0,7.154204E-3,-1.0403943E-1,2.597761E-3,-3.7811399E-1,-4.5716506E-3,1.3835258E-2,-6.62092E-3,-4.7738682E-2,-1.0273006E-1,2.8396672E-2,2.0643285E-2,1.2991427E-1,7.067432E-2,1.7686246E-1,2.1776746E-1,4.2486855E-1],"categories":[],"categories_nodes":[],"categories_segments":[],"categories_sizes":[],"default_left":[0,0,0,0,0,0,0,0,0,0,0,0,0,0,0,0,0,0,0,0,0,0,0,0,0,0,0,0,0,0,0],"id":38,"left_children":[1,3,5,7,9,11,13,15,17,19,21,23,25,27,29,-1,-1,-1,-1,-1,-1,-1,-1,-1,-1,-1,-1,-1,-1,-1,-1],"loss_changes":[5.0081857E2,2.7077808E2,2.0661713E2,2.1572845E2,9.672255E1,8.324477E1,1.3029675E2,1.6129962E2,1.3857849E2,4.1940903E1,8.9002975E1,3.81895E1,1.25300644E2,7.0688385E1,2.4716522E1,0E0,0E0,0E0,0E0,0E0,0E0,0E0,0E0,0E0,0E0,0E0,0E0,0E0,0E0,0E0,0E0],"parents":[2147483647,0,0,1,1,2,2,3,3,4,4,5,5,6,6,7,7,8,8,9,9,10,10,11,11,12,12,13,13,14,14],"right_children":[2,4,6,8,10,12,14,16,18,20,22,24,26,28,30,-1,-1,-1,-1,-1,-1,-1,-1,-1,-1,-1,-1,-1,-1,-1,-1],"split_conditions":[2.03E1,-2.8E1,7.4E1,5.24E1,1.29E1,5.7E1,3.83E1,6.5E1,1E1,8.1E1,3.8E1,6E0,4.62E1,8.4E1,4.89E1,7.154204E-3,-1.0403943E-1,2.597761E-3,-3.7811399E-1,-4.5716506E-3,1.3835258E-2,-6.62092E-3,-4.7738682E-2,-1.0273006E-1,2.8396672E-2,2.0643285E-2,1.2991427E-1,7.067432E-2,1.7686246E-1,2.1776746E-1,4.2486855E-1],"split_indices":[92,90,59,196,196,59,90,59,78,59,66,168,92,59,90,0,0,0,0,0,0,0,0,0,0,0,0,0,0,0,0],"split_type":[0,0,0,0,0,0,0,0,0,0,0,0,0,0,0,0,0,0,0,0,0,0,0,0,0,0,0,0,0,0,0],"sum_hessian":[1.0036E4,8.373E3,1.663E3,5.83E2,7.79E3,1.113E3,5.5E2,5.35E2,4.8E1,5.608E3,2.182E3,1.01E2,1.012E3,5.12E2,3.8E1,2.24E2,3.11E2,1.3E1,3.5E1,3.765E3,1.843E3,1.296E3,8.86E2,6.9E1,3.2E1,8.94E2,1.18E2,4.39E2,7.3E1,2.9E1,9E0],"tree_param":{"num_deleted":"0","num_feature":"208","num_nodes":"31","size_leaf_vector":"1"}},{"base_weights":[4.5215082E-3,-1.9989114E-1,2.0438449E-1,-2.628831E0,-1.826101E-1,9.458905E-2,5.0720686E-1,-3.6661954E0,3.3119947E-1,-2.4820065E-2,-3.6893234E-1,-2.2963386E-3,4.8912E-1,3.487714E-1,1.5699003E0,-4.8165637E-1,-1.6596417E-1,2.2918294E-1,-1.3578586E-1,3.0427156E-2,-1.0971526E-2,1.8530495E-1,-3.9359957E-2,-4.568216E-2,5.283974E-3,3.5915118E-2,1.0246612E-1,-1.3343334E-1,4.015236E-2,1.3447872E-1,2.9302046E-1],"categories":[],"categories_nodes":[],"categories_segments":[],"categories_sizes":[],"default_left":[0,0,0,0,0,0,0,0,0,0,0,0,0,0,0,0,0,0,0,0,0,0,0,0,0,0,0,0,0,0,0],"id":39,"left_children":[1,3,5,7,9,11,13,15,17,19,21,23,25,27,29,-1,-1,-1,-1,-1,-1,-1,-1,-1,-1,-1,-1,-1,-1,-1,-1],"loss_changes":[4.1030197E2,2.0792383E2,1.6878798E2,1.0868628E2,1.449612E2,1.4250125E2,2.2691809E2,5.2021423E1,3.6228157E1,7.465656E1,1.2465512E2,7.505599E1,5.079068E1,1.0503862E2,4.9648438E1,0E0,0E0,0E0,0E0,0E0,0E0,0E0,0E0,0E0,0E0,0E0,0E0,0E0,0E0,0E0,0E0],"parents":[2147483647,0,0,1,1,2,2,3,3,4,4,5,5,6,6,7,7,8,8,9,9,10,10,11,11,12,12,13,13,14,14],"right_children":[2,4,6,8,10,12,14,16,18,20,22,24,26,28,30,-1,-1,-1,-1,-1,-1,-1,-1,-1,-1,-1,-1,-1,-1,-1,-1],"split_conditions":[1.9E0,-5.09E1,2.29E1,7.78E-1,9.806E1,8.4E1,7.8E1,1.76E-1,8.67E-1,3.42E1,2.458E1,6.5E1,9.2E1,5.3E1,3.6E1,-4.8165637E-1,-1.6596417E-1,2.2918294E-1,-1.3578586E-1,3.0427156E-2,-1.0971526E-2,1.8530495E-1,-3.9359957E-2,-4.568216E-2,5.283974E-3,3.5915118E-2,1.0246612E-1,-1.3343334E-1,4.015236E-2,1.3447872E-1,2.9302046E-1],"split_indices":[92,92,92,2,102,59,59,108,2,100,100,59,59,59,92,0,0,0,0,0,0,0,0,0,0,0,0,0,0,0,0],"split_type":[0,0,0,0,0,0,0,0,0,0,0,0,0,0,0,0,0,0,0,0,0,0,0,0,0,0,0,0,0,0,0],"sum_hessian":[1.0041E4,4.964E3,5.077E3,3.4E1,4.93E3,3.727E3,1.35E3,2.5E1,9E0,2.67E3,2.26E3,2.993E3,7.34E2,1.176E3,1.74E2,1.5E1,1E1,4E0,5E0,5.47E2,2.123E3,2.4E1,2.236E3,3.23E2,2.67E3,5.92E2,1.42E2,3.5E1,1.141E3,1.51E2,2.3E1],"tree_param":{"num_deleted":"0","num_feature":"208","num_nodes":"31","size_leaf_vector":"1"}},{"base_weights":[2.0736307E-3,-6.288968E-1,5.1208556E-2,-4.9966437E-1,-2.5452836E0,-2.0438828E-2,3.9224857E-1,4.78615E-2,-8.24988E-1,-2.106356E0,-5.120408E-1,7.827049E-2,-1.1081998E-1,2.5192648E-1,1.0867941E0,1.9009953E-2,-1.1708366E-1,-2.4896114E-1,-7.163545E-2,-2.3016445E-1,-2.3994904E-2,-3.2739143E-3,1.5806258E-2,-1.8906394E-2,8.85117E-3,-2.7244477E-2,3.501692E-2,7.906296E-2,1.9224387E-1],"categories":[],"categories_nodes":[],"categories_segments":[],"categories_sizes":[],"default_left":[0,0,0,0,0,0,0,0,0,0,0,0,0,0,0,0,0,0,0,0,0,0,0,0,0,0,0,0,0],"id":40,"left_children":[1,3,5,7,9,11,13,15,17,19,-1,21,23,25,27,-1,-1,-1,-1,-1,-1,-1,-1,-1,-1,-1,-1,-1,-1],"loss_changes":[3.141204E2,1.8001483E2,2.296935E2,1.2241005E2,4.120807E1,6.931951E1,1.5878105E2,4.4772293E1,7.6155945E1,1.4391724E1,0E0,3.2902634E1,6.3276127E1,7.010516E1,6.629187E1,0E0,0E0,0E0,0E0,0E0,0E0,0E0,0E0,0E0,0E0,0E0,0E0,0E0,0E0],"parents":[2147483647,0,0,1,1,2,2,3,3,4,4,5,5,6,6,7,7,8,8,9,9,11,11,12,12,13,13,14,14],"right_children":[2,4,6,8,10,12,14,16,18,20,-1,22,24,26,28,-1,-1,-1,-1,-1,-1,-1,-1,-1,-1,-1,-1,-1,-1],"split_conditions":[-2.56E1,8.1E1,2.05E1,9.545E1,2.94E-1,1E1,7.8E1,3.836E1,-5.09E1,4.55E-1,-5.120408E-1,1.11E-1,2.81E-1,6E1,3E1,1.9009953E-2,-1.1708366E-1,-2.4896114E-1,-7.163545E-2,-2.3016445E-1,-2.3994904E-2,-3.2739143E-3,1.5806258E-2,-1.8906394E-2,8.85117E-3,-2.7244477E-2,3.501692E-2,7.906296E-2,1.9224387E-1],"split_indices":[90,59,92,102,135,54,59,100,92,47,0,103,120,59,92,0,0,0,0,0,0,0,0,0,0,0,0,0,0],"split_type":[0,0,0,0,0,0,0,0,0,0,0,0,0,0,0,0,0,0,0,0,0,0,0,0,0,0,0,0,0],"sum_hessian":[1.013E4,7.31E2,9.399E3,6.86E2,4.5E1,7.768E3,1.631E3,2.56E2,4.3E2,4E1,5E0,3.713E3,4.055E3,1.358E3,2.73E2,2.3E2,2.6E1,2.5E1,4.05E2,3.6E1,4E0,1.553E3,2.16E3,2.912E3,1.143E3,2.14E2,1.144E3,2.03E2,7E1],"tree_param":{"num_deleted":"0","num_feature":"208","num_nodes":"29","size_leaf_vector":"1"}},{"base_weights":[-7.027823E-4,-4.9884725E-2,6.3060194E-1,-5.796104E-1,-4.3257163E-3,1.0558122E-1,1.0304829E0,-2.1325329E-1,-1.1712614E0,-1.1007898E-1,8.3498456E-2,-3.488885E-2,1.7364296E0,9.1540146E-1,3.1295981E0,-1.7786928E-1,-9.5161E-3,-1.0762898E-1,-5.3605735E-1,2.4474865E-2,-1.7402213E-2,-4.291957E-3,3.3709135E-2,-7.6420955E-2,2.173413E-2,5.1920867E-1,3.7190158E-2,4.974537E-2,1.18087664E-1,1.556106E-1,4.7048292E-1],"categories":[],"categories_nodes":[],"categories_segments":[],"categories_sizes":[],"default_left":[0,0,0,0,0,0,0,0,0,0,0,0,0,0,0,0,0,0,0,0,0,0,0,0,0,0,0,0,0,0,0],"id":41,"left_children":[1,3,5,7,9,11,13,15,17,19,21,23,25,27,29,-1,-1,-1,-1,-1,-1,-1,-1,-1,-1,-1,-1,-1,-1,-1,-1],"loss_changes":[3.1188553E2,2.2490016E2,1.5231183E2,1.5971579E2,7.971618E1,7.222247E1,9.666162E1,8.431465E1,1.0642859E2,8.839276E1,1.5033777E2,5.369748E1,1.15952576E2,4.290683E1,4.472966E1,0E0,0E0,0E0,0E0,0E0,0E0,0E0,0E0,0E0,0E0,0E0,0E0,0E0,0E0,0E0,0E0],"parents":[2147483647,0,0,1,1,2,2,3,3,4,4,5,5,6,6,7,7,8,8,9,9,10,10,11,11,12,12,13,13,14,14],"right_children":[2,4,6,8,10,12,14,16,18,20,22,24,26,28,30,-1,-1,-1,-1,-1,-1,-1,-1,-1,-1,-1,-1,-1,-1,-1,-1],"split_conditions":[3.04E1,-2.56E1,6.5E1,7E1,4E-1,1.493E2,5.24E1,-5.03E1,4.341E1,9.123E1,8E1,5.7E1,9.09E1,7E1,1.25E-1,-1.7786928E-1,-9.5161E-3,-1.0762898E-1,-5.3605735E-1,2.4474865E-2,-1.7402213E-2,-4.291957E-3,3.3709135E-2,-7.6420955E-2,2.173413E-2,5.1920867E-1,3.7190158E-2,4.974537E-2,1.18087664E-1,1.556106E-1,4.7048292E-1],"split_indices":[90,90,59,59,90,89,90,90,100,102,59,59,93,59,6,0,0,0,0,0,0,0,0,0,0,0,0,0,0,0,0],"split_type":[0,0,0,0,0,0,0,0,0,0,0,0,0,0,0,0,0,0,0,0,0,0,0,0,0,0,0,0,0,0,0],"sum_hessian":[1.0043E4,9.318E3,7.25E2,7.37E2,8.581E3,3.14E2,4.11E2,4.56E2,2.81E2,3.893E3,4.688E3,2.9E2,2.4E1,3.91E2,2E1,3.1E1,4.25E2,2.76E2,5E0,5.94E2,3.299E3,3.129E3,1.559E3,7.4E1,2.16E2,6E0,1.8E1,1.53E2,2.38E2,1.1E1,9E0],"tree_param":{"num_deleted":"0","num_feature":"208","num_nodes":"31","size_leaf_vector":"1"}},{"base_weights":[1.5570203E-2,-7.542981E-2,3.0648223E-1,-2.026779E0,-6.541824E-2,1.9517505E-1,7.1480703E-1,-2.8432374E0,4.7189075E-2,1.9837419E-2,-1.8689622E-1,1.05130024E-1,6.731487E-1,5.162813E-1,1.4356349E0,-1.9218354E-1,-5.332896E-1,1.3534677E-1,-1.4846675E-1,2.3319162E-2,-3.058759E-3,-4.1888162E-2,-4.5540226E-3,-1.4836769E-1,1.2742601E-2,3.7666965E-2,1.6157414E-1,3.603559E-2,1.10413685E-1,1.2658963E-1,3.1998238E-1],"categories":[],"categories_nodes":[],"categories_segments":[],"categories_sizes":[],"default_left":[0,0,0,0,0,0,0,0,0,0,0,0,0,0,0,0,0,0,0,0,0,0,0,0,0,0,0,0,0,0,0],"id":42,"left_children":[1,3,5,7,9,11,13,15,17,19,21,23,25,27,29,-1,-1,-1,-1,-1,-1,-1,-1,-1,-1,-1,-1,-1,-1,-1,-1],"loss_changes":[2.6575906E2,1.4925975E2,1.0857567E2,6.61732E1,7.8807724E1,8.088588E1,7.2527435E1,5.3982376E1,2.6021826E1,4.811864E1,1.02883865E2,5.6300682E1,8.2670166E1,3.6541763E1,2.8888962E1,0E0,0E0,0E0,0E0,0E0,0E0,0E0,0E0,0E0,0E0,0E0,0E0,0E0,0E0,0E0,0E0],"parents":[2147483647,0,0,1,1,2,2,3,3,4,4,5,5,6,6,7,7,8,8,9,9,10,10,11,11,12,12,13,13,14,14],"right_children":[2,4,6,8,10,12,14,16,18,20,22,24,26,28,30,-1,-1,-1,-1,-1,-1,-1,-1,-1,-1,-1,-1,-1,-1,-1,-1],"split_conditions":[1.56E1,-5.03E1,7.9E1,2.27E-1,9.868E1,3.83E1,2.58E1,4.4E1,4E0,3.426E1,-8.5E0,5.2E1,6.9E1,8.8E1,9.1E1,-1.9218354E-1,-5.332896E-1,1.3534677E-1,-1.4846675E-1,2.3319162E-2,-3.058759E-3,-4.1888162E-2,-4.5540226E-3,-1.4836769E-1,1.2742601E-2,3.7666965E-2,1.6157414E-1,3.603559E-2,1.10413685E-1,1.2658963E-1,3.1998238E-1],"split_indices":[90,90,59,31,102,90,90,66,57,100,90,59,59,59,59,0,0,0,0,0,0,0,0,0,0,0,0,0,0,0,0],"split_type":[0,0,0,0,0,0,0,0,0,0,0,0,0,0,0,0,0,0,0,0,0,0,0,0,0,0,0,0,0,0,0],"sum_hessian":[1.0037E4,7.646E3,2.391E3,3.8E1,7.608E3,1.88E3,5.11E2,2.7E1,1.1E1,4.471E3,3.137E3,1.583E3,2.97E2,4.02E2,1.09E2,2.1E1,6E0,6E0,5E0,8.54E2,3.617E3,1.187E3,1.95E3,2.1E1,1.562E3,2.27E2,7E1,3.19E2,8.3E1,1.01E2,8E0],"tree_param":{"num_deleted":"0","num_feature":"208","num_nodes":"31","size_leaf_vector":"1"}},{"base_weights":[-1.8948643E-3,-9.152429E-2,2.2957659E-1,-3.2731345E-1,-2.5958002E-2,2.0425616E-1,1.8137914E0,-1.9678336E-1,-1.4274338E0,4.0371682E-2,-1.3552324E-1,1.1939875E-2,4.2985147E-1,6.5497226E-1,4.5267467E0,6.832728E-2,-2.8217236E-2,-1.19808756E-1,-4.0521446E-1,1.5356116E-2,-2.2468243E-3,-1.5354956E-2,7.677314E-2,-5.2851286E-2,9.121371E-3,3.3306632E-2,1.1564278E-1,-1.3093795E-2,3.4804997E-1,6.055311E-1,1.734204E-1],"categories":[],"categories_nodes":[],"categories_segments":[],"categories_sizes":[],"default_left":[0,0,0,0,0,0,0,0,0,0,0,0,0,0,0,0,0,0,0,0,0,0,0,0,0,0,0,0,0,0,0],"id":43,"left_children":[1,3,5,7,9,11,13,15,17,19,21,23,25,27,29,-1,-1,-1,-1,-1,-1,-1,-1,-1,-1,-1,-1,-1,-1,-1,-1],"loss_changes":[2.0848337E2,1.1198244E2,1.121465E2,2.2603084E2,4.1204517E1,1.19826035E2,1.353634E2,1.06150215E2,9.567374E1,2.5125925E1,3.4929546E1,6.39711E1,8.899385E1,7.151528E1,4.4990356E1,0E0,0E0,0E0,0E0,0E0,0E0,0E0,0E0,0E0,0E0,0E0,0E0,0E0,0E0,0E0,0E0],"parents":[2147483647,0,0,1,1,2,2,3,3,4,4,5,5,6,6,7,7,8,8,9,9,10,10,11,11,12,12,13,13,14,14],"right_children":[2,4,6,8,10,12,14,16,18,20,22,24,26,28,30,-1,-1,-1,-1,-1,-1,-1,-1,-1,-1,-1,-1,-1,-1,-1,-1],"split_conditions":[1.29E1,-1.62E1,5.87E1,8.1E1,1.2E1,7.4E1,9E0,5.8E1,9.3E1,3.16E-1,3.57E-1,5.9E1,3E1,1.33E-1,7.78E1,6.832728E-2,-2.8217236E-2,-1.19808756E-1,-4.0521446E-1,1.5356116E-2,-2.2468243E-3,-1.5354956E-2,7.677314E-2,-5.2851286E-2,9.121371E-3,3.3306632E-2,1.1564278E-1,-1.3093795E-2,3.4804997E-1,6.055311E-1,1.734204E-1],"split_indices":[92,92,92,59,54,59,64,59,59,33,31,59,92,5,91,0,0,0,0,0,0,0,0,0,0,0,0,0,0,0,0],"split_type":[0,0,0,0,0,0,0,0,0,0,0,0,0,0,0,0,0,0,0,0,0,0,0,0,0,0,0,0,0,0,0],"sum_hessian":[1.0047E4,7.243E3,2.804E3,1.575E3,5.668E3,2.761E3,4.3E1,1.409E3,1.66E2,3.531E3,2.137E3,1.491E3,1.27E3,3.1E1,1.2E1,1.24E2,1.285E3,1.54E2,1.2E1,1.26E3,2.271E3,2.096E3,4.1E1,1.9E2,1.301E3,1.122E3,1.48E2,2.5E1,6E0,7E0,5E0],"tree_param":{"num_deleted":"0","num_feature":"208","num_nodes":"31","size_leaf_vector":"1"}},{"base_weights":[3.4967551E-3,-8.546552E-2,2.1167861E-1,-5.5264664E-1,-4.9929403E-2,1.5849185E-1,9.016201E-1,4.7345925E-2,-1.0951296E0,5.5891026E-2,-1.4432603E-1,6.411146E-2,5.117453E-1,6.636022E-1,1.4491059E0,1.3022774E-1,-8.128589E-3,-4.4487366E-1,-9.983959E-2,2.6449675E-2,-1.0167456E-4,-3.3886112E-2,-7.5393743E-3,-1.2592152E-2,2.1056904E-2,5.3648907E-3,9.307431E-2,1.4611839E-1,3.919206E-2,2.763397E-2,1.8342708E-1],"categories":[],"categories_nodes":[],"categories_segments":[],"categories_sizes":[],"default_left":[0,0,0,0,0,0,0,0,0,0,0,0,0,0,0,0,0,0,0,0,0,0,0,0,0,0,0,0,0,0,0],"id":44,"left_children":[1,3,5,7,9,11,13,15,17,19,21,23,25,27,29,-1,-1,-1,-1,-1,-1,-1,-1,-1,-1,-1,-1,-1,-1,-1,-1],"loss_changes":[1.8514731E2,1.16251434E2,1.0968747E2,1.6116731E2,6.5037056E1,9.265295E1,2.6925018E1,3.820195E1,7.9904205E1,3.644512E1,4.6117393E1,6.1117252E1,1.12427704E2,3.2147263E1,2.8402466E1,0E0,0E0,0E0,0E0,0E0,0E0,0E0,0E0,0E0,0E0,0E0,0E0,0E0,0E0,0E0,0E0],"parents":[2147483647,0,0,1,1,2,2,3,3,4,4,5,5,6,6,7,7,8,8,9,9,10,10,11,11,12,12,13,13,14,14],"right_children":[2,4,6,8,10,12,14,16,18,20,22,24,26,28,30,-1,-1,-1,-1,-1,-1,-1,-1,-1,-1,-1,-1,-1,-1,-1,-1],"split_conditions":[1.23E1,-2.94E1,8.6E1,6.6E1,1E1,3.27E1,9.2E1,2.637E1,6.79E1,7.732E1,-1.2E1,7.3E1,6.5E1,4.02E1,1.26E-1,1.3022774E-1,-8.128589E-3,-4.4487366E-1,-9.983959E-2,2.6449675E-2,-1.0167456E-4,-3.3886112E-2,-7.5393743E-3,-1.2592152E-2,2.1056904E-2,5.3648907E-3,9.307431E-2,1.4611839E-1,3.919206E-2,2.763397E-2,1.8342708E-1],"split_indices":[90,90,59,59,54,92,59,100,197,205,92,59,59,100,21,0,0,0,0,0,0,0,0,0,0,0,0,0,0,0,0],"split_type":[0,0,0,0,0,0,0,0,0,0,0,0,0,0,0,0,0,0,0,0,0,0,0,0,0,0,0,0,0,0,0],"sum_hessian":[9.995E3,7.003E3,2.992E3,4.94E2,6.509E3,2.779E3,2.13E2,2.35E2,2.59E2,3.069E3,3.44E3,2.194E3,5.85E2,1.5E2,6.3E1,2.1E1,2.14E2,6E0,2.53E2,6.57E2,2.412E3,8.99E2,2.541E3,9.55E2,1.239E3,2.8E2,3.05E2,3.7E1,1.13E2,1.6E1,4.7E1],"tree_param":{"num_deleted":"0","num_feature":"208","num_nodes":"31","size_leaf_vector":"1"}},{"base_weights":[-9.5786145E-3,-6.627181E-2,2.838959E-1,-9.2146695E-1,-4.900599E-2,1.8861319E-1,8.9951026E-1,-2.1621853E-1,-1.7537845E0,9.714921E-3,-1.9189106E-1,1.4340597E-1,1.8111093E0,8.3058727E-1,2.8485444E-1,8.9475205E-3,-1.7710319E-1,-5.042047E-1,-1.5010749E-1,-2.7828163E-2,3.1091399E-3,-1.4642022E-2,-5.7309367E-2,-1.1947198E-1,1.7737817E-2,-1.251224E-1,2.669439E-1,9.7747944E-2,8.9376345E-3],"categories":[],"categories_nodes":[],"categories_segments":[],"categories_sizes":[],"default_left":[0,0,0,0,0,0,0,0,0,0,0,0,0,0,0,0,0,0,0,0,0,0,0,0,0,0,0,0,0],"id":45,"left_children":[1,3,5,7,9,11,13,15,17,19,21,23,25,27,-1,-1,-1,-1,-1,-1,-1,-1,-1,-1,-1,-1,-1,-1,-1],"loss_changes":[1.6658192E2,1.2385339E2,9.491399E1,9.706123E1,6.902081E1,1.0279495E2,2.6784348E1,4.341046E1,5.5585648E1,3.5906338E1,4.144742E1,6.2399902E1,1.0322275E2,2.2885895E1,0E0,0E0,0E0,0E0,0E0,0E0,0E0,0E0,0E0,0E0,0E0,0E0,0E0,0E0,0E0],"parents":[2147483647,0,0,1,1,2,2,3,3,4,4,5,5,6,6,7,7,8,8,9,9,10,10,11,11,12,12,13,13],"right_children":[2,4,6,8,10,12,14,16,18,20,22,24,26,28,-1,-1,-1,-1,-1,-1,-1,-1,-1,-1,-1,-1,-1,-1,-1],"split_conditions":[2.03E1,-4.03E1,7.9E1,3.105E1,1.3E1,5.87E1,9.383E1,8.18E-1,3.08E-1,1.25E-1,1.0619E2,5.3E1,2.617E1,3.75E-1,2.8485444E-1,8.9475205E-3,-1.7710319E-1,-5.042047E-1,-1.5010749E-1,-2.7828163E-2,3.1091399E-3,-1.4642022E-2,-5.7309367E-2,-1.1947198E-1,1.7737817E-2,-1.251224E-1,2.669439E-1,9.7747944E-2,8.9376345E-3],"split_indices":[92,92,59,100,54,92,205,131,104,148,198,59,100,18,0,0,0,0,0,0,0,0,0,0,0,0,0,0,0],"split_type":[0,0,0,0,0,0,0,0,0,0,0,0,0,0,0,0,0,0,0,0,0,0,0,0,0,0,0,0,0],"sum_hessian":[1.001E4,8.39E3,1.62E3,1.65E2,8.225E3,1.404E3,2.16E2,9E1,7.5E1,5.83E3,2.395E3,1.367E3,3.7E1,2.1E2,6E0,7.6E1,1.4E1,4E0,7.1E1,4.02E2,5.428E3,2.141E3,2.54E2,3.3E1,1.334E3,8E0,2.9E1,1.75E2,3.5E1],"tree_param":{"num_deleted":"0","num_feature":"208","num_nodes":"29","size_leaf_vector":"1"}},{"base_weights":[1.3716806E-3,-9.090938E-2,1.4053768E-1,-1.7354997E0,-7.944324E-2,1.0366897E-1,9.868035E-1,-5.2206E-1,-3.0441806E0,1.9962351E-1,-1.377573E-1,8.822429E-2,1.5055637E0,8.395234E-1,2.3334942E0,1.17172755E-1,-1.1887925E-1,-2.005149E-1,-5.7602465E-1,3.7522484E-2,-3.6271599E-3,1.0617813E-1,-1.535576E-2,-3.4484744E-2,1.28335E-2,4.8837304E-2,4.0078425E-1,6.6734456E-2,1.8900125E-1,2.9477024E-1,3.9269574E-2],"categories":[],"categories_nodes":[],"categories_segments":[],"categories_sizes":[],"default_left":[0,0,0,0,0,0,0,0,0,0,0,0,0,0,0,0,0,0,0,0,0,0,0,0,0,0,0,0,0,0,0],"id":46,"left_children":[1,3,5,7,9,11,13,15,17,19,21,23,25,27,29,-1,-1,-1,-1,-1,-1,-1,-1,-1,-1,-1,-1,-1,-1,-1,-1],"loss_changes":[1.2970802E2,1.1438124E2,1.2554302E2,6.510698E1,9.818935E1,8.34432E1,3.1362228E1,2.7366917E1,4.4891434E1,4.321831E1,9.473883E1,6.638338E1,1.0494507E2,2.6412132E1,1.7915314E1,0E0,0E0,0E0,0E0,0E0,0E0,0E0,0E0,0E0,0E0,0E0,0E0,0E0,0E0,0E0,0E0],"parents":[2147483647,0,0,1,1,2,2,3,3,4,4,5,5,6,6,7,7,8,8,9,9,10,10,11,11,12,12,13,13,14,14],"right_children":[2,4,6,8,10,12,14,16,18,20,22,24,26,28,30,-1,-1,-1,-1,-1,-1,-1,-1,-1,-1,-1,-1,-1,-1,-1,-1],"split_conditions":[7.2E0,-5.03E1,9E1,5.26E-1,7.655E1,5.71E1,9.9E1,5E0,7.12E-1,3.921E1,2.617E1,6.1E1,9E0,2.03E1,1.4E1,1.17172755E-1,-1.1887925E-1,-2.005149E-1,-5.7602465E-1,3.7522484E-2,-3.6271599E-3,1.0617813E-1,-1.535576E-2,-3.4484744E-2,1.28335E-2,4.8837304E-2,4.0078425E-1,6.6734456E-2,1.8900125E-1,2.9477024E-1,3.9269574E-2],"split_indices":[90,90,59,1,101,90,59,180,37,100,100,59,64,92,64,0,0,0,0,0,0,0,0,0,0,0,0,0,0,0,0],"split_type":[0,0,0,0,0,0,0,0,0,0,0,0,0,0,0,0,0,0,0,0,0,0,0,0,0,0,0,0,0,0,0],"sum_hessian":[1.0098E4,6.072E3,4.026E3,4.1E1,6.031E3,3.859E3,1.67E2,2.2E1,1.9E1,1.042E3,4.989E3,3.818E3,4.1E1,1.52E2,1.5E1,6E0,1.6E1,1.5E1,4E0,5.97E2,4.45E2,6.4E1,4.925E3,3.23E2,3.495E3,3E1,1.1E1,1.32E2,2E1,1.1E1,4E0],"tree_param":{"num_deleted":"0","num_feature":"208","num_nodes":"31","size_leaf_vector":"1"}},{"base_weights":[5.817415E-3,-1.5989643E-2,5.8852446E-1,-1.9504243E-1,3.8394887E-2,4.0557036E-1,1.3621902E0,1.193882E-2,-4.2812663E-1,2.2224113E-1,7.4495883E-3,1.3491893E-1,7.576318E-1,7.259375E-1,1.9595232E0,-2.1794983E-3,9.6442185E-2,-2.7014509E-2,-7.661932E-2,2.112078E-2,2.1472967E-1,-3.5076614E-3,1.26767475E-2,-2.6976539E-2,4.5637004E-2,5.0172906E-2,2.6519838E-1,9.600922E-2,-8.710091E-2,4.0792122E-1,1.4702679E-1],"categories":[],"categories_nodes":[],"categories_segments":[],"categories_sizes":[],"default_left":[0,0,0,0,0,0,0,0,0,0,0,0,0,0,0,0,0,0,0,0,0,0,0,0,0,0,0,0,0,0,0],"id":47,"left_children":[1,3,5,7,9,11,13,15,17,19,21,23,25,27,29,-1,-1,-1,-1,-1,-1,-1,-1,-1,-1,-1,-1,-1,-1,-1,-1],"loss_changes":[1.2786851E2,9.44632E1,5.082849E1,1.090367E2,4.2331512E1,2.800713E1,2.4801285E1,3.8513805E1,5.656601E1,2.2315536E1,3.2326694E1,2.1977596E1,6.0719955E1,1.3923885E1,3.0299881E1,0E0,0E0,0E0,0E0,0E0,0E0,0E0,0E0,0E0,0E0,0E0,0E0,0E0,0E0,0E0,0E0],"parents":[2147483647,0,0,1,1,2,2,3,3,4,4,5,5,6,6,7,7,8,8,9,9,10,10,11,11,12,12,13,13,14,14],"right_children":[2,4,6,8,10,12,14,16,18,20,22,24,26,28,30,-1,-1,-1,-1,-1,-1,-1,-1,-1,-1,-1,-1,-1,-1,-1,-1],"split_conditions":[3.79E1,-1.15E1,8.663E1,2.42E0,1.57E-1,5.7E1,1.74E-1,3.64E-1,8.44E1,1.346E2,5E0,2.38E-1,5.87E1,9E0,1.72E-1,-2.1794983E-3,9.6442185E-2,-2.7014509E-2,-7.661932E-2,2.112078E-2,2.1472967E-1,-3.5076614E-3,1.26767475E-2,-2.6976539E-2,4.5637004E-2,5.0172906E-2,2.6519838E-1,9.600922E-2,-8.710091E-2,4.0792122E-1,1.4702679E-1],"split_indices":[92,92,205,96,99,73,122,31,101,91,68,98,92,70,116,0,0,0,0,0,0,0,0,0,0,0,0,0,0,0,0],"split_type":[0,0,0,0,0,0,0,0,0,0,0,0,0,0,0,0,0,0,0,0,0,0,0,0,0,0,0,0,0,0,0],"sum_hessian":[1.0061E4,9.699E3,3.62E2,2.259E3,7.44E3,2.94E2,6.8E1,1.197E3,1.062E3,1.071E3,6.369E3,1.67E2,1.27E2,3.4E1,3.4E1,1.157E3,4E1,7.25E2,3.37E2,1.066E3,5E0,4.696E3,1.673E3,7.4E1,9.3E1,1.13E2,1.4E1,3E1,4E0,5E0,2.9E1],"tree_param":{"num_deleted":"0","num_feature":"208","num_nodes":"31","size_leaf_vector":"1"}},{"base_weights":[-1.6598734E-3,-2.8618E-2,3.9506662E-1,-4.144103E-1,