{"learner":{"attributes":{"best_iteration":"66","best_ntree_limit":"67","best_score":"6.055228","scikit_learn":"{\"n_estimators\": 100, \"objective\": \"reg:squarederror\", \"max_depth\": null, \"learning_rate\": 0.1, \"verbosity\": null, \"booster\": \"gbtree\", \"tree_method\": null, \"gamma\": 0.6, \"min_child_weight\": null, \"max_delta_step\": null, \"subsample\": 0.8, \"colsample_bytree\": 0.8, \"colsample_bylevel\": null, \"colsample_bynode\": null, \"reg_alpha\": null, \"reg_lambda\": null, \"scale_pos_weight\": null, \"base_score\": null, \"missing\": NaN, \"num_parallel_tree\": null, \"kwargs\": {\"nthread\": -1, \"eval_metric\": \"rmse\"}, \"random_state\": null, \"n_jobs\": null, \"monotone_constraints\": null, \"interaction_constraints\": null, \"importance_type\": \"gain\", \"gpu_id\": null, \"validate_parameters\": null, \"evals_result_\": {\"validation_0\": {\"rmse\": [13.106819, 12.140697, 11.262537, 10.510974, 9.851642, 9.282093, 8.779732, 8.346762, 7.982127, 7.672092, 7.408791, 7.190686, 7.002443, 6.839306, 6.700869, 6.588404, 6.49761, 6.420735, 6.359657, 6.307465, 6.261776, 6.224543, 6.19597, 6.170143, 6.147696, 6.130212, 6.115753, 6.105497, 6.095434, 6.087372, 6.079738, 6.072132, 6.070233, 6.067163, 6.066913, 6.065616, 6.059988, 6.058454, 6.057744, 6.056871, 6.055901, 6.057099, 6.056851, 6.05883, 6.058294, 6.058985, 6.058809, 6.058799, 6.061032, 6.063078, 6.061799, 6.059157, 6.059148, 6.058226, 6.05895, 6.059288, 6.060438, 6.061198, 6.060951, 6.061388, 6.060038, 6.05947, 6.057712, 6.056898, 6.057238, 6.05754, 6.055228, 6.056026, 6.056843, 6.060149, 6.06104, 6.061718, 6.06345, 6.064095, 6.062479, 6.063594, 6.06223, 6.061536, 6.061558, 6.063887, 6.066758, 6.06809, 6.069653, 6.071265, 6.072564, 6.072978, 6.072248, 6.074546, 6.075733, 6.077104, 6.078413, 6.079832, 6.078928, 6.080728, 6.080084, 6.080872, 6.08068, 6.079136, 6.081169, 6.082372]}}, \"_estimator_type\": \"regressor\"}"},"feature_names":["PCT_FGA_2PT_1","PCT_AST_2PM_1","PCT_PTS_2PT_1","AST_PCT_1","PCT_FG3M_1","PCT_BLKA_1","PCT_BLK_1","FG3_PCT_1","PCT_PTS_1","PCT_FGM_1","PCT_REB_1","PCT_FGA_1","E_USG_PCT_1","REB_PCT_1","PCT_PTS_OFF_TOV_1","PCT_DREB_1","OPP_OREB_PCT_1","PCT_UAST_3PM_1","PCT_TOV_1","DREB_PCT_1","PCT_FTM_1","OPP_TOV_PCT_1","PCT_UAST_2PM_1","PCT_AST_3PM_1","USG_PCT_1","PCT_AST_1","FG_PCT_1","EFG_PCT_1","TS_PCT_1","PCT_OREB_1","PCT_PTS_2PT_MR_1","PCT_PF_1","FT_PCT_1","PCT_PTS_PAINT_1","PCT_PTS_FT_1","PCT_PFD_1","PCT_FGA_3PT_1","OPP_EFG_PCT_1","CFG_PCT_1","TM_TOV_PCT_1","PCT_UAST_FGM_1","PCT_PTS_3PT_1","OREB_PCT_1","PCT_PTS_FB_1","PCT_AST_FGM_1","UFG_PCT_1","PCT_FG3A_1","PCT_STL_1","DFG_PCT_1","OREB_1","AST_1","REB_1","DFGA_1","SAST_1","OPP_PTS_2ND_CHANCE_1","PFD_1","TO_1","FG3A_1","STL_1","POSS_1","PASS_1","UFGM_1","FG3M_1","PTS_1","UFGA_1","DRBC_1","OPP_PTS_PAINT_1","FTM_1","ORBC_1","BLKA_1","PTS_FB_1","CFGA_1","PTS_PAINT_1","TCHS_1","CFGM_1","PLUS_MINUS_1","DFGM_1","OPP_PTS_OFF_TOV_1","PTS_OFF_TOV_1","FGA_1","FTA_1","PTS_2ND_CHANCE_1","FGM_1","PF_1","DREB_1","BLK_1","RBC_1","OPP_PTS_FB_1","FTAST_1","E_OFF_RATING_1","OFF_RATING_1","E_NET_RATING_1","E_DEF_RATING_1","NET_RATING_1","DEF_RATING_1","E_PACE_1","AST_RATIO_1","DIST_1","AST_TOV_1","FTA_RATE_1","OPP_FTA_RATE_1","MIN_1","PACE_PER40_1","PACE_1","PIE_1","PCT_FGA_2PT_2","PCT_AST_2PM_2","PCT_PTS_2PT_2","AST_PCT_2","PCT_FG3M_2","PCT_BLKA_2","PCT_BLK_2","FG3_PCT_2","PCT_PTS_2","PCT_FGM_2","PCT_REB_2","PCT_FGA_2","E_USG_PCT_2","REB_PCT_2","PCT_PTS_OFF_TOV_2","PCT_DREB_2","OPP_OREB_PCT_2","PCT_UAST_3PM_2","PCT_TOV_2","DREB_PCT_2","PCT_FTM_2","OPP_TOV_PCT_2","PCT_UAST_2PM_2","PCT_AST_3PM_2","USG_PCT_2","PCT_AST_2","FG_PCT_2","EFG_PCT_2","TS_PCT_2","PCT_OREB_2","PCT_PTS_2PT_MR_2","PCT_PF_2","FT_PCT_2","PCT_PTS_PAINT_2","PCT_PTS_FT_2","PCT_PFD_2","PCT_FGA_3PT_2","OPP_EFG_PCT_2","CFG_PCT_2","TM_TOV_PCT_2","PCT_UAST_FGM_2","PCT_PTS_3PT_2","OREB_PCT_2","PCT_PTS_FB_2","PCT_AST_FGM_2","UFG_PCT_2","PCT_FG3A_2","PCT_STL_2","DFG_PCT_2","OREB_2","AST_2","REB_2","DFGA_2","SAST_2","OPP_PTS_2ND_CHANCE_2","PFD_2","TO_2","FG3A_2","STL_2","POSS_2","PASS_2","UFGM_2","FG3M_2","PTS_2","UFGA_2","DRBC_2","OPP_PTS_PAINT_2","FTM_2","ORBC_2","BLKA_2","PTS_FB_2","CFGA_2","PTS_PAINT_2","TCHS_2","CFGM_2","PLUS_MINUS_2","DFGM_2","OPP_PTS_OFF_TOV_2","PTS_OFF_TOV_2","FGA_2","FTA_2","PTS_2ND_CHANCE_2","FGM_2","PF_2","DREB_2","BLK_2","RBC_2","OPP_PTS_FB_2","FTAST_2","E_OFF_RATING_2","OFF_RATING_2","E_NET_RATING_2","E_DEF_RATING_2","NET_RATING_2","DEF_RATING_2","E_PACE_2","AST_RATIO_2","DIST_2","AST_TOV_2","FTA_RATE_2","OPP_FTA_RATE_2","MIN_2","PACE_PER40_2","PACE_2","PIE_2"],"feature_types":["float","float","float","float","float","float","float","float","float","float","float","float","float","float","float","float","float","float","float","float","float","float","float","float","float","float","float","float","float","float","float","float","float","float","float","float","float","float","float","float","float","float","float","float","float","float","float","float","float","float","float","float","float","float","float","float","float","float","float","float","float","float","float","float","float","float","float","float","float","float","float","float","float","float","float","float","float","float","float","float","float","float","float","float","float","float","float","float","float","float","float","float","float","float","float","float","float","float","float","float","float","float","float","float","float","float","float","float","float","float","float","float","float","float","float","float","float","float","float","float","float","float","float","float","float","float","float","float","float","float","float","float","float","float","float","float","float","float","float","float","float","float","float","float","float","float","float","float","float","float","float","float","float","float","float","float","float","float","float","float","float","float","float","float","float","float","float","float","float","float","float","float","float","float","float","float","float","float","float","float","float","float","float","float","float","float","float","float","float","float","float","float","float","float","float","float","float","float","float","float","float","float","float","float","float","float","float","float","float","float"],"gradient_booster":{"model":{"gbtree_model_param":{"num_trees":"100","size_leaf_vector":"0"},"tree_info":[0,0,0,0,0,0,0,0,0,0,0,0,0,0,0,0,0,0,0,0,0,0,0,0,0,0,0,0,0,0,0,0,0,0,0,0,0,0,0,0,0,0,0,0,0,0,0,0,0,0,0,0,0,0,0,0,0,0,0,0,0,0,0,0,0,0,0,0,0,0,0,0,0,0,0,0,0,0,0,0,0,0,0,0,0,0,0,0,0,0,0,0,0,0,0,0,0,0,0,0],"trees":[{"base_weights":[-4.5056528E-1,9.607657E0,-1.0070103E1,4.923431E0,1.7910465E1,-1.7938023E1,-5.3742924E0,9.351202E0,2.6372094E0,2.6366217E1,1.5459891E1,-1.4845732E1,-2.5570873E1,-7.816993E0,-5.8226603E-1,1.3648706E1,8.039113E0,-1.3978572E0,4.9203076E0,2.3286274E1,3.290948E1,1.9364683E1,1.2776833E1,-1.872624E1,-1.2461587E1,-2.3767385E1,-3.2909092E1,-6.270104E0,-1.3123884E1,-2.6925771E0,4.4089403E0,1.6504099E1,1.0387387E1,6.6179543E0,1.0366782E1,-4.6425533E0,2.414163E-1,3.9862032E0,7.4622355E0,2.755147E1,2.161968E1,3.7951218E1,2.9756578E1,1.8448202E1,2.7816326E1,1.0326284E1,1.461636E1,-2.3588541E1,-1.747815E1,-1.0263789E1,-1.4853174E1,-2.7085714E1,-2.1279835E1,-2.5948717E1,-3.681967E1,-4.770482E0,-8.007012E0,-1.2066998E1,-2.2097826E1,-5.843521E-1,-5.501634E0,2.7884614E0,9.84058E0,-1.6666666E0,1.6820833E1,-2.6E0,1.0897196E1,8.71564E0,4.9479556E0,1.045993E1,-2E0,-9.441667E0,-2.9801137E0,5.5405407E0,-2.1511628E-1,5.4861965E0,3.1376936E0,9.425439E0,6.4013762E0,5E0,2.815909E1,2.236111E1,1.637037E1,3.83875E1,1.025E1,7.6666665E0,3.025E1,2.0323826E1,1.5167614E1,2.8260416E1,3.25E0,1.1463983E1,7.421875E0,1.3715714E1,1.815294E1,-2.3778948E1,-2.75E0,-1.4799295E1,-1.8941532E1,-1.1763033E1,-8.68599E0,-1.788125E1,-1.3993311E1,-2.8957983E1,-2.2701754E1,-2.370283E1,-1.9264492E1,-1.75E0,-2.6539474E1,-1.3333333E1,-3.738983E1,-6.878327E0,-3.7860916E0,-9.511905E0,-6.290179E0,-1.51125E1,-1.0737676E1,-2.24E1,-4.25E0,5.875E-1,-1.6976191E0,-4.6190476E0,-1.2426471E1,4.478395E0,-1E0,1.11171875E1,-5.4166665E0],"categories":[],"categories_nodes":[],"categories_segments":[],"categories_sizes":[],"default_left":[true,true,true,true,true,true,true,true,true,true,true,true,true,true,true,true,true,true,true,true,true,true,true,true,true,true,true,true,true,true,true,true,true,true,true,true,true,true,true,true,true,true,true,true,true,true,true,true,true,true,true,true,true,true,true,true,true,true,true,true,true,true,true,false,false,false,false,false,false,false,false,false,false,false,false,false,false,false,false,false,false,false,false,false,false,false,false,false,false,false,false,false,false,false,false,false,false,false,false,false,false,false,false,false,false,false,false,false,false,false,false,false,false,false,false,false,false,false,false,false,false,false,false,false,false,false,false],"id":0,"left_children":[1,3,5,7,9,11,13,15,17,19,21,23,25,27,29,31,33,35,37,39,41,43,45,47,49,51,53,55,57,59,61,63,65,67,69,71,73,75,77,79,81,83,85,87,89,91,93,95,97,99,101,103,105,107,109,111,113,115,117,119,121,123,125,-1,-1,-1,-1,-1,-1,-1,-1,-1,-1,-1,-1,-1,-1,-1,-1,-1,-1,-1,-1,-1,-1,-1,-1,-1,-1,-1,-1,-1,-1,-1,-1,-1,-1,-1,-1,-1,-1,-1,-1,-1,-1,-1,-1,-1,-1,-1,-1,-1,-1,-1,-1,-1,-1,-1,-1,-1,-1,-1,-1,-1,-1,-1,-1],"loss_changes":[9.0727575E5,1.7819381E5,1.76987E5,2.9655586E4,3.3844938E4,4.1893375E4,3.514703E4,5.517703E3,1.7832973E4,6.6902188E3,1.3204781E4,1.1581031E4,6.0335312E3,1.6245758E4,1.0702864E4,1.9890312E3,2.468621E3,3.7243813E3,2.905045E3,1.2169844E3,7.146406E2,3.522375E3,3.2930625E3,2.5249219E3,4.0209922E3,2.86575E3,1.7392656E3,3.9782578E3,3.982375E3,4.2251816E3,2.6307207E3,7.301797E2,7.6327344E2,1.634875E3,3.5383203E2,1.846748E3,1.1285498E3,1.1359053E3,6.2903125E2,7.909922E2,3.656328E2,1.0203516E2,5.9646094E2,2.6021719E3,4.4272656E2,1.00865234E3,1.1334062E3,3.1551172E2,1.2446328E3,8.842422E2,7.339922E2,7.789922E2,7.299844E2,5.1108008E2,3.183203E2,1.6961602E3,1.7823125E3,1.4692539E3,1.5288477E2,5.3457227E2,1.8128018E3,1.5026045E3,1.404167E3,0E0,0E0,0E0,0E0,0E0,0E0,0E0,0E0,0E0,0E0,0E0,0E0,0E0,0E0,0E0,0E0,0E0,0E0,0E0,0E0,0E0,0E0,0E0,0E0,0E0,0E0,0E0,0E0,0E0,0E0,0E0,0E0,0E0,0E0,0E0,0E0,0E0,0E0,0E0,0E0,0E0,0E0,0E0,0E0,0E0,0E0,0E0,0E0,0E0,0E0,0E0,0E0,0E0,0E0,0E0,0E0,0E0,0E0,0E0,0E0,0E0,0E0,0E0,0E0],"parents":[2147483647,0,0,1,1,2,2,3,3,4,4,5,5,6,6,7,7,8,8,9,9,10,10,11,11,12,12,13,13,14,14,15,15,16,16,17,17,18,18,19,19,20,20,21,21,22,22,23,23,24,24,25,25,26,26,27,27,28,28,29,29,30,30,31,31,32,32,33,33,34,34,35,35,36,36,37,37,38,38,39,39,40,40,41,41,42,42,43,43,44,44,45,45,46,46,47,47,48,48,49,49,50,50,51,51,52,52,53,53,54,54,55,55,56,56,57,57,58,58,59,59,60,60,61,61,62,62],"right_children":[2,4,6,8,10,12,14,16,18,20,22,24,26,28,30,32,34,36,38,40,42,44,46,48,50,52,54,56,58,60,62,64,66,68,70,72,74,76,78,80,82,84,86,88,90,92,94,96,98,100,102,104,106,108,110,112,114,116,118,120,122,124,126,-1,-1,-1,-1,-1,-1,-1,-1,-1,-1,-1,-1,-1,-1,-1,-1,-1,-1,-1,-1,-1,-1,-1,-1,-1,-1,-1,-1,-1,-1,-1,-1,-1,-1,-1,-1,-1,-1,-1,-1,-1,-1,-1,-1,-1,-1,-1,-1,-1,-1,-1,-1,-1,-1,-1,-1,-1,-1,-1,-1,-1,-1,-1,-1],"split_conditions":[1.3499999E0,1.795E1,-1.295E1,-1.105E1,-3.0349998E1,3.0650002E1,1.5E0,-2.1349998E1,1.5E0,4.24E1,3.418E1,3.458E1,4.775E1,1.7650002E1,9.5E0,3.554E1,1.225E1,-4.5E0,1.215E1,3.023E1,-2.95E1,4.59E1,2.295E1,-3.0650002E1,1.86E1,3.147E1,3.15E1,9.25E0,3.735E1,9.45E0,2.3400002E1,-1.3E1,-5.5E0,3.6525E1,2.8149998E-1,3.5225E1,3.23E1,-4.5E0,3.6489998E1,2.477E1,7.85E1,4.87E-1,3.8999997E-2,-1.05E1,6.105E-1,-7.5E0,2.55E1,6.97E-1,1.625E1,-1.8650002E1,-2.745E1,-2.48E1,-2.775E1,2.65E-2,5.1E-1,-5.5E0,-6.25E0,3.4335E1,1.2035E2,2.6749998E-1,2.425E1,1.055E1,3.87E-1,-1.6666667E-1,1.6820834E0,-2.6E-1,1.0897197E0,8.7156403E-1,4.9479556E-1,1.0459931E0,-2E-1,-9.4416666E-1,-2.980114E-1,5.540541E-1,-2.1511627E-2,5.486197E-1,3.1376937E-1,9.425439E-1,6.401376E-1,5E-1,2.8159091E0,2.2361112E0,1.6370372E0,3.8387501E0,1.025E0,7.6666665E-1,3.025E0,2.0323827E0,1.5167614E0,2.8260417E0,3.2500002E-1,1.1463983E0,7.421875E-1,1.3715714E0,1.8152941E0,-2.3778949E0,-2.75E-1,-1.4799296E0,-1.8941532E0,-1.1763033E0,-8.6859906E-1,-1.788125E0,-1.3993311E0,-2.8957984E0,-2.2701755E0,-2.370283E0,-1.9264492E0,-1.75E-1,-2.6539476E0,-1.3333334E0,-3.7389832E0,-6.878327E-1,-3.7860915E-1,-9.511905E-1,-6.290179E-1,-1.51125E0,-1.0737675E0,-2.24E0,-4.25E-1,5.875E-2,-1.6976191E-1,-4.6190476E-1,-1.242647E0,4.478395E-1,-1E-1,1.1117188E0,-5.416667E-1],"split_indices":[196,93,93,196,198,198,75,198,75,93,101,206,196,198,75,101,93,75,93,101,180,93,93,93,198,206,180,198,196,196,93,91,91,101,21,206,101,180,101,206,73,37,15,180,99,180,75,130,196,91,93,91,93,9,37,75,91,206,89,204,198,196,120,0,0,0,0,0,0,0,0,0,0,0,0,0,0,0,0,0,0,0,0,0,0,0,0,0,0,0,0,0,0,0,0,0,0,0,0,0,0,0,0,0,0,0,0,0,0,0,0,0,0,0,0,0,0,0,0,0,0,0,0,0,0,0,0],"split_type":[0,0,0,0,0,0,0,0,0,0,0,0,0,0,0,0,0,0,0,0,0,0,0,0,0,0,0,0,0,0,0,0,0,0,0,0,0,0,0,0,0,0,0,0,0,0,0,0,0,0,0,0,0,0,0,0,0,0,0,0,0,0,0,0,0,0,0,0,0,0,0,0,0,0,0,0,0,0,0,0,0,0,0,0,0,0,0,0,0,0,0,0,0,0,0,0,0,0,0,0,0,0,0,0,0,0,0,0,0,0,0,0,0,0,0,0,0,0,0,0,0,0,0,0,0,0,0],"sum_hessian":[9.375E3,4.583E3,4.792E3,2.931E3,1.652E3,1.79E3,3.002E3,9.97E2,1.934E3,3.69E2,1.283E3,1.276E3,5.14E2,1.988E3,1.014E3,2.31E2,7.66E2,6.99E2,1.235E3,2.54E2,1.15E2,5.2E2,7.63E2,4.83E2,7.93E2,4.16E2,9.8E1,1.541E3,4.47E2,7.13E2,3.01E2,1.21E2,1.1E2,4.78E2,2.88E2,2.34E2,4.65E2,9.05E2,3.3E2,6.7E1,1.87E2,4E1,7.5E1,4.72E2,4.8E1,3.3E2,4.33E2,9.5E1,3.88E2,4.16E2,3.77E2,1.74E2,2.42E2,3.8E1,6E1,8.29E2,7.12E2,4.02E2,4.5E1,4.08E2,3.05E2,2.33E2,6.8E1,2E0,1.19E2,4E0,1.06E2,2.1E2,2.68E2,2.86E2,2E0,5.9E1,1.75E2,3.6E1,4.29E2,3.25E2,5.8E2,1.13E2,2.17E2,2E0,6.5E1,1.61E2,2.6E1,3.9E1,1E0,2E0,7.3E1,2.97E2,1.75E2,4.7E1,1E0,2.35E2,9.5E1,3.49E2,8.4E1,9.4E1,1E0,1.41E2,2.47E2,2.1E2,2.06E2,7.9E1,2.98E2,1.18E2,5.6E1,1.05E2,1.37E2,1E0,3.7E1,2E0,5.8E1,2.62E2,5.67E2,3.77E2,3.35E2,1.19E2,2.83E2,4.4E1,1E0,1.99E2,2.09E2,2.72E2,3.3E1,1.61E2,7.2E1,6.3E1,5E0],"tree_param":{"num_deleted":"0","num_feature":"210","num_nodes":"127","size_leaf_vector":"0"}},{"base_weights":[-2.5687215E-1,-9.543045E0,7.9534016E0,-5.3766503E0,-1.6843296E1,4.6290774E0,1.722592E1,-9.300378E0,-3.2902293E0,-2.2776447E1,-1.4213172E1,8.007909E0,2.7984846E-1,2.2288326E1,1.4347114E1,-1.2952527E1,-7.9338107E0,1.2097824E0,-4.863298E0,-2.6275274E1,-1.865323E1,-1.7163979E1,-1.1834214E1,1.1562532E1,6.1603107E0,2.0721858E0,-3.5629375E0,1.985449E1,2.7534193E1,1.3145909E1,1.9188965E1,-1.5954401E1,-1.0181412E1,-5.7357535E0,-9.943065E0,9.01454E0,5.267765E-1,-3.2129548E0,-6.258646E0,-2.5079933E1,-3.7554016E1,-1.6302464E1,-2.1276712E1,-1.8383854E1,-1.3707012E1,-1.1325945E1,-2.1714203E1,1.7395498E1,1.0423843E1,4.484203E0,7.559325E0,1.4673872E-1,4.225854E0,-2.5548263E0,-1.1047587E1,2.0599743E1,1.3476711E1,3.3660286E1,2.5244106E1,1.4790394E1,1.0712108E1,1.77031E1,2.6072678E1,-1.960996E1,-1.3771697E1,-7.2943187E0,-1.2411353E1,1.0253586E0,-6.3222566E0,-1.1543746E1,-8.90956E0,1.1655022E1,1.4738104E0,2.6414692E0,-4.8233992E-1,-4.625295E0,-2.1555789E0,-9.080655E0,-5.8381367E0,-8.635641E0,-2.5323088E1,-9.880508E0,-3.836279E1,-1.6931734E1,-9.018285E0,-2.1603416E1,-7.708246E0,-1.4968538E1,-1.9401184E1,-1.203947E1,-1.766315E1,-1.2437993E1,-8.742382E0,-2.272815E1,-9.695E0,1.9146317E1,1.2570902E1,1.3584164E1,9.243856E0,4.768169E0,-1.4476666E0,1.1833762E1,7.2638354E0,7.307039E-1,-1.8230435E0,6.2315354E0,3.5164783E0,-3.5868104E0,1.4877127E-1,3.5884743E0,-1.1880862E1,1.5668249E1,2.1326109E1,1.403947E1,2.4189522E0,3.4160255E1,7.830625E0,2.7635138E1,2.048783E1,1.6569023E1,1.332687E1,1.1795401E1,7.0307693E0,3.3354754E0,1.7997673E1,2.6637463E1,5.6941404E0],"categories":[],"categories_nodes":[],"categories_segments":[],"categories_sizes":[],"default_left":[true,true,true,true,true,true,true,true,true,true,true,true,true,true,true,true,true,true,true,true,true,true,true,true,true,true,true,true,true,true,true,true,true,true,true,true,true,true,true,true,true,true,true,true,true,true,true,true,true,true,true,true,true,true,true,true,true,true,true,true,true,true,true,false,false,false,false,false,false,false,false,false,false,false,false,false,false,false,false,false,false,false,false,false,false,false,false,false,false,false,false,false,false,false,false,false,false,false,false,false,false,false,false,false,false,false,false,false,false,false,false,false,false,false,false,false,false,false,false,false,false,false,false,false,false,false,false],"id":1,"left_children":[1,3,5,7,9,11,13,15,17,19,21,23,25,27,29,31,33,35,37,39,41,43,45,47,49,51,53,55,57,59,61,63,65,67,69,71,73,75,77,79,81,83,85,87,89,91,93,95,97,99,101,103,105,107,109,111,113,115,117,119,121,123,125,-1,-1,-1,-1,-1,-1,-1,-1,-1,-1,-1,-1,-1,-1,-1,-1,-1,-1,-1,-1,-1,-1,-1,-1,-1,-1,-1,-1,-1,-1,-1,-1,-1,-1,-1,-1,-1,-1,-1,-1,-1,-1,-1,-1,-1,-1,-1,-1,-1,-1,-1,-1,-1,-1,-1,-1,-1,-1,-1,-1,-1,-1,-1,-1],"loss_changes":[7.116427E5,1.3313034E5,1.526266E5,2.2809875E4,2.4503719E4,5.3606242E4,1.8728031E4,4.7284297E3,1.2910582E4,6.5355312E3,7.553797E3,1.3411875E4,1.0999942E4,5.479625E3,4.6099844E3,2.0170195E3,3.0654062E3,2.5166704E3,3.0909805E3,2.5769531E3,1.0530859E3,1.8185938E3,2.8424062E3,4.474672E3,3.13875E3,4.515216E3,3.8048188E3,1.2718828E3,1.2125859E3,2.5351484E3,1.2158672E3,7.19334E2,8.0435645E2,1.3547227E3,5.059336E2,7.3944653E2,9.3168555E2,9.174155E2,8.144492E2,7.3696875E2,1.3573242E2,4.156875E2,2.944961E2,9.6041406E2,6.5815234E2,1.5777422E3,1.3306836E2,7.138203E2,2.0708906E3,1.0478936E3,8.4364844E2,6.638958E2,7.093965E2,1.2532749E3,7.7438574E2,7.0465625E2,1.9628516E2,2.1032422E2,6.9615625E2,8.178125E2,1.0137617E3,5.2402734E2,1.5907812E2,0E0,0E0,0E0,0E0,0E0,0E0,0E0,0E0,0E0,0E0,0E0,0E0,0E0,0E0,0E0,0E0,0E0,0E0,0E0,0E0,0E0,0E0,0E0,0E0,0E0,0E0,0E0,0E0,0E0,0E0,0E0,0E0,0E0,0E0,0E0,0E0,0E0,0E0,0E0,0E0,0E0,0E0,0E0,0E0,0E0,0E0,0E0,0E0,0E0,0E0,0E0,0E0,0E0,0E0,0E0,0E0,0E0,0E0,0E0,0E0,0E0,0E0,0E0,0E0],"parents":[2147483647,0,0,1,1,2,2,3,3,4,4,5,5,6,6,7,7,8,8,9,9,10,10,11,11,12,12,13,13,14,14,15,15,16,16,17,17,18,18,19,19,20,20,21,21,22,22,23,23,24,24,25,25,26,26,27,27,28,28,29,29,30,30,31,31,32,32,33,33,34,34,35,35,36,36,37,37,38,38,39,39,40,40,41,41,42,42,43,43,44,44,45,45,46,46,47,47,48,48,49,49,50,50,51,51,52,52,53,53,54,54,55,55,56,56,57,57,58,58,59,59,60,60,61,61,62,62],"right_children":[2,4,6,8,10,12,14,16,18,20,22,24,26,28,30,32,34,36,38,40,42,44,46,48,50,52,54,56,58,60,62,64,66,68,70,72,74,76,78,80,82,84,86,88,90,92,94,96,98,100,102,104,106,108,110,112,114,116,118,120,122,124,126,-1,-1,-1,-1,-1,-1,-1,-1,-1,-1,-1,-1,-1,-1,-1,-1,-1,-1,-1,-1,-1,-1,-1,-1,-1,-1,-1,-1,-1,-1,-1,-1,-1,-1,-1,-1,-1,-1,-1,-1,-1,-1,-1,-1,-1,-1,-1,-1,-1,-1,-1,-1,-1,-1,-1,-1,-1,-1,-1,-1,-1,-1,-1,-1],"split_conditions":[6.5E-1,1.795E1,2.245E1,-1.115E1,-2.6650002E1,-2.95E0,-2.6650002E1,3.4505E1,-5E-1,3.257E1,3.5105E1,-1.485E1,6.5E0,4.065E1,3.625E1,-1.745E1,1.025E1,-1.25E1,7.25E0,5.7300003E1,3.045E1,-1.145E1,2.95E1,-2.05E1,9.55E0,8.25E0,2.425E1,8.05E1,-3.15E1,-1.255E1,5.39E1,2.93E-1,5.05E1,-5.25E0,-1.8650002E1,2.7150002E0,-5.5E0,-5.45E0,3.4004997E1,5.05E1,6.95E-2,7.5E0,1.65E1,2.305E1,2.25E1,-7.5E0,2.905E-1,7.55E1,6.85E1,4.68E-1,6.45E1,5.25E0,3.5525E1,1.1E1,5.5E0,7.5729996E1,1.405E2,4.585E-1,2.89E-1,3.445E1,1.6500001E0,5.5E0,4.6899998E-1,-1.960996E0,-1.3771697E0,-7.2943187E-1,-1.2411354E0,1.0253586E-1,-6.322257E-1,-1.1543746E0,-8.9095604E-1,1.1655022E0,1.4738105E-1,2.6414692E-1,-4.8233993E-2,-4.625295E-1,-2.1555789E-1,-9.080655E-1,-5.8381367E-1,-8.6356413E-1,-2.5323088E0,-9.880509E-1,-3.836279E0,-1.6931734E0,-9.0182847E-1,-2.1603417E0,-7.708246E-1,-1.4968538E0,-1.9401184E0,-1.203947E0,-1.7663151E0,-1.2437993E0,-8.742382E-1,-2.272815E0,-9.695E-1,1.9146317E0,1.2570902E0,1.3584164E0,9.2438567E-1,4.768169E-1,-1.4476667E-1,1.1833762E0,7.2638357E-1,7.307039E-2,-1.8230435E-1,6.2315357E-1,3.5164782E-1,-3.5868105E-1,1.48771275E-2,3.5884744E-1,-1.1880863E0,1.5668249E0,2.132611E0,1.403947E0,2.4189523E-1,3.4160256E0,7.830625E-1,2.7635138E0,2.048783E0,1.6569023E0,1.332687E0,1.17954E0,7.0307696E-1,3.3354756E-1,1.7997674E0,2.6637464E0,5.694141E-1],"split_indices":[91,198,93,91,93,198,198,206,180,206,206,198,180,93,93,93,198,180,198,198,198,91,180,180,93,91,198,73,180,198,93,145,73,198,91,97,180,91,206,59,205,183,182,198,180,75,31,59,59,46,59,198,206,91,184,102,90,108,113,206,198,79,3,0,0,0,0,0,0,0,0,0,0,0,0,0,0,0,0,0,0,0,0,0,0,0,0,0,0,0,0,0,0,0,0,0,0,0,0,0,0,0,0,0,0,0,0,0,0,0,0,0,0,0,0,0,0,0,0,0,0,0,0,0,0,0,0],"split_type":[0,0,0,0,0,0,0,0,0,0,0,0,0,0,0,0,0,0,0,0,0,0,0,0,0,0,0,0,0,0,0,0,0,0,0,0,0,0,0,0,0,0,0,0,0,0,0,0,0,0,0,0,0,0,0,0,0,0,0,0,0,0,0,0,0,0,0,0,0,0,0,0,0,0,0,0,0,0,0,0,0,0,0,0,0,0,0,0,0,0,0,0,0,0,0,0,0,0,0,0,0,0,0,0,0,0,0,0,0,0,0,0,0,0,0,0,0,0,0,0,0,0,0,0,0,0,0],"sum_hessian":[9.332E3,4.379E3,4.953E3,2.789E3,1.59E3,3.647E3,1.306E3,9.67E2,1.822E3,4.86E2,1.104E3,2.052E3,1.595E3,4.71E2,8.35E2,2.61E2,7.06E2,4.72E2,1.35E3,2.6E2,2.26E2,4.9E2,6.14E2,7E2,1.352E3,1.088E3,5.07E2,3.25E2,1.46E2,6.72E2,1.63E2,1.23E2,1.38E2,3.39E2,3.67E2,3.7E1,4.35E2,6.2E2,7.3E2,2.38E2,2.2E1,1.23E2,1.03E2,3.59E2,1.31E2,5.86E2,2.8E1,1.12E2,5.88E2,6.17E2,7.35E2,5.75E2,5.13E2,4.48E2,5.9E1,2.89E2,3.6E1,3.6E1,1.1E2,3.98E2,2.74E2,1.37E2,2.6E1,4.3E1,8E1,6.2E1,7.6E1,2.7E1,3.12E2,1.4E2,2.27E2,2.7E1,1E1,1.4E2,2.95E2,2.64E2,3.56E2,9.2E1,6.38E2,4E0,2.34E2,1E0,2.1E1,1.12E2,1.1E1,1E2,3E0,8.6E1,2.73E2,9.5E1,3.6E1,4.07E2,1.79E2,2.5E1,3E0,8E1,3.2E1,1.57E2,4.31E2,5.89E2,2.8E1,4.5E1,6.9E2,4.44E2,1.31E2,1.32E2,3.81E2,3.24E2,1.24E2,3E0,5.6E1,4E1,2.49E2,3.4E1,2E0,3.5E1,1E0,7E1,4E1,1.75E2,2.23E2,2.1E2,6.4E1,3E0,1.34E2,2.5E1,1E0],"tree_param":{"num_deleted":"0","num_feature":"210","num_nodes":"127","size_leaf_vector":"0"}},{"base_weights":[-3.5902113E-1,7.8204007E0,-8.243737E0,3.700207E0,1.4095794E1,-1.4428339E1,-4.0903745E0,-2.748619E-1,5.4808497E0,1.9001554E1,1.10094795E1,-1.1913554E1,-2.1060787E1,-6.375557E0,-6.560234E-1,5.660893E0,-1.0622947E0,8.079964E0,3.6722226E0,1.7002314E1,2.5169748E1,1.425228E1,9.296141E0,-1.5118448E1,-9.8853445E0,-1.9989466E1,-3.234231E1,-5.104982E0,-1.0725659E1,-1.9727312E0,4.665902E0,8.685224E0,2.4023714E0,-3.735017E0,3.9820138E-1,1.2742843E1,6.9980245E0,1.39276E0,4.3623204E0,1.979523E1,1.4339588E1,2.3261444E1,3.329978E1,1.2827149E1,1.7944038E1,8.581634E0,1.3125581E1,-1.6468485E1,-1.207329E1,-6.5066357E0,-1.1065353E1,-2.2412155E1,-1.724951E1,-3.3499474E1,-1.6616549E1,-4.0885534E0,-6.5844073E0,-1.4242921E1,-9.241382E0,-9.43904E-1,-6.8344707E0,1.0748804E1,3.0605857E0,9.479946E0,-7.4552307E0,3.1568024E0,-7.062787E0,-7.01759E0,-2.5674415E0,1.6375768E0,-1.1987643E0,1.0922578E1,1.6055702E1,5.4883213E0,8.088946E0,-2.413177E-1,2.726298E0,5.719552E0,3.4508886E0,2.7918638E1,1.9320429E1,1.2974288E1,1.6554817E1,2.786656E1,2.116173E1,3.417761E1,1.4006808E1,-1.1479223E0,1.3032359E1,-2.6751544E0,1.8168022E1,9.708622E0,7.1066165E0,1.3287791E1,-2.6021292E0,-1.8055632E1,-1.4655069E1,-1.0460535E1,-1.5599652E1,-7.7470627E0,-4.6426845E0,-1.0139724E1,-1.3320851E1,-2.4164303E1,-1.824712E1,-1.8253538E1,-1.4679481E1,-1.3502203E1,-3.419664E1,-5.6575446E0,-3.3699677E0,-8.095489E0,-5.1835475E0,-1.7921207E1,-1.2216371E1,-7.541688E0,-1.1025582E1,8.785849E-2,-2.627988E0,-4.666767E0,-9.698617E0,1.2570726E1,1.6594985E0,4.5708275E0,-3.8511307E0],"categories":[],"categories_nodes":[],"categories_segments":[],"categories_sizes":[],"default_left":[true,true,true,true,true,true,true,true,true,true,true,true,true,true,true,true,true,true,true,true,true,true,true,true,true,true,true,true,true,true,true,true,true,true,true,true,true,true,true,true,true,true,true,true,true,true,true,true,true,true,true,true,true,true,false,true,true,true,true,true,true,true,true,false,false,false,false,false,false,false,false,false,false,false,false,false,false,false,false,false,false,false,false,false,false,false,false,false,false,false,false,false,false,false,false,false,false,false,false,false,false,false,false,false,false,false,false,false,false,false,false,false,false,false,false,false,false,false,false,false,false,false,false,false,false],"id":2,"left_children":[1,3,5,7,9,11,13,15,17,19,21,23,25,27,29,31,33,35,37,39,41,43,45,47,49,51,53,55,57,59,61,63,65,67,69,71,73,75,77,79,81,83,85,87,89,91,93,95,97,99,101,103,105,107,-1,109,111,113,115,117,119,121,123,-1,-1,-1,-1,-1,-1,-1,-1,-1,-1,-1,-1,-1,-1,-1,-1,-1,-1,-1,-1,-1,-1,-1,-1,-1,-1,-1,-1,-1,-1,-1,-1,-1,-1,-1,-1,-1,-1,-1,-1,-1,-1,-1,-1,-1,-1,-1,-1,-1,-1,-1,-1,-1,-1,-1,-1,-1,-1,-1,-1,-1,-1],"loss_changes":[6.048098E5,1.1896225E5,1.2259591E5,1.967884E4,2.74075E4,3.173975E4,2.2425738E4,4.0303345E3,8.995918E3,8.24125E3,6.1013594E3,8.9053125E3,5.710797E3,9.429805E3,8.0186865E3,9.744746E2,2.9720513E3,3.8812031E3,1.7777646E3,3.687375E3,1.8628828E3,1.8006719E3,1.9039102E3,2.0129297E3,3.3408047E3,2.8195781E3,2.4403516E2,1.9730391E3,1.8887461E3,4.580282E3,2.183754E3,7.376885E2,3.793363E2,1.01296655E3,9.777284E2,7.110801E2,1.0113125E3,5.781208E2,1.0564746E3,4.5571094E2,6.229844E2,7.736797E2,2.9355469E1,8.236836E2,5.3352734E2,9.682969E2,3.2541602E2,8.003125E2,7.979512E2,4.8194238E2,1.1864766E3,1.4053984E3,3.281172E2,9.592578E1,0E0,8.72751E2,1.1011152E3,6.233965E2,7.508125E2,1.3173125E3,9.4811816E2,7.57459E2,1.906947E3,0E0,0E0,0E0,0E0,0E0,0E0,0E0,0E0,0E0,0E0,0E0,0E0,0E0,0E0,0E0,0E0,0E0,0E0,0E0,0E0,0E0,0E0,0E0,0E0,0E0,0E0,0E0,0E0,0E0,0E0,0E0,0E0,0E0,0E0,0E0,0E0,0E0,0E0,0E0,0E0,0E0,0E0,0E0,0E0,0E0,0E0,0E0,0E0,0E0,0E0,0E0,0E0,0E0,0E0,0E0,0E0,0E0,0E0,0E0,0E0,0E0,0E0],"parents":[2147483647,0,0,1,1,2,2,3,3,4,4,5,5,6,6,7,7,8,8,9,9,10,10,11,11,12,12,13,13,14,14,15,15,16,16,17,17,18,18,19,19,20,20,21,21,22,22,23,23,24,24,25,25,26,26,27,27,28,28,29,29,30,30,31,31,32,32,33,33,34,34,35,35,36,36,37,37,38,38,39,39,40,40,41,41,42,42,43,43,44,44,45,45,46,46,47,47,48,48,49,49,50,50,51,51,52,52,53,53,55,55,56,56,57,57,58,58,59,59,60,60,61,61,62,62],"right_children":[2,4,6,8,10,12,14,16,18,20,22,24,26,28,30,32,34,36,38,40,42,44,46,48,50,52,54,56,58,60,62,64,66,68,70,72,74,76,78,80,82,84,86,88,90,92,94,96,98,100,102,104,106,108,-1,110,112,114,116,118,120,122,124,-1,-1,-1,-1,-1,-1,-1,-1,-1,-1,-1,-1,-1,-1,-1,-1,-1,-1,-1,-1,-1,-1,-1,-1,-1,-1,-1,-1,-1,-1,-1,-1,-1,-1,-1,-1,-1,-1,-1,-1,-1,-1,-1,-1,-1,-1,-1,-1,-1,-1,-1,-1,-1,-1,-1,-1,-1,-1,-1,-1,-1,-1],"split_conditions":[1.3499999E0,1.655E1,-1.185E1,1.5E0,-2.325E1,3.055E1,5E-1,-1.385E1,-9.45E0,4.065E1,3.4184998E1,3.5114998E1,5.4E1,1.775E1,1.435E1,3.5825E1,-4.5E0,3.354E1,5.1499996E0,3.3225E1,5.68E1,3.365E1,2.98E1,-1.755E1,1.235E1,-2.7650002E1,7.5E0,1.025E1,6.95E1,1.63E1,3.202E1,2.335E1,5.5E0,3.5335E1,2.605E0,5.9749997E-1,9.85E0,2.265E-1,3.7245003E1,-4.96E1,2.15E1,-2.85E1,5.855E-1,1.68E1,4.5E1,-1.135E1,8E-1,3.215E1,2.125E1,2.525E-1,2.3650002E1,3.321E1,-1.745E1,1.0545E2,-1.6616548E0,-5.5E0,-6.1499996E0,1.15E1,2.255E1,6.5E0,2.095E1,1.35E-1,1.375E1,9.4799465E-1,-7.455231E-1,3.1568024E-1,-7.0627874E-1,-7.0175904E-1,-2.5674415E-1,1.6375768E-1,-1.1987644E-1,1.0922579E0,1.6055702E0,5.488321E-1,8.0889463E-1,-2.4131771E-2,2.7262983E-1,5.719552E-1,3.4508887E-1,2.791864E0,1.932043E0,1.2974288E0,1.6554817E0,2.7866561E0,2.116173E0,3.4177608E0,1.4006809E0,-1.1479223E-1,1.3032359E0,-2.6751545E-1,1.8168023E0,9.708622E-1,7.1066165E-1,1.3287791E0,-2.6021293E-1,-1.8055632E0,-1.4655069E0,-1.0460535E0,-1.5599653E0,-7.747063E-1,-4.6426845E-1,-1.0139724E0,-1.3320851E0,-2.4164302E0,-1.824712E0,-1.8253539E0,-1.4679481E0,-1.3502203E0,-3.4196641E0,-5.657545E-1,-3.3699676E-1,-8.0954885E-1,-5.183548E-1,-1.7921208E0,-1.2216371E0,-7.541688E-1,-1.1025583E0,8.785849E-3,-2.6279882E-1,-4.666767E-1,-9.698617E-1,1.2570727E0,1.6594985E-1,4.5708275E-1,-3.851131E-1],"split_indices":[196,93,93,75,198,198,75,196,198,93,101,206,196,198,93,101,75,101,91,101,91,91,93,93,198,91,80,198,59,196,206,39,62,206,97,142,93,140,101,198,75,180,20,93,59,198,152,206,198,117,198,206,91,94,0,75,93,63,198,180,198,118,198,0,0,0,0,0,0,0,0,0,0,0,0,0,0,0,0,0,0,0,0,0,0,0,0,0,0,0,0,0,0,0,0,0,0,0,0,0,0,0,0,0,0,0,0,0,0,0,0,0,0,0,0,0,0,0,0,0,0,0,0,0,0],"split_type":[0,0,0,0,0,0,0,0,0,0,0,0,0,0,0,0,0,0,0,0,0,0,0,0,0,0,0,0,0,0,0,0,0,0,0,0,0,0,0,0,0,0,0,0,0,0,0,0,0,0,0,0,0,0,0,0,0,0,0,0,0,0,0,0,0,0,0,0,0,0,0,0,0,0,0,0,0,0,0,0,0,0,0,0,0,0,0,0,0,0,0,0,0,0,0,0,0,0,0,0,0,0,0,0,0,0,0,0,0,0,0,0,0,0,0,0,0,0,0,0,0,0,0,0,0],"sum_hessian":[9.376E3,4.602E3,4.774E3,2.779E3,1.823E3,1.917E3,2.857E3,8.6E2,1.919E3,7.02E2,1.121E3,1.392E3,5.25E2,1.715E3,1.142E3,1E2,7.6E2,7.86E2,1.133E3,5.33E2,1.69E2,3.85E2,7.36E2,5.37E2,8.55E2,4.82E2,4.3E1,1.329E3,3.86E2,9.16E2,2.26E2,5.1E1,4.9E1,2.68E2,4.92E2,1.46E2,6.4E2,2.64E2,8.69E2,2.57E2,2.76E2,1.4E2,2.9E1,2.81E2,1.04E2,6.23E2,1.13E2,3.69E2,1.68E2,2.23E2,6.32E2,2.52E2,2.3E2,3.9E1,4E0,7.9E2,5.39E2,1.12E2,2.74E2,7.57E2,1.59E2,4.6E1,1.8E2,4.9E1,2E0,4.6E1,3E0,6.9E1,1.99E2,2.77E2,2.15E2,9.7E1,4.9E1,2.71E2,3.69E2,1.19E2,1.45E2,3.47E2,5.22E2,1.1E1,2.46E2,1.75E2,1.01E2,4E1,1E2,2.7E1,2E0,4E0,2.77E2,1E0,1.03E2,3.5E2,2.73E2,1.12E2,1E0,1.92E2,1.77E2,1.18E2,5E1,1.32E2,9.1E1,4.52E2,1.8E2,1.74E2,7.8E1,1.61E2,6.9E1,2E0,3.7E1,2.46E2,5.44E2,2.57E2,2.82E2,3.7E1,7.5E1,1.43E2,1.31E2,4.7E2,2.87E2,9.2E1,6.7E1,3.8E1,8E0,1.48E2,3.2E1],"tree_param":{"num_deleted":"0","num_feature":"210","num_nodes":"125","size_leaf_vector":"0"}},{"base_weights":[-3.4183878E-1,7.069766E0,-7.341702E0,3.196512E0,1.2504119E1,-4.6810465E0,-1.4939225E1,5.683175E0,1.1391553E0,1.0216596E1,1.7915754E1,-7.9224267E0,-1.8860625E0,-2.1066671E1,-1.3026398E1,9.687793E0,4.702997E0,-2.3986242E0,2.388464E0,1.24999895E1,8.089571E0,2.306458E1,1.5933271E1,-1.0912977E1,-6.727092E0,-3.0881155E0,2.537753E0,-3.0816082E1,-2.0053568E1,-1.1845261E1,-1.798439E1,1.3505593E1,8.535449E0,5.525942E-1,5.255092E0,-7.4335804E0,-1.3394288E0,1.463436E0,4.0297165E0,1.5566165E1,1.1224697E1,1.0900082E1,7.185319E0,2.127743E1,2.946917E1,1.5127442E1,2.362628E1,-1.3216698E1,-8.992587E0,-9.086817E0,-5.8585534E0,-2.1522017E0,-5.18879E0,1.5619594E0,7.6148267E0,-3.349609E1,-1.2860836E1,-2.3145573E1,-1.8110022E1,-1.2251319E1,-2.3438423E0,-1.994851E1,-1.47784E1,1.4571888E1,3.5478696E-1,-6.418575E0,8.735045E0,-1.294894E1,1.029858E0,8.593873E0,4.6454015E0,-8.08903E0,4.7481503E0,8.572506E-1,-2.8396E0,2.8527548E0,9.5359886E-1,6.4827027E0,3.1086135E0,1.8097633E1,1.3396184E1,1.24079895E1,9.7612295E0,1.6106416E0,1.1481506E1,6.2291555E0,8.341973E0,2.0017494E1,2.7186672E1,1.6527866E1,3.1322193E1,1.7103186E1,1.3216302E1,2.4213476E1,8.900212E0,-1.5866627E1,-1.1710859E1,-6.916179E0,-9.944303E0,5.1410514E-1,-9.532121E0,-4.29205E0,-7.3210664E0,-2.7645197E0,-5.443076E-1,-5.592355E0,-2.5728226E0,3.6444235E0,5.0945807E-1,8.364377E0,-1.2747356E0,-2.3997276E1,-1.0244857E1,-1.6893078E1,-2.1924774E1,-1.4036328E1,-1.0651737E1,-5.5337195E0,6.7773547E0,-2.0155622E1,1.3134866E0,-1.5083178E1,3.582792E0],"categories":[],"categories_nodes":[],"categories_segments":[],"categories_sizes":[],"default_left":[true,true,true,true,true,true,true,true,true,true,true,true,true,true,true,true,true,true,true,true,true,true,true,true,true,true,true,true,true,true,true,true,true,true,true,true,true,true,true,true,true,true,true,true,true,true,true,true,true,true,true,true,true,true,true,false,false,true,true,true,true,true,true,false,false,false,false,false,false,false,false,false,false,false,false,false,false,false,false,false,false,false,false,false,false,false,false,false,false,false,false,false,false,false,false,false,false,false,false,false,false,false,false,false,false,false,false,false,false,false,false,false,false,false,false,false,false,false,false,false,false,false,false],"id":3,"left_children":[1,3,5,7,9,11,13,15,17,19,21,23,25,27,29,31,33,35,37,39,41,43,45,47,49,51,53,55,57,59,61,63,65,67,69,71,73,75,77,79,81,83,85,87,89,91,93,95,97,99,101,103,105,107,109,-1,-1,111,113,115,117,119,121,-1,-1,-1,-1,-1,-1,-1,-1,-1,-1,-1,-1,-1,-1,-1,-1,-1,-1,-1,-1,-1,-1,-1,-1,-1,-1,-1,-1,-1,-1,-1,-1,-1,-1,-1,-1,-1,-1,-1,-1,-1,-1,-1,-1,-1,-1,-1,-1,-1,-1,-1,-1,-1,-1,-1,-1,-1,-1,-1,-1],"loss_changes":[4.8674022E5,9.587864E4,9.746453E4,1.3612193E4,2.3288E4,3.2373148E4,1.438825E4,4.6843516E3,6.4497666E3,6.38275E3,5.3691094E3,5.8427344E3,1.0223064E4,2.3056562E3,5.385375E3,9.229863E2,2.2197715E3,2.0219172E3,1.6307275E3,2.3356719E3,1.685418E3,1.1356484E3,2.178086E3,1.9648711E3,2.3754375E3,2.9595342E3,2.0242722E3,8.2033594E2,1.2093984E3,2.961336E3,8.512344E2,7.380293E2,6.052656E2,7.543718E2,1.7025723E3,5.6538574E2,1.0437792E3,4.8673315E2,8.565156E2,7.793047E2,6.7027344E2,8.834922E2,5.319785E2,3.790039E2,2.2570703E2,1.1823828E3,1.044375E2,6.6014453E2,4.4502344E2,1.3601777E3,1.9594844E3,1.0293115E3,4.7651855E2,7.5650476E2,4.504314E2,0E0,0E0,8.6389844E2,4.2346484E2,1.9719531E3,9.976554E2,5.10875E2,4.6255273E2,0E0,0E0,0E0,0E0,0E0,0E0,0E0,0E0,0E0,0E0,0E0,0E0,0E0,0E0,0E0,0E0,0E0,0E0,0E0,0E0,0E0,0E0,0E0,0E0,0E0,0E0,0E0,0E0,0E0,0E0,0E0,0E0,0E0,0E0,0E0,0E0,0E0,0E0,0E0,0E0,0E0,0E0,0E0,0E0,0E0,0E0,0E0,0E0,0E0,0E0,0E0,0E0,0E0,0E0,0E0,0E0,0E0,0E0,0E0,0E0],"parents":[2147483647,0,0,1,1,2,2,3,3,4,4,5,5,6,6,7,7,8,8,9,9,10,10,11,11,12,12,13,13,14,14,15,15,16,16,17,17,18,18,19,19,20,20,21,21,22,22,23,23,24,24,25,25,26,26,27,27,28,28,29,29,30,30,31,31,32,32,33,33,34,34,35,35,36,36,37,37,38,38,39,39,40,40,41,41,42,42,43,43,44,44,45,45,46,46,47,47,48,48,49,49,50,50,51,51,52,52,53,53,54,54,57,57,58,58,59,59,60,60,61,61,62,62],"right_children":[2,4,6,8,10,12,14,16,18,20,22,24,26,28,30,32,34,36,38,40,42,44,46,48,50,52,54,56,58,60,62,64,66,68,70,72,74,76,78,80,82,84,86,88,90,92,94,96,98,100,102,104,106,108,110,-1,-1,112,114,116,118,120,122,-1,-1,-1,-1,-1,-1,-1,-1,-1,-1,-1,-1,-1,-1,-1,-1,-1,-1,-1,-1,-1,-1,-1,-1,-1,-1,-1,-1,-1,-1,-1,-1,-1,-1,-1,-1,-1,-1,-1,-1,-1,-1,-1,-1,-1,-1,-1,-1,-1,-1,-1,-1,-1,-1,-1,-1,-1,-1,-1,-1],"split_conditions":[1.1500001E0,1.575E1,2.255E1,-5.5E0,3.155E1,-5.8500004E0,-3.1150002E1,-1.9349998E1,-1.3499999E0,-1.6849998E1,-3.605E1,-1.8650002E1,7.5E0,-3.55E1,3.81E1,3.182E1,-1.75E0,-1.05E1,6.5E0,3.2535E1,3.4035E1,5.4E1,5.375E1,3.5519997E1,3.5455E1,1.245E1,2.3400002E1,2.98E-1,3.0225E1,5.5E0,-1.745E1,1.10815E2,4.5E0,2.5869999E1,3.4175E1,5.5799997E-1,3.6480003E1,3.6184998E1,3.6265E1,-2.805E1,2.455E0,3.1E-1,2.1349998E1,2.05E1,1.71E-1,3.3345E1,3.4565002E1,-2.7900002E1,1.135E1,2.676E1,1.175E1,3.15E0,4.5E0,4.6499996E0,1.35E1,-3.3496091E0,-1.2860836E0,5.5E-1,4.365E1,3.4515E1,2.445E1,2.805E-1,4.81E-1,1.4571888E0,3.5478696E-2,-6.418575E-1,8.735046E-1,-1.2948941E0,1.029858E-1,8.5938734E-1,4.6454015E-1,-8.0890304E-1,4.7481504E-1,8.572506E-2,-2.8396E-1,2.852755E-1,9.5359884E-2,6.482703E-1,3.1086135E-1,1.8097633E0,1.3396184E0,1.240799E0,9.76123E-1,1.6106416E-1,1.1481507E0,6.2291557E-1,8.3419734E-1,2.0017495E0,2.7186673E0,1.6527866E0,3.1322193E0,1.7103186E0,1.3216302E0,2.4213476E0,8.9002126E-1,-1.5866627E0,-1.171086E0,-6.916179E-1,-9.9443024E-1,5.1410515E-2,-9.532121E-1,-4.29205E-1,-7.321066E-1,-2.7645198E-1,-5.443076E-2,-5.592355E-1,-2.5728226E-1,3.6444235E-1,5.0945807E-2,8.364377E-1,-1.2747356E-1,-2.3997276E0,-1.0244857E0,-1.6893078E0,-2.1924775E0,-1.4036329E0,-1.0651737E0,-5.5337197E-1,6.777355E-1,-2.0155623E0,1.3134865E-1,-1.5083178E0,3.582792E-1],"split_indices":[196,93,198,180,93,93,93,198,91,198,196,91,75,75,198,101,91,75,75,101,101,91,93,206,206,196,93,151,206,75,91,95,184,206,101,148,101,101,101,198,202,26,93,182,121,206,101,93,198,101,198,91,75,196,180,0,0,152,198,206,201,126,119,0,0,0,0,0,0,0,0,0,0,0,0,0,0,0,0,0,0,0,0,0,0,0,0,0,0,0,0,0,0,0,0,0,0,0,0,0,0,0,0,0,0,0,0,0,0,0,0,0,0,0,0,0,0,0,0,0,0,0,0],"split_type":[0,0,0,0,0,0,0,0,0,0,0,0,0,0,0,0,0,0,0,0,0,0,0,0,0,0,0,0,0,0,0,0,0,0,0,0,0,0,0,0,0,0,0,0,0,0,0,0,0,0,0,0,0,0,0,0,0,0,0,0,0,0,0,0,0,0,0,0,0,0,0,0,0,0,0,0,0,0,0,0,0,0,0,0,0,0,0,0,0,0,0,0,0,0,0,0,0,0,0,0,0,0,0,0,0,0,0,0,0,0,0,0,0,0,0,0,0,0,0,0,0,0,0],"sum_hessian":[9.38E3,4.556E3,4.824E3,2.661E3,1.895E3,3.574E3,1.25E3,1.204E3,1.457E3,1.334E3,5.61E2,1.654E3,1.92E3,2.95E2,9.55E2,2.35E2,9.69E2,3.8E2,1.077E3,6.41E2,6.93E2,1.53E2,4.08E2,4.7E2,1.184E3,1.51E3,4.1E2,2.5E1,2.7E2,7.74E2,1.81E2,5.2E1,1.83E2,1.14E2,8.55E2,6.5E1,3.15E2,6.9E2,3.87E2,1.85E2,4.56E2,1.66E2,5.27E2,1.23E2,3E1,3.72E2,3.6E1,2.11E2,2.59E2,3.16E2,8.68E2,1.046E3,4.64E2,3.45E2,6.5E1,2.1E1,4E0,1E2,1.7E2,7.42E2,3.2E1,1.09E2,7.2E1,4.8E1,4E0,2E0,1.81E2,3E0,1.11E2,1.3E2,7.25E2,6.2E1,3E0,1.28E2,1.87E2,1.84E2,5.06E2,1.04E2,2.83E2,8.2E1,1.03E2,2.48E2,2.08E2,1E1,1.56E2,2.92E2,2.35E2,1.05E2,1.8E1,5E0,2.5E1,1.79E2,1.93E2,3.4E1,2E0,7.3E1,1.38E2,8.4E1,1.75E2,1.4E1,3.02E2,4.21E2,4.47E2,7.57E2,2.89E2,4.01E2,6.3E1,1.15E2,2.3E2,6E1,5E0,9.3E1,7E0,1.33E2,3.7E1,3.47E2,3.95E2,2.4E1,8E0,1.08E2,1E0,7.1E1,1E0],"tree_param":{"num_deleted":"0","num_feature":"210","num_nodes":"123","size_leaf_vector":"0"}},{"base_weights":[-3.1415993E-1,5.999978E0,-7.125901E0,3.2399697E0,1.2250482E1,-1.2960564E1,-4.3739276E0,5.8921824E0,1.0782216E0,1.0506439E1,1.8019892E1,-1.7790554E1,-1.1116756E1,-5.8436165E0,-7.4629635E-1,8.985009E0,4.880438E0,-1.9310805E0,2.4581146E0,1.3670007E1,9.096479E0,1.646509E1,2.3664913E1,-1.6767168E1,-2.6754787E1,-1.482368E1,-9.8858185E0,-5.019022E0,-1.0212563E1,-2.1011508E0,3.4024842E0,1.2200696E1,7.6405587E0,6.0850614E-1,5.4138308E0,-6.1170893E0,-1.2461921E0,1.3351601E0,3.8940718E0,1.7270609E1,1.2629007E1,1.1357683E1,7.8518405E0,1.8598352E1,1.3505308E1,2.424244E1,1.10775795E1,-1.3635132E1,-1.815044E1,-2.7149742E1,-5.8732715E0,-1.5522546E1,-1.0609322E1,-8.645624E0,-1.3094559E1,-6.4946175E0,-4.142614E0,-9.286533E0,-1.371787E1,-1.090243E0,-5.638792E0,2.0428503E0,6.642184E0,2.0153542E-1,1.2660264E1,1.07151375E1,6.8757024E0,-4.8945413E0,1.4954101E0,8.765728E0,4.9593806E0,-8.964918E0,-4.016206E0,6.4594376E-1,-2.393172E0,-2.5732713E0,1.5455519E0,6.997275E0,3.492873E0,2.0974226E1,1.4100384E1,1.1849586E1,1.4929449E1,1.2749356E1,8.557504E0,7.194829E0,1.0385435E1,2.4911478E1,1.7540974E1,1.510417E1,1.0768641E1,1.16253395E1,2.4849361E1,-2.051817E1,-1.2546046E1,-1.379064E1,-1.8856287E1,-2.7550747E1,-6.156298E0,-1.4251158E1,-1.8750383E1,-1.1757844E1,-3.515165E0,-7.065585E0,-9.67232E0,-1.2234879E1,-1.7543222E1,-5.8238196E0,-8.016345E0,-3.5296643E0,-5.5997066E0,-1.0094862E1,-6.3933764E0,2.9254565E-1,-1.4134243E1,-3.528459E0,-6.19075E-1,-9.15005E0,-4.5516477E0,1.6582799E0,9.936869E0,7.7320886E0,-5.1822433E0],"categories":[],"categories_nodes":[],"categories_segments":[],"categories_sizes":[],"default_left":[true,true,true,true,true,true,true,true,true,true,true,true,true,true,true,true,true,true,true,true,true,true,true,true,true,true,true,true,true,true,true,true,true,true,true,true,true,true,true,true,true,true,true,true,true,true,false,true,true,true,false,true,true,true,true,true,true,true,true,true,true,true,true,false,false,false,false,false,false,false,false,false,false,false,false,false,false,false,false,false,false,false,false,false,false,false,false,false,false,false,false,false,false,false,false,false,false,false,false,false,false,false,false,false,false,false,false,false,false,false,false,false,false,false,false,false,false,false,false,false,false,false,false],"id":4,"left_children":[1,3,5,7,9,11,13,15,17,19,21,23,25,27,29,31,33,35,37,39,41,43,45,47,49,51,53,55,57,59,61,63,65,67,69,71,73,75,77,79,81,83,85,87,89,91,-1,93,95,97,-1,99,101,103,105,107,109,111,113,115,117,119,121,-1,-1,-1,-1,-1,-1,-1,-1,-1,-1,-1,-1,-1,-1,-1,-1,-1,-1,-1,-1,-1,-1,-1,-1,-1,-1,-1,-1,-1,-1,-1,-1,-1,-1,-1,-1,-1,-1,-1,-1,-1,-1,-1,-1,-1,-1,-1,-1,-1,-1,-1,-1,-1,-1,-1,-1,-1,-1,-1,-1],"loss_changes":[4.0270497E5,8.378508E4,7.226333E4,1.9326723E4,1.47830625E4,1.2652969E4,1.6320656E4,4.6936836E3,7.7242715E3,4.982922E3,2.6296094E3,3.1934297E3,4.6309062E3,7.798828E3,4.9761074E3,1.5150586E3,2.601166E3,1.669542E3,2.0507578E3,1.0975156E3,2.1482578E3,1.4725391E3,2.5485547E2,1.3078672E3,1.621836E2,5.9814453E2,3.0265938E3,2.3461602E3,9.924844E2,2.379197E3,9.466787E2,5.930078E2,5.4950195E2,6.320457E2,1.504168E3,4.545974E2,1.0953479E3,5.935675E2,6.7151465E2,5.9659375E2,3.1796484E2,9.8203906E2,7.842129E2,6.043867E2,3.5366406E2,2.3183203E2,0E0,5.971465E2,4.9698438E2,1.5029102E2,0E0,6.356289E2,2.8458105E2,8.595703E2,6.1908203E2,6.4948047E2,1.0109004E3,5.8091797E2,4.1248438E2,5.951965E2,5.233042E2,4.5407172E2,8.648696E2,0E0,0E0,0E0,0E0,0E0,0E0,0E0,0E0,0E0,0E0,0E0,0E0,0E0,0E0,0E0,0E0,0E0,0E0,0E0,0E0,0E0,0E0,0E0,0E0,0E0,0E0,0E0,0E0,0E0,0E0,0E0,0E0,0E0,0E0,0E0,0E0,0E0,0E0,0E0,0E0,0E0,0E0,0E0,0E0,0E0,0E0,0E0,0E0,0E0,0E0,0E0,0E0,0E0,0E0,0E0,0E0,0E0,0E0,0E0,0E0],"parents":[2147483647,0,0,1,1,2,2,3,3,4,4,5,5,6,6,7,7,8,8,9,9,10,10,11,11,12,12,13,13,14,14,15,15,16,16,17,17,18,18,19,19,20,20,21,21,22,22,23,23,24,24,25,25,26,26,27,27,28,28,29,29,30,30,31,31,32,32,33,33,34,34,35,35,36,36,37,37,38,38,39,39,40,40,41,41,42,42,43,43,44,44,45,45,47,47,48,48,49,49,51,51,52,52,53,53,54,54,55,55,56,56,57,57,58,58,59,59,60,60,61,61,62,62],"right_children":[2,4,6,8,10,12,14,16,18,20,22,24,26,28,30,32,34,36,38,40,42,44,46,48,50,52,54,56,58,60,62,64,66,68,70,72,74,76,78,80,82,84,86,88,90,92,-1,94,96,98,-1,100,102,104,106,108,110,112,114,116,118,120,122,-1,-1,-1,-1,-1,-1,-1,-1,-1,-1,-1,-1,-1,-1,-1,-1,-1,-1,-1,-1,-1,-1,-1,-1,-1,-1,-1,-1,-1,-1,-1,-1,-1,-1,-1,-1,-1,-1,-1,-1,-1,-1,-1,-1,-1,-1,-1,-1,-1,-1,-1,-1,-1,-1,-1,-1,-1,-1,-1,-1],"split_conditions":[2.85E0,1.975E1,-1.595E1,-5.5E0,3.765E1,-3.075E1,1.5E0,-1.9650002E1,-5E-1,-2.4849998E1,5.34E1,5.4E1,6.55E1,2.3650002E1,1.05E1,3.3345E1,-1.8E0,-1.05E1,6.5E0,3.0355E1,3.418E1,-2.58E1,7.05E1,2.5349998E1,1.75E1,3.19E1,2.05E1,-8.65E0,3.68E1,1.15E1,2.3400002E1,-1.15E1,-2.05E1,3.75E0,3.3345E1,7.25E1,3.6485E1,4.5E0,6.75E1,1.07999995E-1,2.25E1,-1.145E1,2.975E1,-3.15E1,7.05E1,1.2045E2,1.1077579E0,-3.05E1,7.658E1,2.5E0,-5.873272E-1,8.346001E1,3.5E0,1.25E1,2.95E1,1.695E1,1.465E1,3.9050003E1,1.134E2,1.68E-1,6.75E1,8.785E-1,2.295E1,2.0153543E-2,1.2660264E0,1.0715138E0,6.875703E-1,-4.8945412E-1,1.49541E-1,8.765728E-1,4.9593806E-1,-8.964918E-1,-4.016206E-1,6.459438E-2,-2.3931721E-1,-2.5732714E-1,1.5455519E-1,6.997275E-1,3.492873E-1,2.0974226E0,1.4100384E0,1.1849586E0,1.492945E0,1.2749356E0,8.557504E-1,7.194829E-1,1.0385436E0,2.4911478E0,1.7540973E0,1.510417E0,1.0768641E0,1.162534E0,2.4849362E0,-2.051817E0,-1.2546047E0,-1.379064E0,-1.8856287E0,-2.7550747E0,-6.1562985E-1,-1.4251158E0,-1.8750384E0,-1.1757845E0,-3.5151652E-1,-7.065585E-1,-9.6723205E-1,-1.2234879E0,-1.7543223E0,-5.8238196E-1,-8.016345E-1,-3.5296643E-1,-5.599707E-1,-1.0094862E0,-6.3933766E-1,2.9254565E-2,-1.4134244E0,-3.528459E-1,-6.19075E-2,-9.15005E-1,-4.5516476E-1,1.6582799E-1,9.9368685E-1,7.7320886E-1,-5.1822436E-1],"split_indices":[196,93,93,180,93,93,75,196,75,196,93,196,164,196,75,101,91,75,75,101,101,196,59,196,169,201,180,93,196,180,93,91,180,144,101,164,101,77,164,34,75,196,93,180,164,90,0,75,207,193,0,207,83,180,180,196,196,101,194,205,59,145,196,0,0,0,0,0,0,0,0,0,0,0,0,0,0,0,0,0,0,0,0,0,0,0,0,0,0,0,0,0,0,0,0,0,0,0,0,0,0,0,0,0,0,0,0,0,0,0,0,0,0,0,0,0,0,0,0,0,0,0,0],"split_type":[0,0,0,0,0,0,0,0,0,0,0,0,0,0,0,0,0,0,0,0,0,0,0,0,0,0,0,0,0,0,0,0,0,0,0,0,0,0,0,0,0,0,0,0,0,0,0,0,0,0,0,0,0,0,0,0,0,0,0,0,0,0,0,0,0,0,0,0,0,0,0,0,0,0,0,0,0,0,0,0,0,0,0,0,0,0,0,0,0,0,0,0,0,0,0,0,0,0,0,0,0,0,0,0,0,0,0,0,0,0,0,0,0,0,0,0,0,0,0,0,0,0,0],"sum_hessian":[9.361E3,4.858E3,4.503E3,3.371E3,1.487E3,1.442E3,3.061E3,1.513E3,1.858E3,1.144E3,3.43E2,3.96E2,1.046E3,2.178E3,8.83E2,3.71E2,1.142E3,5.84E2,1.274E3,3.5E2,7.94E2,2.72E2,7.1E1,3.58E2,3.8E1,2.58E2,7.88E2,1.834E3,3.44E2,6.66E2,2.17E2,1.07E2,2.64E2,1.27E2,1.015E3,8.1E1,5.03E2,7.16E2,5.58E2,7.5E1,2.75E2,2.79E2,5.15E2,1.55E2,1.17E2,6.7E1,4E0,1.13E2,2.45E2,3.7E1,1E0,2.19E2,3.9E1,5.71E2,2.17E2,6.81E2,1.153E3,2.75E2,6.9E1,5.19E2,1.47E2,1.54E2,6.3E1,4E0,1.03E2,5E1,2.14E2,1.7E1,1.1E2,1.19E2,8.96E2,3.3E1,4.8E1,1.9E2,3.13E2,3.6E1,6.8E2,6.2E1,4.96E2,3.2E1,4.3E1,2.1E2,6.5E1,1.84E2,9.5E1,4.12E2,1.03E2,1.9E1,1.36E2,7.1E1,4.6E1,4E0,6.3E1,1.3E1,1E2,3.7E1,2.08E2,3.6E1,1E0,1.61E2,5.8E1,3.3E1,6E0,2.28E2,3.43E2,1.85E2,3.2E1,4.76E2,2.05E2,8.14E2,3.39E2,2.13E2,6.2E1,2E0,6.7E1,8.3E1,4.36E2,3.3E1,1.14E2,1.48E2,6E0,5.8E1,5E0],"tree_param":{"num_deleted":"0","num_feature":"210","num_nodes":"123","size_leaf_vector":"0"}},{"base_weights":[-3.0301356E-1,6.492176E0,-5.37373E0,3.5863986E0,1.0746774E1,-1.0378612E1,-2.4809325E0,7.004608E0,2.7024457E0,1.426102E1,8.561094E0,-1.432288E1,-8.079748E0,-3.9019823E0,8.503008E-1,1.0408117E1,5.91824E0,1.2049613E0,4.1782613E0,1.3204252E1,2.087217E1,7.3703837E0,1.1841414E1,-2.2624968E1,-1.3440463E1,-6.647874E0,-1.1087964E1,-2.709001E0,-6.6768355E0,2.893341E-1,7.256843E0,-1.345538E0,1.0944848E1,9.552424E0,5.4896173E0,-1.5157421E0,1.8364388E0,3.239118E0,5.329758E0,1.5284831E1,1.1210577E1,1.2471877E1,2.2517569E1,8.51386E0,5.756808E0,1.5308306E1,1.0321596E1,-2.3249266E1,-1.3487467E0,-1.1141317E1,-1.5276948E1,-4.4520164E0,-7.3936725E0,-1.0379727E1,-1.6186426E1,-3.8997436E0,-1.8675004E0,-5.856566E0,-1.0708872E1,1.1399668E0,-3.8539922E0,1.0663385E1,4.3590407E0,-2.7447188E0,9.685491E-1,1.1271929E1,-7.0430124E-1,1.0836388E1,4.2111654E0,-1.8841676E0,5.6752105E0,-1.0212755E1,-9.372725E-1,3.2041638E0,8.562582E-1,3.575289E0,2.4828875E-2,6.167275E0,3.8202624E0,2.0297632E1,1.4520942E1,1.8932712E0,1.1373692E1,6.00725E0,1.6832449E1,1.0359426E1,2.3511051E1,9.220575E0,6.74959E0,6.8219843E0,4.7286506E0,1.3156164E1,1.9189356E1,1.0454765E1,-1.3753886E0,-2.5823776E1,-1.6502752E1,2.127326E0,-4.150446E0,-5.101213E0,-1.1831249E1,-1.6568521E1,-1.2567544E1,-5.778583E0,-2.5868053E0,-1.0055524E1,-6.937184E0,-1.111502E1,-8.164927E0,-1.6977839E1,-3.4342864E0,-5.7619023E0,-3.2225828E0,-8.049343E-1,-2.685029E0,-7.6852164E0,-5.0570107E0,-1.2371653E1,-7.326287E0,4.2619318E-1,2.8630505E0,9.495223E-1,-4.708653E0,1.5594766E1,8.765253E0,5.0887103E0,-4.574665E0],"categories":[],"categories_nodes":[],"categories_segments":[],"categories_sizes":[],"default_left":[true,true,true,true,true,true,true,true,true,true,true,true,true,true,true,true,true,true,true,true,true,true,true,true,true,true,true,true,true,true,true,true,true,true,true,true,true,true,true,true,true,true,true,true,true,true,true,true,true,true,true,true,true,true,true,true,true,true,true,true,true,true,true,false,false,false,false,false,false,false,false,false,false,false,false,false,false,false,false,false,false,false,false,false,false,false,false,false,false,false,false,false,false,false,false,false,false,false,false,false,false,false,false,false,false,false,false,false,false,false,false,false,false,false,false,false,false,false,false,false,false,false,false,false,false,false,false],"id":5,"left_children":[1,3,5,7,9,11,13,15,17,19,21,23,25,27,29,31,33,35,37,39,41,43,45,47,49,51,53,55,57,59,61,63,65,67,69,71,73,75,77,79,81,83,85,87,89,91,93,95,97,99,101,103,105,107,109,111,113,115,117,119,121,123,125,-1,-1,-1,-1,-1,-1,-1,-1,-1,-1,-1,-1,-1,-1,-1,-1,-1,-1,-1,-1,-1,-1,-1,-1,-1,-1,-1,-1,-1,-1,-1,-1,-1,-1,-1,-1,-1,-1,-1,-1,-1,-1,-1,-1,-1,-1,-1,-1,-1,-1,-1,-1,-1,-1,-1,-1,-1,-1,-1,-1,-1,-1,-1,-1],"loss_changes":[3.2316775E5,4.9512016E4,7.773617E4,7.1813926E3,1.2367234E4,1.7719719E4,1.6122074E4,1.7464609E3,4.1829346E3,4.0699688E3,3.838164E3,4.9925312E3,5.2889844E3,7.883711E3,3.6600405E3,7.5282715E2,5.2858105E2,1.6211987E3,1.01441016E3,2.0644219E3,8.801953E2,1.3163516E3,1.2435586E3,8.718672E2,2.5996562E3,1.3525508E3,1.2763555E3,1.6670762E3,2.3086543E3,3.3103264E3,7.6298E2,2.2085354E1,4.3468164E2,2.1496948E2,4.705166E2,8.859384E2,1.02282886E3,5.704414E2,5.1626465E2,7.046875E2,4.0248828E2,3.499148E2,5.898828E2,4.7515234E2,3.0724316E2,4.0739453E2,3.072207E2,7.201875E2,3.8046085E1,1.1689883E3,1.0585625E3,5.2198047E2,6.957617E2,4.857461E2,4.1602734E2,8.527705E2,8.5001196E2,8.3547656E2,5.8430176E2,9.568654E2,6.6133105E2,2.0964307E2,3.231371E2,0E0,0E0,0E0,0E0,0E0,0E0,0E0,0E0,0E0,0E0,0E0,0E0,0E0,0E0,0E0,0E0,0E0,0E0,0E0,0E0,0E0,0E0,0E0,0E0,0E0,0E0,0E0,0E0,0E0,0E0,0E0,0E0,0E0,0E0,0E0,0E0,0E0,0E0,0E0,0E0,0E0,0E0,0E0,0E0,0E0,0E0,0E0,0E0,0E0,0E0,0E0,0E0,0E0,0E0,0E0,0E0,0E0,0E0,0E0,0E0,0E0,0E0,0E0,0E0],"parents":[2147483647,0,0,1,1,2,2,3,3,4,4,5,5,6,6,7,7,8,8,9,9,10,10,11,11,12,12,13,13,14,14,15,15,16,16,17,17,18,18,19,19,20,20,21,21,22,22,23,23,24,24,25,25,26,26,27,27,28,28,29,29,30,30,31,31,32,32,33,33,34,34,35,35,36,36,37,37,38,38,39,39,40,40,41,41,42,42,43,43,44,44,45,45,46,46,47,47,48,48,49,49,50,50,51,51,52,52,53,53,54,54,55,55,56,56,57,57,58,58,59,59,60,60,61,61,62,62],"right_children":[2,4,6,8,10,12,14,16,18,20,22,24,26,28,30,32,34,36,38,40,42,44,46,48,50,52,54,56,58,60,62,64,66,68,70,72,74,76,78,80,82,84,86,88,90,92,94,96,98,100,102,104,106,108,110,112,114,116,118,120,122,124,126,-1,-1,-1,-1,-1,-1,-1,-1,-1,-1,-1,-1,-1,-1,-1,-1,-1,-1,-1,-1,-1,-1,-1,-1,-1,-1,-1,-1,-1,-1,-1,-1,-1,-1,-1,-1,-1,-1,-1,-1,-1,-1,-1,-1,-1,-1,-1,-1,-1,-1,-1,-1,-1,-1,-1,-1,-1,-1,-1,-1,-1,-1,-1,-1],"split_conditions":[-1.45E0,1.7849998E1,-1.185E1,-1.6150002E1,3.3095E1,3.3375E1,3.5E0,3.3335E1,6.45E0,3.05E1,3.0650002E1,-2.95E1,2.4349998E1,1.485E1,1.85E1,-1.205E1,-2.05E1,-4.75E0,1.225E1,-2.4849998E1,4.815E1,-1.475E1,-3.0150002E1,6.5E0,2.675E1,1.045E1,4.15E1,-4.6499996E0,2.8650002E1,1.05E1,3.428E1,2.415E-1,2.365E-1,1.475E1,-4.3500004E0,-1.85E1,3.7129997E1,-2.85E0,3.2E-1,-3.05E1,4.85E1,2.2E-1,1.03E2,3.41E-1,3.75E1,4.2800003E1,2.615E1,7.615E-1,6.06E-1,2.734E1,-2.3150002E1,2.25E1,-2.655E1,3.55E-1,7.5E0,3.6275E1,3.5E0,3.5465E1,3.7120003E1,1.05E1,3.5E0,1.34E-1,1.785E1,-2.7447188E-1,9.685491E-2,1.1271929E0,-7.043012E-2,1.0836388E0,4.2111656E-1,-1.8841676E-1,5.6752104E-1,-1.0212755E0,-9.372725E-2,3.204164E-1,8.562582E-2,3.575289E-1,2.4828876E-3,6.1672753E-1,3.8202626E-1,2.0297632E0,1.4520942E0,1.8932712E-1,1.1373692E0,6.00725E-1,1.683245E0,1.0359426E0,2.3511052E0,9.2205757E-1,6.74959E-1,6.8219846E-1,4.7286507E-1,1.3156165E0,1.9189357E0,1.0454766E0,-1.3753887E-1,-2.5823777E0,-1.6502752E0,2.127326E-1,-4.150446E-1,-5.101213E-1,-1.1831249E0,-1.6568521E0,-1.2567544E0,-5.778583E-1,-2.5868055E-1,-1.0055524E0,-6.937184E-1,-1.111502E0,-8.164927E-1,-1.6977838E0,-3.4342864E-1,-5.7619023E-1,-3.222583E-1,-8.0493435E-2,-2.6850292E-1,-7.6852167E-1,-5.0570107E-1,-1.2371653E0,-7.326287E-1,4.2619318E-2,2.8630504E-1,9.495223E-2,-4.708653E-1,1.5594766E0,8.7652534E-1,5.08871E-1,-4.574665E-1],"split_indices":[196,93,93,196,101,206,75,101,93,75,91,75,198,196,75,91,180,91,93,196,91,198,198,50,196,198,198,93,198,180,206,16,104,144,91,75,101,196,99,180,59,100,199,99,206,93,144,105,2,101,93,168,93,204,157,206,180,101,101,75,192,145,196,0,0,0,0,0,0,0,0,0,0,0,0,0,0,0,0,0,0,0,0,0,0,0,0,0,0,0,0,0,0,0,0,0,0,0,0,0,0,0,0,0,0,0,0,0,0,0,0,0,0,0,0,0,0,0,0,0,0,0,0,0,0,0,0],"split_type":[0,0,0,0,0,0,0,0,0,0,0,0,0,0,0,0,0,0,0,0,0,0,0,0,0,0,0,0,0,0,0,0,0,0,0,0,0,0,0,0,0,0,0,0,0,0,0,0,0,0,0,0,0,0,0,0,0,0,0,0,0,0,0,0,0,0,0,0,0,0,0,0,0,0,0,0,0,0,0,0,0,0,0,0,0,0,0,0,0,0,0,0,0,0,0,0,0,0,0,0,0,0,0,0,0,0,0,0,0,0,0,0,0,0,0,0,0,0,0,0,0,0,0,0,0,0,0],"sum_hessian":[9.377E3,4.007E3,5.37E3,2.382E3,1.625E3,1.966E3,3.404E3,4.88E2,1.894E3,6.21E2,1.004E3,7.22E2,1.244E3,2.386E3,1.018E3,1.16E2,3.72E2,9.41E2,9.53E2,5.38E2,8.3E1,7.39E2,2.65E2,6.7E1,6.55E2,8.45E2,3.99E2,1.67E3,7.16E2,9.37E2,8.1E1,5E0,1.11E2,3.7E1,3.35E2,1.77E2,7.64E2,5.27E2,4.26E2,2.6E2,2.78E2,1.5E1,6.8E1,4.3E2,3.09E2,7.8E1,1.87E2,6.5E1,2E0,2.94E2,3.61E2,2.16E2,6.29E2,3.53E2,4.6E1,6.9E2,9.8E2,5.97E2,1.19E2,7.78E2,1.59E2,3.6E1,4.5E1,3E0,2E0,1.08E2,3E0,2.9E1,8E0,8E0,3.27E2,1E1,1.67E2,3.18E2,4.46E2,4.77E2,5E1,2.72E2,1.54E2,3.1E1,2.29E2,5E0,2.73E2,7E0,8E0,6E0,6.2E1,3.04E2,1.26E2,1.49E2,1.6E2,5.3E1,2.5E1,1.85E2,2E0,4.5E1,2E1,1E0,1E0,3.1E1,2.63E2,2.41E2,1.2E2,1.25E2,9.1E1,8.9E1,5.4E2,2.62E2,9.1E1,4.3E1,3E0,1.82E2,5.08E2,4.27E2,5.53E2,1.79E2,4.18E2,7.8E1,4.1E1,5.51E2,2.27E2,2.4E1,1.35E2,8E0,2.8E1,4.2E1,3E0],"tree_param":{"num_deleted":"0","num_feature":"210","num_nodes":"127","size_leaf_vector":"0"}},{"base_weights":[-2.4573101E-1,4.919265E0,-5.79946E0,2.0729668E0,9.167739E0,-1.0623411E1,-3.548279E0,-8.45701E-1,3.3571365E0,1.262239E1,7.1530337E0,-8.605171E0,-1.453761E1,-5.1405635E0,-1.3075104E0,7.558412E-1,-2.0317645E0,5.267981E0,2.084684E0,1.50507555E1,1.0109875E1,1.0359652E1,6.3951244E0,-1.2245923E1,-7.5821915E0,-1.3857617E1,-2.4005323E1,-4.4218755E0,-8.586164E0,-2.075488E0,2.4080307E0,1.7189918E0,-1.9563981E0,-6.2449036E0,-1.5673785E0,8.819325E0,4.414542E0,3.2389004E0,1.4369398E0,2.1518963E1,1.4285613E1,8.6730385E0,1.2031776E1,8.440632E0,1.1826461E1,7.4241815E0,4.972583E0,-1.5461626E1,-1.1191495E1,-5.724171E0,-8.580854E0,-1.708464E1,-1.2267291E1,-2.5336838E1,-1.2014077E1,-6.395106E0,-3.8272367E0,-1.1357672E1,-7.5256257E0,-1.5732476E0,-7.009186E0,5.3798375E0,1.1654264E0,-8.742469E0,1.9426173E0,-5.470437E-1,-5.1796784E0,-1.3527871E0,-8.302874E0,-8.8366315E-2,-2.448294E0,4.7197676E0,1.0521731E1,6.24129E0,3.680628E0,-1.0723526E1,3.3287804E0,2.6839051E0,8.2508177E-1,2.389864E1,1.1724528E1,1.3565179E1,1.8052021E1,9.146693E0,3.5548086E0,1.0089568E1,1.4712188E1,-1.1516101E0,8.936721E0,1.3925741E1,9.257988E0,6.3407836E0,8.890353E0,6.7390428E0,4.1183906E0,-1.6844114E1,-8.523762E0,-1.1424616E1,6.397934E-1,-9.8602085E0,-5.2637277E0,-9.228426E0,-6.432219E0,-2.1797106E1,-1.5690017E1,-1.14907E1,-1.5616568E1,-2.5856792E1,-5.909005E0,-7.1000504E0,-3.513293E0,-2.9576123E0,-4.928759E0,-1.9899879E0,-1.2194301E1,-6.5382075E0,-8.961026E0,-6.411113E-1,-2.5747626E0,-1.15851145E1,-5.670177E0,-4.3721023E0,6.6541476E0,2.965085E0,-6.491736E-1],"categories":[],"categories_nodes":[],"categories_segments":[],"categories_sizes":[],"default_left":[true,true,true,true,true,true,true,true,true,true,true,true,true,true,true,true,true,true,true,true,true,true,true,true,true,true,true,true,true,true,true,true,true,true,true,true,true,true,true,true,true,true,true,true,true,true,true,true,true,true,true,true,true,true,false,true,true,true,true,true,true,true,true,false,false,false,false,false,false,false,false,false,false,false,false,false,false,false,false,false,false,false,false,false,false,false,false,false,false,false,false,false,false,false,false,false,false,false,false,false,false,false,false,false,false,false,false,false,false,false,false,false,false,false,false,false,false,false,false,false,false,false,false,false,false],"id":6,"left_children":[1,3,5,7,9,11,13,15,17,19,21,23,25,27,29,31,33,35,37,39,41,43,45,47,49,51,53,55,57,59,61,63,65,67,69,71,73,75,77,79,81,83,85,87,89,91,93,95,97,99,101,103,105,107,-1,109,111,113,115,117,119,121,123,-1,-1,-1,-1,-1,-1,-1,-1,-1,-1,-1,-1,-1,-1,-1,-1,-1,-1,-1,-1,-1,-1,-1,-1,-1,-1,-1,-1,-1,-1,-1,-1,-1,-1,-1,-1,-1,-1,-1,-1,-1,-1,-1,-1,-1,-1,-1,-1,-1,-1,-1,-1,-1,-1,-1,-1,-1,-1,-1,-1,-1,-1],"loss_changes":[2.6651203E5,5.819392E4,4.8580688E4,1.0812257E4,1.3349672E4,1.1124203E4,1.088977E4,1.6769214E3,4.8592305E3,4.1797656E3,2.9036094E3,3.4155547E3,2.7768828E3,4.382254E3,3.6288828E3,9.855858E2,9.821687E2,2.385752E3,8.955005E2,1.4693125E3,8.676797E2,5.5321875E2,1.4137852E3,5.220625E2,1.3202695E3,2.1152266E3,1.905625E2,1.7109219E3,8.168906E2,2.598205E3,7.987561E2,6.673503E2,4.468982E2,4.9215955E2,5.965049E2,1.025123E3,8.444453E2,5.7783154E2,5.87558E2,5.5887305E2,6.3428125E2,4.6446094E2,6.220371E2,5.0518652E2,5.666367E2,8.5380664E2,6.0447363E2,3.1681738E2,4.4308984E2,4.451494E2,6.0572656E2,6.2410547E2,6.190703E2,1.1995508E2,0E0,6.6780273E2,1.0764844E3,6.2622754E2,2.603125E2,8.917551E2,5.286499E2,8.244203E2,5.0810226E2,0E0,0E0,0E0,0E0,0E0,0E0,0E0,0E0,0E0,0E0,0E0,0E0,0E0,0E0,0E0,0E0,0E0,0E0,0E0,0E0,0E0,0E0,0E0,0E0,0E0,0E0,0E0,0E0,0E0,0E0,0E0,0E0,0E0,0E0,0E0,0E0,0E0,0E0,0E0,0E0,0E0,0E0,0E0,0E0,0E0,0E0,0E0,0E0,0E0,0E0,0E0,0E0,0E0,0E0,0E0,0E0,0E0,0E0,0E0,0E0,0E0,0E0],"parents":[2147483647,0,0,1,1,2,2,3,3,4,4,5,5,6,6,7,7,8,8,9,9,10,10,11,11,12,12,13,13,14,14,15,15,16,16,17,17,18,18,19,19,20,20,21,21,22,22,23,23,24,24,25,25,26,26,27,27,28,28,29,29,30,30,31,31,32,32,33,33,34,34,35,35,36,36,37,37,38,38,39,39,40,40,41,41,42,42,43,43,44,44,45,45,46,46,47,47,48,48,49,49,50,50,51,51,52,52,53,53,55,55,56,56,57,57,58,58,59,59,60,60,61,61,62,62],"right_children":[2,4,6,8,10,12,14,16,18,20,22,24,26,28,30,32,34,36,38,40,42,44,46,48,50,52,54,56,58,60,62,64,66,68,70,72,74,76,78,80,82,84,86,88,90,92,94,96,98,100,102,104,106,108,-1,110,112,114,116,118,120,122,124,-1,-1,-1,-1,-1,-1,-1,-1,-1,-1,-1,-1,-1,-1,-1,-1,-1,-1,-1,-1,-1,-1,-1,-1,-1,-1,-1,-1,-1,-1,-1,-1,-1,-1,-1,-1,-1,-1,-1,-1,-1,-1,-1,-1,-1,-1,-1,-1,-1,-1,-1,-1,-1,-1,-1,-1,-1,-1,-1,-1,-1,-1],"split_conditions":[2.85E0,1.575E1,-1.595E1,5E-1,-2.3150002E1,3.055E1,-1.5E0,-3.65E0,-8.65E0,3.2535E1,3.2415E1,3.2165E1,3.65E1,2.255E1,1.05E1,3.9375E1,-1.15E1,3.4095E1,3.7145E1,-3.25E1,3.05E1,1.435E-1,-8.5E0,-3.175E1,1.65E1,3.005E1,7.65E1,3.5405E1,6.75E1,1.65E1,3.4245003E1,-2.43E1,5.805E-1,5.105E-1,3.6504997E1,5E-1,2.2049999E-1,3.65E-2,-5.95E0,6.835E-1,4.795E1,5.61E-1,1.45E1,5.05E1,3.31E1,2.425E1,3.6085E1,4.5E0,4.0850002E-1,1.6E-1,3.525E-1,-2.85E1,4.385E1,6.97E-1,-1.2014078E0,3.775E-1,1.205E1,1.20000005E-1,3.9E1,9.35E0,1E-1,8.34E1,7.1499996E0,-8.742469E-1,1.9426173E-1,-5.4704368E-2,-5.179679E-1,-1.3527872E-1,-8.302874E-1,-8.836632E-3,-2.448294E-1,4.7197676E-1,1.0521731E0,6.24129E-1,3.6806282E-1,-1.0723526E0,3.3287805E-1,2.683905E-1,8.250818E-2,2.389864E0,1.1724528E0,1.3565179E0,1.8052021E0,9.1466933E-1,3.5548088E-1,1.0089568E0,1.4712188E0,-1.1516102E-1,8.936721E-1,1.3925742E0,9.2579883E-1,6.340784E-1,8.8903534E-1,6.739043E-1,4.1183907E-1,-1.6844114E0,-8.5237616E-1,-1.1424617E0,6.397934E-2,-9.8602086E-1,-5.263728E-1,-9.228426E-1,-6.432219E-1,-2.1797106E0,-1.5690017E0,-1.14907E0,-1.5616568E0,-2.5856793E0,-5.9090054E-1,-7.1000504E-1,-3.513293E-1,-2.9576123E-1,-4.928759E-1,-1.989988E-1,-1.2194301E0,-6.5382075E-1,-8.961026E-1,-6.4111136E-2,-2.5747627E-1,-1.1585115E0,-5.6701773E-1,-4.3721023E-1,6.6541475E-1,2.9650852E-1,-6.491736E-2],"split_indices":[196,93,93,75,198,198,75,196,198,101,206,206,180,198,75,101,75,101,101,180,91,104,180,91,198,206,178,206,59,180,206,93,133,37,101,176,205,204,196,2,91,37,192,59,101,93,206,80,136,204,204,75,198,138,0,204,198,24,66,196,22,197,196,0,0,0,0,0,0,0,0,0,0,0,0,0,0,0,0,0,0,0,0,0,0,0,0,0,0,0,0,0,0,0,0,0,0,0,0,0,0,0,0,0,0,0,0,0,0,0,0,0,0,0,0,0,0,0,0,0,0,0,0,0,0],"split_type":[0,0,0,0,0,0,0,0,0,0,0,0,0,0,0,0,0,0,0,0,0,0,0,0,0,0,0,0,0,0,0,0,0,0,0,0,0,0,0,0,0,0,0,0,0,0,0,0,0,0,0,0,0,0,0,0,0,0,0,0,0,0,0,0,0,0,0,0,0,0,0,0,0,0,0,0,0,0,0,0,0,0,0,0,0,0,0,0,0,0,0,0,0,0,0,0,0,0,0,0,0,0,0,0,0,0,0,0,0,0,0,0,0,0,0,0,0,0,0,0,0,0,0,0,0],"sum_hessian":[9.289E3,4.813E3,4.476E3,2.883E3,1.93E3,1.423E3,3.053E3,8.81E2,2.002E3,7.09E2,1.221E3,9.41E2,4.82E2,1.784E3,1.269E3,3.75E2,5.06E2,7.99E2,1.203E3,3.58E2,3.51E2,2.31E2,9.9E2,2.04E2,7.37E2,4.52E2,3E1,1.478E3,3.06E2,1.052E3,2.17E2,2.77E2,9.8E1,4.9E1,4.57E2,1.53E2,6.46E2,4.31E2,7.72E2,3.5E1,3.23E2,2.04E2,1.47E2,1.03E2,1.28E2,5.72E2,4.18E2,4.7E1,1.57E2,2.6E2,4.77E2,1.46E2,3.06E2,2.6E1,4E0,3.4E2,1.138E3,8.2E1,2.24E2,9.56E2,9.6E1,6.3E1,1.54E2,5E0,2.72E2,6.9E1,2.9E1,1.5E1,3.4E1,1.71E2,2.86E2,4.6E1,1.07E2,1.83E2,4.63E2,2E0,4.29E2,2.53E2,5.19E2,2.7E1,8E0,2.75E2,4.8E1,1.86E2,1.8E1,8.8E1,5.9E1,5E0,9.8E1,6.8E1,6E1,3.32E2,2.4E2,1.34E2,2.84E2,3.8E1,9E0,1.54E2,3E0,2.4E1,2.36E2,3.64E2,1.13E2,3E1,1.16E2,2.52E2,5.4E1,2.5E1,1E0,2.72E2,6.8E1,6.38E2,5E2,7E0,7.5E1,1.36E2,8.8E1,4.96E2,4.6E2,2E1,7.6E1,7E0,5.6E1,7.7E1,7.7E1],"tree_param":{"num_deleted":"0","num_feature":"210","num_nodes":"125","size_leaf_vector":"0"}},{"base_weights":[-2.6472023E-1,4.8552322E0,-4.808207E0,2.307235E0,8.563242E0,-8.951214E0,-2.5649526E0,-9.462338E-1,3.0629003E0,1.30729265E1,7.317174E0,-7.4601555E0,-1.2870736E1,-3.6725216E0,1.8621448E-1,-1.0287149E1,-6.8913686E-1,5.5125327E0,2.2686226E0,2.091716E1,1.2371231E1,6.3648086E0,1.0063072E1,-1.0946875E1,-6.622449E0,-1.2179257E1,-1.9518366E1,-2.736927E0,-5.8465457E0,1.704997E0,-1.6758518E0,-1.2567856E1,-5.5316815E0,4.0240593E0,-1.1307697E0,6.992233E0,3.9156122E0,1.8562672E0,4.030066E0,2.236957E1,9.181196E0,1.3501041E1,1.00555935E1,7.748208E0,5.3562784E0,9.2462E0,1.5521249E1,-1.1646847E1,-3.4495595E0,-3.8743849E0,-7.3589096E0,-1.5059889E1,-1.1111636E1,-2.2121E1,-1.181067E1,-4.3148565E0,-2.1782377E0,-9.626704E0,-5.119791E0,5.7535356E-1,3.9276743E0,-2.0294957E0,4.685539E0,6.312024E0,-1.3894057E0,-1.9479601E0,1.1403416E0,-1.068858E1,7.099693E0,7.891222E0,3.4760978E0,2.3479583E0,7.7189285E-1,2.1992142E0,4.829293E0,1.2172665E1,2.4217754E1,1.642092E1,1.2495823E1,8.267302E0,1.2088184E1,8.49652E0,5.592066E0,7.148631E0,4.681653E0,1.0903454E1,8.159288E0,1.1155798E1,1.8567377E1,-1.6207159E1,-1.0841497E1,6.145164E-1,-1.0638507E1,-4.600416E0,-8.463895E-1,-1.0268759E1,-6.9504986E0,-1.7291746E1,-1.2164887E1,-4.4015927E0,-1.1382319E1,-9.37899E0,-2.315125E1,-1.3461481E1,-1.8208071E0,2.7905219E0,-4.497188E0,-2.8744907E0,-1.2588434E0,-8.749115E0,-1.664985E1,-6.105139E0,-3.9682724E0,-5.377999E-1,2.0814824E0,3.3783245E0,9.004022E0,-1.5037128E0,-5.5852613E0,7.0104065E0,-2.5928062E-1],"categories":[],"categories_nodes":[],"categories_segments":[],"categories_sizes":[],"default_left":[true,true,true,true,true,true,true,true,true,true,true,true,true,true,true,true,true,true,true,true,true,true,true,true,true,true,true,true,true,true,true,false,false,true,true,true,true,true,true,true,false,true,true,true,true,true,true,true,true,true,true,true,true,true,true,true,true,true,true,true,true,true,true,false,false,false,false,false,false,false,false,false,false,false,false,false,false,false,false,false,false,false,false,false,false,false,false,false,false,false,false,false,false,false,false,false,false,false,false,false,false,false,false,false,false,false,false,false,false,false,false,false,false,false,false,false,false,false,false,false,false],"id":7,"left_children":[1,3,5,7,9,11,13,15,17,19,21,23,25,27,29,31,33,35,37,39,41,43,45,47,49,51,53,55,57,59,61,-1,-1,63,65,67,69,71,73,75,-1,77,79,81,83,85,87,89,91,93,95,97,99,101,103,105,107,109,111,113,115,117,119,-1,-1,-1,-1,-1,-1,-1,-1,-1,-1,-1,-1,-1,-1,-1,-1,-1,-1,-1,-1,-1,-1,-1,-1,-1,-1,-1,-1,-1,-1,-1,-1,-1,-1,-1,-1,-1,-1,-1,-1,-1,-1,-1,-1,-1,-1,-1,-1,-1,-1,-1,-1,-1,-1,-1,-1,-1,-1],"loss_changes":[2.1566614E5,4.1164062E4,4.5628273E4,6.358208E3,9.878727E3,9.985297E3,9.714863E3,1.1648528E3,4.0695469E3,1.8493594E3,3.5787812E3,3.5844062E3,1.9411172E3,4.607293E3,2.5933726E3,7.147449E1,9.953451E2,1.1848213E3,1.1444966E3,3.059834E2,7.903906E2,1.4053203E3,1.4482227E3,1.2245723E3,2.0196172E3,1.1612461E3,6.013291E2,1.3931836E3,1.827082E3,1.2657107E3,9.363718E2,0E0,0E0,5.1658844E2,8.114071E2,5.793799E2,4.076565E2,6.843862E2,4.283589E2,1.9519531E2,0E0,4.845586E2,3.3624707E2,6.543457E2,6.956621E2,4.748379E2,3.9126367E2,6.3227344E2,6.492989E2,4.709646E2,8.7578906E2,5.2622656E2,5.2929297E2,1.898164E2,1.898772E2,5.501963E2,7.498159E2,5.2614355E2,6.2819434E2,5.6444104E2,4.4365894E2,7.2259985E2,2.5473083E2,0E0,0E0,0E0,0E0,0E0,0E0,0E0,0E0,0E0,0E0,0E0,0E0,0E0,0E0,0E0,0E0,0E0,0E0,0E0,0E0,0E0,0E0,0E0,0E0,0E0,0E0,0E0,0E0,0E0,0E0,0E0,0E0,0E0,0E0,0E0,0E0,0E0,0E0,0E0,0E0,0E0,0E0,0E0,0E0,0E0,0E0,0E0,0E0,0E0,0E0,0E0,0E0,0E0,0E0,0E0,0E0,0E0,0E0],"parents":[2147483647,0,0,1,1,2,2,3,3,4,4,5,5,6,6,7,7,8,8,9,9,10,10,11,11,12,12,13,13,14,14,15,15,16,16,17,17,18,18,19,19,20,20,21,21,22,22,23,23,24,24,25,25,26,26,27,27,28,28,29,29,30,30,33,33,34,34,35,35,36,36,37,37,38,38,39,39,41,41,42,42,43,43,44,44,45,45,46,46,47,47,48,48,49,49,50,50,51,51,52,52,53,53,54,54,55,55,56,56,57,57,58,58,59,59,60,60,61,61,62,62],"right_children":[2,4,6,8,10,12,14,16,18,20,22,24,26,28,30,32,34,36,38,40,42,44,46,48,50,52,54,56,58,60,62,-1,-1,64,66,68,70,72,74,76,-1,78,80,82,84,86,88,90,92,94,96,98,100,102,104,106,108,110,112,114,116,118,120,-1,-1,-1,-1,-1,-1,-1,-1,-1,-1,-1,-1,-1,-1,-1,-1,-1,-1,-1,-1,-1,-1,-1,-1,-1,-1,-1,-1,-1,-1,-1,-1,-1,-1,-1,-1,-1,-1,-1,-1,-1,-1,-1,-1,-1,-1,-1,-1,-1,-1,-1,-1,-1,-1,-1,-1,-1,-1],"split_conditions":[5E-1,1.675E1,-1.365E1,-1.75E0,-3.0349998E1,3.125E1,3.45E0,-1.95E1,-1.345E1,-5.385E1,3.0650002E1,3.215E1,5.4800003E1,1.535E1,6.5E0,2.11E-1,-1.4799999E1,2.715E-1,1.365E1,3.58E-1,2.3249998E0,7.15E1,4.94E1,-1.05E1,1.205E1,-3.635E1,3.875E-1,3.6175E1,6.65E1,1.325E1,1.85E1,-1.2567856E0,-5.531682E-1,3.05E-1,3.9449997E1,1E0,-2.05E1,-2.85E0,1.04E-1,2.11E-1,9.181196E-1,-2.85E1,8.241499E1,-1.095E1,3.5045E1,-2.2150002E1,3.35E1,2.717E1,1.665E-1,-1.425E1,-3E1,2.265E-1,-3.495E1,1.1E1,3.2700002E-1,2.96E-1,-4.3500004E0,4.94E1,-6.95E0,5.855E-1,6.96E-1,1.65E1,2.4000001E-1,6.312024E-1,-1.3894057E-1,-1.9479601E-1,1.1403417E-1,-1.068858E0,7.099693E-1,7.891222E-1,3.476098E-1,2.3479584E-1,7.718929E-2,2.1992142E-1,4.829293E-1,1.2172664E0,2.4217756E0,1.642092E0,1.2495823E0,8.267302E-1,1.2088184E0,8.49652E-1,5.592066E-1,7.148631E-1,4.681653E-1,1.0903454E0,8.159289E-1,1.1155798E0,1.8567377E0,-1.620716E0,-1.0841497E0,6.145164E-2,-1.0638508E0,-4.600416E-1,-8.4638946E-2,-1.0268759E0,-6.950499E-1,-1.7291746E0,-1.2164887E0,-4.401593E-1,-1.138232E0,-9.3789905E-1,-2.3151252E0,-1.3461481E0,-1.8208072E-1,2.790522E-1,-4.497188E-1,-2.874491E-1,-1.2588434E-1,-8.749115E-1,-1.6649851E0,-6.1051387E-1,-3.9682725E-1,-5.377999E-2,2.0814824E-1,3.3783245E-1,9.004022E-1,-1.5037128E-1,-5.5852616E-1,7.010407E-1,-2.5928063E-2],"split_indices":[180,93,93,91,198,198,91,75,198,198,93,206,198,198,180,47,198,99,91,135,97,59,93,75,198,91,35,206,59,91,75,0,0,204,206,192,180,198,3,121,0,180,102,198,206,198,75,206,143,91,93,24,91,171,114,28,91,198,93,48,150,180,117,0,0,0,0,0,0,0,0,0,0,0,0,0,0,0,0,0,0,0,0,0,0,0,0,0,0,0,0,0,0,0,0,0,0,0,0,0,0,0,0,0,0,0,0,0,0,0,0,0,0,0,0,0,0,0,0,0,0],"split_type":[0,0,0,0,0,0,0,0,0,0,0,0,0,0,0,0,0,0,0,0,0,0,0,0,0,0,0,0,0,0,0,0,0,0,0,0,0,0,0,0,0,0,0,0,0,0,0,0,0,0,0,0,0,0,0,0,0,0,0,0,0,0,0,0,0,0,0,0,0,0,0,0,0,0,0,0,0,0,0,0,0,0,0,0,0,0,0,0,0,0,0,0,0,0,0,0,0,0,0,0,0,0,0,0,0,0,0,0,0,0,0,0,0,0,0,0,0,0,0,0,0],"sum_hessian":[9.269E3,4.358E3,4.911E3,2.584E3,1.774E3,1.724E3,3.187E3,4.87E2,2.097E3,3.82E2,1.392E3,1.251E3,4.73E2,2.272E3,9.15E2,1.2E1,4.75E2,5.12E2,1.585E3,2.9E1,3.53E2,1.036E3,3.56E2,2.4E2,1.011E3,4.31E2,4.2E1,1.59E3,6.82E2,5.04E2,4.11E2,7E0,5E0,4E1,4.35E2,2.64E2,2.48E2,1.286E3,2.99E2,2.5E1,4E0,2.34E2,1.19E2,4.34E2,6.02E2,3.12E2,4.4E1,2.19E2,2.1E1,2.15E2,7.96E2,1.13E2,3.18E2,3E1,1.2E1,4.14E2,1.176E3,1.08E2,5.74E2,3.35E2,1.69E2,3.9E2,2.1E1,2.8E1,1.2E1,3.2E2,1.15E2,1E0,2.63E2,2.3E1,2.25E2,8.84E2,4.02E2,9.2E1,2.07E2,5E0,2E1,5.6E1,1.78E2,6.6E1,5.3E1,3.2E2,1.14E2,1.62E2,4.4E2,1.2E2,1.92E2,2E1,2.4E1,3E1,1.89E2,1.4E1,7E0,1.73E2,4.2E1,9.5E1,7.01E2,6.1E1,5.2E1,1.3E1,3.05E2,3E0,2.7E1,1E1,2E0,1E1,4.04E2,6.68E2,5.08E2,9.8E1,1E1,3.07E2,2.67E2,1.93E2,1.42E2,1.54E2,1.5E1,3.41E2,4.9E1,1.4E1,7E0],"tree_param":{"num_deleted":"0","num_feature":"210","num_nodes":"121","size_leaf_vector":"0"}},{"base_weights":[-1.3944079E-1,4.1699977E0,-4.584318E0,2.6164258E0,9.05917E0,-7.4385886E0,-1.9845518E0,1.0109367E0,4.538229E0,1.1259512E1,6.993562E0,-6.2793007E0,-1.202943E1,-2.6700497E0,1.0302354E0,-1.6256775E0,1.680927E0,6.9077916E0,3.8145692E0,1.0600401E1,1.872306E1,8.378154E0,5.2847624E0,-8.056618E0,-4.879512E0,-2.1124952E1,-1.1564347E1,-1.7994512E0,-4.466169E0,1.4463019E0,-4.7319546E0,-3.8235813E-1,-3.3853364E0,4.6743913E0,1.1500553E0,8.845948E0,5.157047E0,2.8023915E0,4.421395E0,1.1900638E1,9.420265E0,2.0063534E1,1.03505535E1,7.4870973E0,1.045979E1,7.811673E0,4.760128E0,-1.1958794E1,-7.5684752E0,-7.2557445E0,-4.3811116E0,-2.2552412E1,-5.5185437E0,-1.3348177E1,-9.874758E0,-1.0604525E0,-2.6523616E0,-7.9022503E0,-3.7442658E0,1.0643775E0,7.8761325E0,-7.459397E0,-5.9149987E-1,1.3511313E0,-2.2841902E0,-6.2734795E0,-1.7302338E0,7.2706413E0,3.4444108E0,2.301138E0,4.6968204E-1,9.059618E0,-3.5893765E-1,4.46236E0,7.5343986E0,3.2074862E0,4.0753153E-1,6.4143844E0,3.7955408E0,1.5408432E1,1.0970285E1,1.0048874E1,6.6037874E0,2.0525597E1,1.9456711E0,1.9654906E0,7.837502E0,1.1130223E1,1.8613522E0,9.494105E0,3.926031E0,6.736566E0,4.2052827E0,-1.9009039E1,-1.0732608E1,-7.886023E0,-3.409652E0,-8.929629E0,-5.575346E0,-2.5998454E0,-4.9038663E0,-7.8385825E0,-2.390173E1,-4.042176E0,-1.3714874E1,-9.088746E0,-1.2776513E1,-1.9121015E-1,-2.1182957E0,-4.63791E0,-2.1381874E0,-5.5221014E0,-1.050081E1,-4.5528197E0,-2.557268E0,1.5679766E0,-9.765771E-1,8.892776E0,-1.8657441E0,-1.3038242E1,-4.934138E0,-2.1678298E0,2.364194E0],"categories":[],"categories_nodes":[],"categories_segments":[],"categories_sizes":[],"default_left":[true,true,true,true,true,true,true,true,true,true,true,true,true,true,true,true,true,true,true,true,true,true,true,true,true,true,true,true,true,true,true,true,true,true,true,true,true,true,true,true,true,true,false,true,true,true,true,true,true,true,true,true,false,true,true,true,true,true,true,true,true,true,true,false,false,false,false,false,false,false,false,false,false,false,false,false,false,false,false,false,false,false,false,false,false,false,false,false,false,false,false,false,false,false,false,false,false,false,false,false,false,false,false,false,false,false,false,false,false,false,false,false,false,false,false,false,false,false,false,false,false,false,false],"id":8,"left_children":[1,3,5,7,9,11,13,15,17,19,21,23,25,27,29,31,33,35,37,39,41,43,45,47,49,51,53,55,57,59,61,63,65,67,69,71,73,75,77,79,81,83,-1,85,87,89,91,93,95,97,99,101,-1,103,105,107,109,111,113,115,117,119,121,-1,-1,-1,-1,-1,-1,-1,-1,-1,-1,-1,-1,-1,-1,-1,-1,-1,-1,-1,-1,-1,-1,-1,-1,-1,-1,-1,-1,-1,-1,-1,-1,-1,-1,-1,-1,-1,-1,-1,-1,-1,-1,-1,-1,-1,-1,-1,-1,-1,-1,-1,-1,-1,-1,-1,-1,-1,-1,-1,-1],"loss_changes":[1.7701062E5,3.5615227E4,3.3740797E4,1.098573E4,5.061703E3,1.1462797E4,4.925464E3,3.433287E3,2.7532734E3,2.4874688E3,1.3421953E3,4.272164E3,1.6000625E3,3.0271025E3,1.0665186E3,8.607058E2,2.456211E3,1.2370176E3,7.5169336E2,6.612578E2,2.749248E2,5.189512E2,3.1412695E2,1.3609648E3,1.1193672E3,3.2109473E2,1.1250039E3,8.2225E2,1.5405791E3,1.0058246E3,3.343733E2,7.679452E2,7.683136E2,7.190044E2,1.0303486E3,3.5334277E2,2.983335E2,4.5369043E2,9.435752E2,6.0114844E2,4.0989258E2,2.614414E2,0E0,4.2766406E2,5.211621E2,2.5036816E2,2.1512012E2,5.1351074E2,8.711328E2,4.1995117E2,7.3776953E2,1.7000977E2,0E0,6.270547E2,3.810957E2,6.4601904E2,6.097803E2,6.161738E2,4.9222656E2,4.034099E2,2.4438379E2,1.8925208E2,6.569409E1,0E0,0E0,0E0,0E0,0E0,0E0,0E0,0E0,0E0,0E0,0E0,0E0,0E0,0E0,0E0,0E0,0E0,0E0,0E0,0E0,0E0,0E0,0E0,0E0,0E0,0E0,0E0,0E0,0E0,0E0,0E0,0E0,0E0,0E0,0E0,0E0,0E0,0E0,0E0,0E0,0E0,0E0,0E0,0E0,0E0,0E0,0E0,0E0,0E0,0E0,0E0,0E0,0E0,0E0,0E0,0E0,0E0,0E0,0E0,0E0],"parents":[2147483647,0,0,1,1,2,2,3,3,4,4,5,5,6,6,7,7,8,8,9,9,10,10,11,11,12,12,13,13,14,14,15,15,16,16,17,17,18,18,19,19,20,20,21,21,22,22,23,23,24,24,25,25,26,26,27,27,28,28,29,29,30,30,31,31,32,32,33,33,34,34,35,35,36,36,37,37,38,38,39,39,40,40,41,41,43,43,44,44,45,45,46,46,47,47,48,48,49,49,50,50,51,51,53,53,54,54,55,55,56,56,57,57,58,58,59,59,60,60,61,61,62,62],"right_children":[2,4,6,8,10,12,14,16,18,20,22,24,26,28,30,32,34,36,38,40,42,44,46,48,50,52,54,56,58,60,62,64,66,68,70,72,74,76,78,80,82,84,-1,86,88,90,92,94,96,98,100,102,-1,104,106,108,110,112,114,116,118,120,122,-1,-1,-1,-1,-1,-1,-1,-1,-1,-1,-1,-1,-1,-1,-1,-1,-1,-1,-1,-1,-1,-1,-1,-1,-1,-1,-1,-1,-1,-1,-1,-1,-1,-1,-1,-1,-1,-1,-1,-1,-1,-1,-1,-1,-1,-1,-1,-1,-1,-1,-1,-1,-1,-1,-1,-1,-1,-1,-1,-1],"split_conditions":[2.05E0,2.355E1,-9.55E0,9.65E0,3.3254997E1,3.305E1,6.5E0,-3.5E0,-1.945E1,5.7300003E1,-1.84E1,3.5535E1,-5.49E1,1.465E1,2.305E1,2.6550002E0,-1.505E1,3.5515E1,1.315E-1,-2.705E1,4.365E-1,2.55E1,3.3260002E1,-2.25E1,-2.425E1,3.165E-1,3.143E1,8.25E0,6.75E1,3.065E1,5.28E-1,-2.45E0,3.628E1,3.4465E1,3.7045E1,1.1474E2,4.5E0,-2E0,3.5265E1,1.585E-1,3.875E-1,1.6065E2,1.0350554E0,1.855E-1,4.24E-1,2.68E-1,8.2E-2,-4.965E1,-1.01E1,2.22E-1,9.95E0,1.39E-1,-5.518544E-1,-2.2E-2,1.85E1,2.8149998E-1,4.25E0,2.65E1,-2.45E0,1.375E1,5.5E0,5.85E1,3.5E0,1.3511313E-1,-2.2841902E-1,-6.2734795E-1,-1.7302339E-1,7.2706413E-1,3.444411E-1,2.3011379E-1,4.6968203E-2,9.059618E-1,-3.5893764E-2,4.4623598E-1,7.5343984E-1,3.2074863E-1,4.0753152E-2,6.414384E-1,3.795541E-1,1.5408432E0,1.0970286E0,1.0048875E0,6.6037875E-1,2.0525596E0,1.9456711E-1,1.9654906E-1,7.8375024E-1,1.1130223E0,1.8613522E-1,9.4941056E-1,3.9260313E-1,6.7365664E-1,4.2052826E-1,-1.9009039E0,-1.0732608E0,-7.886023E-1,-3.409652E-1,-8.9296293E-1,-5.5753464E-1,-2.5998455E-1,-4.9038664E-1,-7.8385824E-1,-2.390173E0,-4.0421757E-1,-1.3714875E0,-9.0887463E-1,-1.2776513E0,-1.9121015E-2,-2.1182957E-1,-4.6379098E-1,-2.1381874E-1,-5.5221015E-1,-1.050081E0,-4.5528197E-1,-2.5572678E-1,1.5679766E-1,-9.765771E-2,8.892776E-1,-1.8657441E-1,-1.3038243E0,-4.9341378E-1,-2.1678297E-1,2.364194E-1],"split_indices":[196,93,93,93,101,196,75,75,196,93,196,206,91,196,196,97,196,101,3,196,143,75,206,75,93,113,206,196,59,93,40,196,206,101,101,95,157,196,101,24,47,89,0,2,46,6,19,93,91,117,196,117,0,104,77,100,39,60,93,196,179,59,78,0,0,0,0,0,0,0,0,0,0,0,0,0,0,0,0,0,0,0,0,0,0,0,0,0,0,0,0,0,0,0,0,0,0,0,0,0,0,0,0,0,0,0,0,0,0,0,0,0,0,0,0,0,0,0,0,0,0,0,0],"split_type":[0,0,0,0,0,0,0,0,0,0,0,0,0,0,0,0,0,0,0,0,0,0,0,0,0,0,0,0,0,0,0,0,0,0,0,0,0,0,0,0,0,0,0,0,0,0,0,0,0,0,0,0,0,0,0,0,0,0,0,0,0,0,0,0,0,0,0,0,0,0,0,0,0,0,0,0,0,0,0,0,0,0,0,0,0,0,0,0,0,0,0,0,0,0,0,0,0,0,0,0,0,0,0,0,0,0,0,0,0,0,0,0,0,0,0,0,0,0,0,0,0,0,0],"sum_hessian":[9.239E3,4.691E3,4.548E3,3.561E3,1.13E3,2.167E3,2.381E3,1.941E3,1.62E3,5.45E2,5.85E2,1.732E3,4.35E2,1.94E3,4.41E2,3.93E2,1.548E3,3.77E2,1.243E3,5.03E2,4.2E1,3.21E2,2.64E2,7.61E2,9.71E2,1.9E1,4.16E2,1.308E3,6.32E2,4.12E2,2.9E1,2.31E2,1.62E2,2.32E2,1.316E3,1.77E2,2E2,4.68E2,7.75E2,2.35E2,2.68E2,3.5E1,7E0,2.28E2,9.3E1,4.3E1,2.21E2,8.2E1,6.79E2,1.66E2,8.05E2,1.7E1,2E0,1.99E2,2.17E2,7.02E2,6.06E2,1.08E2,5.24E2,3.9E2,2.2E1,1.7E1,1.2E1,1.21E2,1.1E2,5.8E1,1.04E2,7.3E1,1.59E2,4.88E2,8.28E2,1.73E2,4E0,1.57E2,4.3E1,4E2,6.8E1,1.83E2,5.92E2,4.6E1,1.89E2,2.17E2,5.1E1,3.4E1,1E0,1.4E1,2.14E2,8.6E1,7E0,2.9E1,1.4E1,4.6E1,1.75E2,1E1,7.2E1,6.3E2,4.9E1,8.1E1,8.5E1,1.84E2,6.21E2,2E0,1.5E1,8E0,1.91E2,1.74E2,4.3E1,3.86E2,3.16E2,1.23E2,4.83E2,5.8E1,5E1,3.1E2,2.14E2,3.13E2,7.7E1,2E1,2E0,4E0,1.3E1,8E0,4E0],"tree_param":{"num_deleted":"0","num_feature":"210","num_nodes":"123","size_leaf_vector":"0"}},{"base_weights":[-2.0942824E-1,3.9446847E0,-3.8163602E0,7.336643E0,2.1356049E0,-2.2280328E0,-7.5718074E0,6.434762E0,1.2470813E1,6.718472E-1,3.8411348E0,-3.6383471E0,-2.4668565E-1,-9.871875E0,-5.8873363E0,8.993101E0,5.7061305E0,1.1263057E1,1.680523E1,-1.9897679E0,1.0262316E0,5.226501E0,3.120788E0,-6.0311117E0,-3.0082173E0,-7.988701E-1,2.4817016E0,-1.541065E1,-9.193993E0,-5.4267607E0,-9.422569E0,1.1440553E1,8.107926E0,4.8509974E0,7.2404184E0,1.2655412E1,8.746652E0,1.7245502E1,4.5993934E0,-9.416022E0,-1.5438479E0,1.4547484E0,-2.1658427E-1,3.0414853E0,5.9306855E0,3.5403838E0,8.456004E-1,-1.0935082E1,-5.6072173E0,-1.8319064E0,-3.6350403E0,2.211218E-1,-1.4653432E0,4.803809E0,1.211484E0,-1.7071207E1,-6.377164E0,-1.0285116E1,-7.562425E0,-6.410633E0,-4.3137465E0,5.3308835E0,-9.629624E0,6.8586106E0,1.2606385E1,6.9887147E0,1.0278488E1,5.577511E0,3.3376772E0,9.27815E0,6.107395E0,7.445416E0,1.3904129E1,3.5468042E0,9.704714E0,1.0191522E1,1.849524E1,2.310527E0,-2.219669E0,3.5951147E0,1.187371E0,-2.4205098E0,3.0967766E-1,4.642411E0,-5.674512E-1,7.042222E0,4.729313E0,2.9845476E0,4.4333816E0,1.6078095E0,-1.1624078E0,-6.415812E0,-1.3212008E1,-4.791809E-1,-6.0567174E0,-3.3661506E0,-1.3469085E0,-4.102976E0,-2.702086E0,-7.0178014E-1,1.1355178E0,-1.6325723E0,2.8334136E0,-7.9089403E0,5.195979E0,-3.4246736E0,1.6418537E0,1.60535E0,-1.7439968E1,1.2522246E0,-1.0348386E1,-1.0060978E1,-2.0861153E1,-8.491079E0,-4.3183823E0,-5.7702866E0,-8.489961E0,-5.0252647E0,-1.4280752E0,-9.980811E0,-1.1716369E0],"categories":[],"categories_nodes":[],"categories_segments":[],"categories_sizes":[],"default_left":[true,true,true,true,true,true,true,true,true,true,true,true,true,true,true,true,true,true,true,true,true,true,true,true,true,true,true,true,true,true,true,true,true,true,true,true,true,true,false,false,true,true,true,true,true,true,true,true,true,true,true,true,true,true,true,true,true,true,true,true,true,false,true,false,false,false,false,false,false,false,false,false,false,false,false,false,false,false,false,false,false,false,false,false,false,false,false,false,false,false,false,false,false,false,false,false,false,false,false,false,false,false,false,false,false,false,false,false,false,false,false,false,false,false,false,false,false,false,false,false,false],"id":9,"left_children":[1,3,5,7,9,11,13,15,17,19,21,23,25,27,29,31,33,35,37,39,41,43,45,47,49,51,53,55,57,59,61,63,65,67,69,71,73,75,-1,-1,77,79,81,83,85,87,89,91,93,95,97,99,101,103,105,107,109,111,113,115,117,-1,119,-1,-1,-1,-1,-1,-1,-1,-1,-1,-1,-1,-1,-1,-1,-1,-1,-1,-1,-1,-1,-1,-1,-1,-1,-1,-1,-1,-1,-1,-1,-1,-1,-1,-1,-1,-1,-1,-1,-1,-1,-1,-1,-1,-1,-1,-1,-1,-1,-1,-1,-1,-1,-1,-1,-1,-1,-1,-1],"loss_changes":[1.4027655E5,2.6683477E4,2.9873148E4,6.9255625E3,7.0849326E3,9.843498E3,5.7108594E3,2.3514922E3,9.885781E2,1.4442479E3,1.2919941E3,3.0848125E3,2.2106184E3,2.2162305E3,1.3524102E3,5.2250586E2,1.2847695E3,5.164746E2,1.732539E2,5.8153577E2,7.192811E2,6.6974023E2,8.2278613E2,8.2839746E2,1.1959395E3,8.2967664E2,7.227272E2,8.961758E2,9.2271484E2,8.100703E2,3.5070312E2,3.034873E2,4.4318164E2,6.949258E2,7.6988477E2,6.3163477E2,2.993589E2,2.0820898E2,0E0,0E0,4.5056116E2,5.703059E2,4.032148E2,6.439524E2,4.1671484E2,3.4911035E2,2.1001996E2,2.5480591E2,9.0989844E2,4.1886206E2,4.5298047E2,4.0839957E2,5.3515686E2,4.7483826E2,3.2685995E2,4.1368066E2,3.765345E2,5.818594E2,6.532158E2,4.8893164E2,7.360845E2,0E0,2.7642676E2,0E0,0E0,0E0,0E0,0E0,0E0,0E0,0E0,0E0,0E0,0E0,0E0,0E0,0E0,0E0,0E0,0E0,0E0,0E0,0E0,0E0,0E0,0E0,0E0,0E0,0E0,0E0,0E0,0E0,0E0,0E0,0E0,0E0,0E0,0E0,0E0,0E0,0E0,0E0,0E0,0E0,0E0,0E0,0E0,0E0,0E0,0E0,0E0,0E0,0E0,0E0,0E0,0E0,0E0,0E0,0E0,0E0,0E0],"parents":[2147483647,0,0,1,1,2,2,3,3,4,4,5,5,6,6,7,7,8,8,9,9,10,10,11,11,12,12,13,13,14,14,15,15,16,16,17,17,18,18,19,19,20,20,21,21,22,22,23,23,24,24,25,25,26,26,27,27,28,28,29,29,30,30,31,31,32,32,33,33,34,34,35,35,36,36,37,37,40,40,41,41,42,42,43,43,44,44,45,45,46,46,47,47,48,48,49,49,50,50,51,51,52,52,53,53,54,54,55,55,56,56,57,57,58,58,59,59,60,60,62,62],"right_children":[2,4,6,8,10,12,14,16,18,20,22,24,26,28,30,32,34,36,38,40,42,44,46,48,50,52,54,56,58,60,62,64,66,68,70,72,74,76,-1,-1,78,80,82,84,86,88,90,92,94,96,98,100,102,104,106,108,110,112,114,116,118,-1,120,-1,-1,-1,-1,-1,-1,-1,-1,-1,-1,-1,-1,-1,-1,-1,-1,-1,-1,-1,-1,-1,-1,-1,-1,-1,-1,-1,-1,-1,-1,-1,-1,-1,-1,-1,-1,-1,-1,-1,-1,-1,-1,-1,-1,-1,-1,-1,-1,-1,-1,-1,-1,-1,-1,-1,-1,-1,-1],"split_conditions":[5E-1,-1.605E1,2.0150002E1,3.9800003E1,9.65E0,-1.5E0,-2.325E1,-3.05E1,5.4800003E1,-5.5E0,3.6125E1,3.4585E1,1.335E1,-2.95E1,3.855E1,-3.995E1,2.405E1,3.23E-1,1.15E1,-2.44E1,3.235E-1,1.05E1,-2.75E0,-2.05E1,7.75E0,5.1499996E0,3.5190002E1,3.3E1,3.3575E1,2.4850001E0,1.9E1,2.88E1,3.05E-1,2.6350002E0,3.305E1,5.445E-1,3.5E0,7.866E1,4.5993933E-1,-9.4160223E-1,-9.5E0,-1.365E1,3.479E1,4.25E-2,1.5E0,2.1150002E1,7.55E1,4.5E-1,8.37E1,1.09E-1,7.5E0,1.56E-1,4.045E1,7.835E1,1.355E-1,2.19E-1,1.02E-1,1.549E2,3.56E-1,1.02885E2,-4.4E0,5.330884E-1,4.335E-1,6.8586105E-1,1.2606386E0,6.988715E-1,1.0278488E0,5.577511E-1,3.3376774E-1,9.2781496E-1,6.107395E-1,7.445416E-1,1.3904129E0,3.5468042E-1,9.704714E-1,1.0191522E0,1.8495239E0,2.3105271E-1,-2.219669E-1,3.5951146E-1,1.187371E-1,-2.4205099E-1,3.0967766E-2,4.6424112E-1,-5.674512E-2,7.042222E-1,4.729313E-1,2.9845476E-1,4.4333816E-1,1.6078095E-1,-1.1624078E-1,-6.4158124E-1,-1.3212008E0,-4.7918092E-2,-6.0567176E-1,-3.3661506E-1,-1.3469085E-1,-4.102976E-1,-2.702086E-1,-7.017802E-2,1.1355179E-1,-1.6325723E-1,2.8334138E-1,-7.9089403E-1,5.1959795E-1,-3.4246737E-1,1.6418537E-1,1.6053501E-1,-1.7439969E0,1.2522246E-1,-1.0348386E0,-1.0060978E0,-2.0861154E0,-8.491079E-1,-4.3183824E-1,-5.770287E-1,-8.489961E-1,-5.0252646E-1,-1.4280753E-1,-9.9808115E-1,-1.17163695E-1],"split_indices":[180,198,198,93,93,75,93,198,93,75,206,206,93,75,198,196,93,125,169,93,100,75,198,75,198,196,206,171,206,97,180,206,121,97,206,142,185,102,0,0,196,196,206,42,186,96,73,149,90,130,176,136,96,197,205,133,21,195,204,95,93,0,205,0,0,0,0,0,0,0,0,0,0,0,0,0,0,0,0,0,0,0,0,0,0,0,0,0,0,0,0,0,0,0,0,0,0,0,0,0,0,0,0,0,0,0,0,0,0,0,0,0,0,0,0,0,0,0,0,0,0],"split_type":[0,0,0,0,0,0,0,0,0,0,0,0,0,0,0,0,0,0,0,0,0,0,0,0,0,0,0,0,0,0,0,0,0,0,0,0,0,0,0,0,0,0,0,0,0,0,0,0,0,0,0,0,0,0,0,0,0,0,0,0,0,0,0,0,0,0,0,0,0,0,0,0,0,0,0,0,0,0,0,0,0,0,0,0,0,0,0,0,0,0,0,0,0,0,0,0,0,0,0,0,0,0,0,0,0,0,0,0,0,0,0,0,0,0,0,0,0,0,0,0,0],"sum_hessian":[9.36E3,4.35E3,5.01E3,1.512E3,2.838E3,3.522E3,1.488E3,1.288E3,2.24E2,1.528E3,1.31E3,2.057E3,1.465E3,6.27E2,8.61E2,2.83E2,1.005E3,1.78E2,4.6E1,1.79E2,1.349E3,4.46E2,8.64E2,4.27E2,1.63E3,1.219E3,2.46E2,6.6E1,5.61E2,7.64E2,9.7E1,7.2E1,2.11E2,6.48E2,3.57E2,1.12E2,6.6E1,4.4E1,2E0,9E0,1.7E2,1.003E3,3.46E2,1.1E2,3.36E2,7.29E2,1.35E2,3.2E1,3.95E2,5.68E2,1.062E3,4.82E2,7.37E2,8.6E1,1.6E2,5.5E1,1.1E1,3.33E2,2.28E2,4.03E2,3.61E2,1E0,9.6E1,1.6E1,5.6E1,1.42E2,6.9E1,4.36E2,2.12E2,1.25E2,2.32E2,2.3E1,8.9E1,1.1E1,5.5E1,8E0,3.6E1,2.5E1,1.45E2,1.1E2,8.93E2,6.6E1,2.8E2,7.6E1,3.4E1,1.72E2,1.64E2,4.52E2,2.77E2,9.8E1,3.7E1,1.2E1,2E1,3.2E1,3.63E2,1.35E2,4.33E2,7.05E2,3.57E2,2.4E2,2.42E2,7.1E2,2.7E1,2E0,8.4E1,1.3E1,1.47E2,1E0,5.4E1,4E0,7E0,3.28E2,5E0,1.76E2,5.2E1,3.11E2,9.2E1,2.89E2,7.2E1,9.2E1,4E0],"tree_param":{"num_deleted":"0","num_feature":"210","num_nodes":"121","size_leaf_vector":"0"}},{"base_weights":[-1.4861654E-1,-3.6842136E0,3.2212574E0,-2.3261588E0,-7.530078E0,6.0285916E0,1.5628774E0,-4.166447E0,-1.4180351E0,-6.71779E0,-1.1485352E1,8.617963E0,4.605615E0,7.0122504E-1,3.2846224E0,-6.8834987E0,-3.410741E0,9.617841E-2,-2.27451E0,-7.9354987E0,-5.4939027E0,-1.055807E1,-1.641892E1,7.928543E0,1.2704125E1,7.818841E0,4.0805936E0,1.3975513E0,-1.6324605E0,4.770567E0,2.4366813E0,-7.102137E0,4.8566766E0,1.3226223E-1,-3.626413E0,1.4758197E0,-9.3802E-1,-3.3309543E0,-1.8525945E0,6.595989E0,-8.037928E0,-7.459802E0,-4.8604746E0,-6.5533257E0,-1.1533346E1,-1.2388888E1,-2.3240097E1,3.0504491E0,8.333823E0,1.3961996E1,7.966163E0,7.430712E0,1.6542355E1,3.463253E0,5.5331135E0,2.047452E0,6.681734E-1,-1.0188932E0,-4.2583823E0,-4.600876E0,5.104066E0,3.158141E0,8.33679E-1,-8.53254E0,-5.79602E0,6.6944866E0,1.3999745E0,-9.262271E-1,1.2801069E1,-4.4119277E0,-2.8185334E0,-4.4143915E0,1.8084649E0,-2.875488E0,-2.9687133E-1,-2.6493948E0,-5.867883E0,-1.3735527E0,-2.7902126E0,-9.259462E0,-6.8665047E0,-8.90162E0,-3.7451077E0,-8.1854315E0,-4.497329E0,-7.296864E0,-4.8401394E-1,1.8633206E0,-1.1847177E1,-2.9782891E0,-1.3791862E1,6.531285E0,-5.690431E-1,6.899419E0,9.509877E0,-8.872433E-1,1.4418499E1,4.410657E0,1.0265238E1,6.646212E0,1.061005E1,4.2008796E0,2.1305237E0,8.122315E0,4.940745E0,3.807847E0,1.651724E0,-1.7461587E0,8.95212E-1,-1.2357864E0,5.645107E0,-4.7637115E0,4.9817524E0,-1.2269766E1,1.708275E-1,4.1734695E0,6.929588E0,8.078575E0,3.013482E0,-2.5827737E0,1.3818119E0],"categories":[],"categories_nodes":[],"categories_segments":[],"categories_sizes":[],"default_left":[true,true,true,true,true,true,true,true,true,true,true,true,true,true,true,true,true,true,true,true,true,true,true,true,true,true,true,true,true,true,true,true,true,true,true,true,true,true,true,false,true,true,true,true,true,true,false,true,true,true,true,true,false,true,true,true,true,true,true,true,true,true,true,false,false,false,false,false,false,false,false,false,false,false,false,false,false,false,false,false,false,false,false,false,false,false,false,false,false,false,false,false,false,false,false,false,false,false,false,false,false,false,false,false,false,false,false,false,false,false,false,false,false,false,false,false,false,false,false,false,false],"id":10,"left_children":[1,3,5,7,9,11,13,15,17,19,21,23,25,27,29,31,33,35,37,39,41,43,45,47,49,51,53,55,57,59,61,63,65,67,69,71,73,75,77,-1,79,81,83,85,87,89,-1,91,93,95,97,99,-1,101,103,105,107,109,111,113,115,117,119,-1,-1,-1,-1,-1,-1,-1,-1,-1,-1,-1,-1,-1,-1,-1,-1,-1,-1,-1,-1,-1,-1,-1,-1,-1,-1,-1,-1,-1,-1,-1,-1,-1,-1,-1,-1,-1,-1,-1,-1,-1,-1,-1,-1,-1,-1,-1,-1,-1,-1,-1,-1,-1,-1,-1,-1,-1,-1],"loss_changes":[1.1118622E5,2.376755E4,2.2235164E4,5.6210527E3,3.7396719E3,6.4968164E3,4.455752E3,2.2597832E3,2.9259932E3,1.4288555E3,7.4618555E2,1.6683984E3,1.9030977E3,3.2587944E3,1.2508887E3,6.531045E2,6.667988E2,1.1656718E3,6.3612646E2,7.868242E2,5.8138965E2,5.962031E2,5.3676807E2,1.0421562E3,4.1919434E2,4.1881348E2,8.667754E2,7.305239E2,7.384149E2,1.1579912E3,7.3752783E2,3.9332617E2,2.2391708E1,6.957563E2,5.0920703E2,6.937559E2,5.792561E2,6.933716E2,4.5969873E2,0E0,6.375781E2,6.040161E2,4.196006E2,1.5892786E2,5.9806445E2,2.3618286E2,0E0,5.454674E2,7.7448047E2,4.805244E2,1.26385376E2,3.16083E2,0E0,6.752578E2,4.092627E2,5.6216675E2,4.0116205E2,5.4899207E2,4.299613E2,4.7781372E2,5.673672E2,2.8955273E2,3.781029E2,0E0,0E0,0E0,0E0,0E0,0E0,0E0,0E0,0E0,0E0,0E0,0E0,0E0,0E0,0E0,0E0,0E0,0E0,0E0,0E0,0E0,0E0,0E0,0E0,0E0,0E0,0E0,0E0,0E0,0E0,0E0,0E0,0E0,0E0,0E0,0E0,0E0,0E0,0E0,0E0,0E0,0E0,0E0,0E0,0E0,0E0,0E0,0E0,0E0,0E0,0E0,0E0,0E0,0E0,0E0,0E0,0E0,0E0],"parents":[2147483647,0,0,1,1,2,2,3,3,4,4,5,5,6,6,7,7,8,8,9,9,10,10,11,11,12,12,13,13,14,14,15,15,16,16,17,17,18,18,19,19,20,20,21,21,22,22,23,23,24,24,25,25,26,26,27,27,28,28,29,29,30,30,31,31,32,32,33,33,34,34,35,35,36,36,37,37,38,38,40,40,41,41,42,42,43,43,44,44,45,45,47,47,48,48,49,49,50,50,51,51,53,53,54,54,55,55,56,56,57,57,58,58,59,59,60,60,61,61,62,62],"right_children":[2,4,6,8,10,12,14,16,18,20,22,24,26,28,30,32,34,36,38,40,42,44,46,48,50,52,54,56,58,60,62,64,66,68,70,72,74,76,78,-1,80,82,84,86,88,90,-1,92,94,96,98,100,-1,102,104,106,108,110,112,114,116,118,120,-1,-1,-1,-1,-1,-1,-1,-1,-1,-1,-1,-1,-1,-1,-1,-1,-1,-1,-1,-1,-1,-1,-1,-1,-1,-1,-1,-1,-1,-1,-1,-1,-1,-1,-1,-1,-1,-1,-1,-1,-1,-1,-1,-1,-1,-1,-1,-1,-1,-1,-1,-1,-1,-1,-1,-1,-1,-1],"split_conditions":[1.3499999E0,2.255E1,-1.305E1,-8.5E0,4.225E1,3.3095E1,1.425E1,3.3545E1,2.65E0,3.4305E1,5.95E1,4.8E1,-3.045E1,6.1499996E0,3.5465E1,5.335E-1,-2.35E0,3.7145E1,3.6175E1,4.95E1,3.346E1,5.375E-1,8.394E1,2.7085E1,3.2050002E-1,3E1,2.425E1,-2.85E0,1.7849998E1,8.32E1,-1.25E0,3.109E1,6.75E-1,4.645E-1,2.15E1,5.65E1,3.6165E1,1.215E-1,1.235E1,6.5959895E-1,-2.475E1,2.625E-1,-2.15E1,1.1805E2,2.4775002E1,1.0700001E-1,-2.3240097E0,1.8349999E-1,1.2025E2,3.65E-2,7.75E-1,1.25E1,1.6542355E0,3.1849998E-1,5.5E-2,3.5135002E1,4.05E-2,7.5E0,4.5E0,1.625E-1,1.85E1,7.2500005E-2,6.85E1,-8.53254E-1,-5.79602E-1,6.694487E-1,1.3999745E-1,-9.262271E-2,1.2801069E0,-4.4119278E-1,-2.8185335E-1,-4.4143915E-1,1.808465E-1,-2.875488E-1,-2.9687135E-2,-2.649395E-1,-5.8678836E-1,-1.3735527E-1,-2.7902126E-1,-9.2594624E-1,-6.8665045E-1,-8.90162E-1,-3.7451077E-1,-8.1854314E-1,-4.4973293E-1,-7.2968644E-1,-4.8401397E-2,1.8633206E-1,-1.1847177E0,-2.978289E-1,-1.3791862E0,6.531285E-1,-5.6904312E-2,6.899419E-1,9.5098776E-1,-8.872433E-2,1.44185E0,4.410657E-1,1.0265238E0,6.6462123E-1,1.061005E0,4.2008796E-1,2.1305238E-1,8.1223154E-1,4.940745E-1,3.8078472E-1,1.651724E-1,-1.7461587E-1,8.95212E-2,-1.23578645E-1,5.645107E-1,-4.7637114E-1,4.9817523E-1,-1.2269766E0,1.7082749E-2,4.1734695E-1,6.929588E-1,8.078575E-1,3.013482E-1,-2.582774E-1,1.381812E-1],"split_indices":[91,198,198,75,198,101,91,206,198,206,198,91,198,196,206,205,198,101,206,59,101,37,102,206,125,168,93,198,196,199,198,206,2,47,168,164,206,118,198,0,91,116,75,94,206,140,0,152,199,126,137,159,0,99,203,101,136,203,56,18,75,9,59,0,0,0,0,0,0,0,0,0,0,0,0,0,0,0,0,0,0,0,0,0,0,0,0,0,0,0,0,0,0,0,0,0,0,0,0,0,0,0,0,0,0,0,0,0,0,0,0,0,0,0,0,0,0,0,0,0,0],"split_type":[0,0,0,0,0,0,0,0,0,0,0,0,0,0,0,0,0,0,0,0,0,0,0,0,0,0,0,0,0,0,0,0,0,0,0,0,0,0,0,0,0,0,0,0,0,0,0,0,0,0,0,0,0,0,0,0,0,0,0,0,0,0,0,0,0,0,0,0,0,0,0,0,0,0,0,0,0,0,0,0,0,0,0,0,0,0,0,0,0,0,0,0,0,0,0,0,0,0,0,0,0,0,0,0,0,0,0,0,0,0,0,0,0,0,0,0,0,0,0,0,0],"sum_hessian":[9.33E3,4.553E3,4.777E3,3.366E3,1.187E3,1.773E3,3.004E3,1.111E3,2.255E3,9.87E2,2E2,6.27E2,1.146E3,2.003E3,1.001E3,2.4E2,8.71E2,8.15E2,1.44E3,4.92E2,4.95E2,1.71E2,2.9E1,5.39E2,8.8E1,1.59E2,9.87E2,1.543E3,4.6E2,3.62E2,6.39E2,2.36E2,4E0,5E1,8.21E2,3.49E2,4.66E2,4.09E2,1.031E3,3E0,4.89E2,1.18E2,3.77E2,3.5E1,1.36E2,2E1,9E0,4.2E1,4.97E2,6.8E1,2E1,1.54E2,5E0,6.95E2,2.92E2,8.15E2,7.28E2,3.74E2,8.6E1,1.2E1,3.5E2,4.4E2,1.99E2,1.1E2,1.26E2,2E0,2E0,4.7E1,3E0,4.14E2,4.07E2,1.8E1,3.31E2,1.15E2,3.51E2,3.24E2,8.5E1,6.84E2,3.47E2,2.36E2,2.53E2,8.4E1,3.4E1,3.5E1,3.42E2,3.1E1,4E0,3E0,1.33E2,3E0,1.7E1,2.1E1,2.1E1,2.27E2,2.7E2,2E0,6.6E1,9E0,1.1E1,1.26E2,2.8E1,4.46E2,2.49E2,5.2E1,2.4E2,1.48E2,6.67E2,6.2E1,6.66E2,3.63E2,1.1E1,8.2E1,4E0,4E0,8E0,2.34E2,1.16E2,1.1E1,4.29E2,2.7E1,1.72E2],"tree_param":{"num_deleted":"0","num_feature":"210","num_nodes":"121","size_leaf_vector":"0"}},{"base_weights":[-9.3463115E-2,2.7127182E0,-3.7169626E0,1.0738072E0,5.6833835E0,-2.3941963E0,-6.555337E0,5.5311963E-2,2.4003928E0,8.873302E0,4.817058E0,-3.8675992E0,-1.2948521E0,-5.7128315E0,-9.3117075E0,2.648761E0,-2.746566E-1,3.2569473E0,1.6380011E0,1.6778141E1,8.33946E0,6.020273E0,3.7588403E0,-6.291285E0,-3.3261108E0,-1.7873439E0,-2.5680883E-2,-7.0477715E0,-4.7818494E0,-8.540468E0,-1.3587289E1,3.098664E0,-3.5565248E0,-1.7149248E0,2.6055634E-1,4.3008575E0,2.039205E0,2.124905E0,4.3834746E-1,1.058554E1,1.9788E1,7.733473E0,1.1840903E1,4.582796E0,6.7560177E0,4.500302E0,2.4694998E0,5.1413198E0,-6.5335317E0,-5.9374647E0,-3.0507286E0,-1.5528487E0,-3.9450753E0,7.170973E0,-1.7451812E-1,-7.650759E0,-4.069977E0,-5.022157E0,-8.6895496E-1,-1.0615736E1,-7.37092E0,-1.8298437E1,-1.0241689E1,-4.47187E0,3.3948784E0,-5.624217E0,1.7037032E0,5.1908584E0,-2.0256326E0,8.1242424E-1,-5.836117E-1,7.7155676E0,3.8504958E0,1.2995728E0,3.906718E0,4.761187E0,1.780916E0,6.099109E-1,-9.193012E0,3.5398915E0,1.1904466E1,8.148295E0,3.6034093E0,1.263317E1,-1.0226521E0,4.831356E0,-3.0429406E0,8.716413E0,5.997961E0,5.8668933E0,3.4606633E0,2.5902774E0,-4.860416E0,-6.973645E0,1.2617956E-1,-7.096042E0,-3.4661512E0,-3.912133E0,-2.3402638E0,-3.3347828E0,-1.2567908E0,5.1810503E0,-4.1600595E0,8.61484E0,1.4116262E0,-9.1392493E-1,1.2655066E0,-9.326495E0,-6.2506995E0,-6.3774595E0,-1.5802807E0,-6.3008137E0,-4.457796E0,-3.166189E0,5.190749E0,-1.1494577E1,-1.428987E0,-5.205748E0,-8.536384E0,-2.0065243E1,-7.540009E0,-5.4933906E0,-1.22017565E1],"categories":[],"categories_nodes":[],"categories_segments":[],"categories_sizes":[],"default_left":[true,true,true,true,true,true,true,true,true,true,true,true,true,true,true,true,true,true,true,true,true,true,true,true,true,true,true,true,true,true,true,true,true,true,true,true,true,true,true,true,false,true,true,true,true,true,true,false,true,true,true,true,true,true,true,true,true,true,true,true,true,true,true,false,false,false,false,false,false,false,false,false,false,false,false,false,false,false,false,false,false,false,false,false,false,false,false,false,false,false,false,false,false,false,false,false,false,false,false,false,false,false,false,false,false,false,false,false,false,false,false,false,false,false,false,false,false,false,false,false,false,false,false],"id":11,"left_children":[1,3,5,7,9,11,13,15,17,19,21,23,25,27,29,31,33,35,37,39,41,43,45,47,49,51,53,55,57,59,61,63,65,67,69,71,73,75,77,79,-1,81,83,85,87,89,91,-1,93,95,97,99,101,103,105,107,109,111,113,115,117,119,121,-1,-1,-1,-1,-1,-1,-1,-1,-1,-1,-1,-1,-1,-1,-1,-1,-1,-1,-1,-1,-1,-1,-1,-1,-1,-1,-1,-1,-1,-1,-1,-1,-1,-1,-1,-1,-1,-1,-1,-1,-1,-1,-1,-1,-1,-1,-1,-1,-1,-1,-1,-1,-1,-1,-1,-1,-1,-1,-1,-1],"loss_changes":[9.414725E4,2.5398547E4,1.5156262E4,4.5450386E3,5.0835625E3,4.462336E3,2.928582E3,1.630088E3,9.487422E2,1.5269551E3,1.8376094E3,1.5250801E3,9.881682E2,1.1917051E3,8.6991016E2,6.1125256E2,1.3031836E3,8.645537E2,4.5175854E2,2.3786572E2,6.9775E2,6.9033203E2,7.345635E2,6.262656E2,6.758379E2,5.701824E2,4.757621E2,6.9247656E2,5.447715E2,5.4309766E2,5.061045E2,4.6592444E2,1.7273E2,9.932367E2,5.74891E2,5.3775977E2,4.3554883E2,4.911963E2,3.773946E2,5.0786377E1,0E0,5.1887695E2,5.530615E2,4.5823682E2,6.149746E2,6.8155273E2,2.666681E2,0E0,6.163955E2,2.3595605E2,5.263428E2,5.386638E2,2.3933264E2,6.2680664E1,4.6432898E2,7.2531055E2,3.9206702E2,3.6880566E2,5.036545E2,7.1020703E2,3.769746E2,1.7184424E2,1.9356665E2,0E0,0E0,0E0,0E0,0E0,0E0,0E0,0E0,0E0,0E0,0E0,0E0,0E0,0E0,0E0,0E0,0E0,0E0,0E0,0E0,0E0,0E0,0E0,0E0,0E0,0E0,0E0,0E0,0E0,0E0,0E0,0E0,0E0,0E0,0E0,0E0,0E0,0E0,0E0,0E0,0E0,0E0,0E0,0E0,0E0,0E0,0E0,0E0,0E0,0E0,0E0,0E0,0E0,0E0,0E0,0E0,0E0,0E0,0E0,0E0],"parents":[2147483647,0,0,1,1,2,2,3,3,4,4,5,5,6,6,7,7,8,8,9,9,10,10,11,11,12,12,13,13,14,14,15,15,16,16,17,17,18,18,19,19,20,20,21,21,22,22,23,23,24,24,25,25,26,26,27,27,28,28,29,29,30,30,31,31,32,32,33,33,34,34,35,35,36,36,37,37,38,38,39,39,41,41,42,42,43,43,44,44,45,45,46,46,48,48,49,49,50,50,51,51,52,52,53,53,54,54,55,55,56,56,57,57,58,58,59,59,60,60,61,61,62,62],"right_children":[2,4,6,8,10,12,14,16,18,20,22,24,26,28,30,32,34,36,38,40,42,44,46,48,50,52,54,56,58,60,62,64,66,68,70,72,74,76,78,80,-1,82,84,86,88,90,92,-1,94,96,98,100,102,104,106,108,110,112,114,116,118,120,122,-1,-1,-1,-1,-1,-1,-1,-1,-1,-1,-1,-1,-1,-1,-1,-1,-1,-1,-1,-1,-1,-1,-1,-1,-1,-1,-1,-1,-1,-1,-1,-1,-1,-1,-1,-1,-1,-1,-1,-1,-1,-1,-1,-1,-1,-1,-1,-1,-1,-1,-1,-1,-1,-1,-1,-1,-1,-1,-1,-1],"split_conditions":[5.05E0,1.655E1,2.275E1,6.3500004E0,-3.045E1,-8.35E0,3.875E1,-1.375E1,-8.15E0,-5.535E1,3.5440002E1,3.3375E1,5.25E0,-2.245E1,5.525E1,2.35E1,3.6015E1,2.805E-1,6.5E0,2.5E0,2.05E1,2.355E1,-1.045E1,5.05E1,-2.655E1,1.2655E2,5.55E1,2.8149998E-1,5.5E0,3.5E0,1.05E1,2.564E1,6.5E0,5.55E1,5.5E0,1.205E-1,3.55E-1,3.334E1,4.105E-1,1.25E1,1.9788E0,4.5E0,2.05E1,2.365E-1,3.029E1,2.3850002E0,4.6649998E-1,5.1413196E-1,4.8549998E-1,7.85E1,2.635E-1,3.4245E1,4.5E0,2.985E-1,2.7150002E0,1.55E-1,3.5E0,9.35E-2,2.585E1,7.32E-1,2.345E-1,2.9250002E-1,1.945E-1,-4.47187E-1,3.3948785E-1,-5.6242174E-1,1.7037033E-1,5.190858E-1,-2.0256327E-1,8.124243E-2,-5.8361173E-2,7.715568E-1,3.8504958E-1,1.2995729E-1,3.9067182E-1,4.761187E-1,1.780916E-1,6.099109E-2,-9.193012E-1,3.5398915E-1,1.1904466E0,8.148295E-1,3.6034092E-1,1.263317E0,-1.0226522E-1,4.831356E-1,-3.0429408E-1,8.716413E-1,5.997961E-1,5.8668935E-1,3.4606633E-1,2.5902775E-1,-4.860416E-1,-6.973645E-1,1.2617956E-2,-7.096042E-1,-3.4661514E-1,-3.912133E-1,-2.3402639E-1,-3.334783E-1,-1.2567908E-1,5.1810503E-1,-4.1600594E-1,8.61484E-1,1.4116262E-1,-9.1392495E-2,1.2655066E-1,-9.3264955E-1,-6.2507E-1,-6.37746E-1,-1.5802807E-1,-6.3008136E-1,-4.4577962E-1,-3.166189E-1,5.190749E-1,-1.1494578E0,-1.4289871E-1,-5.205748E-1,-8.5363835E-1,-2.0065243E0,-7.540009E-1,-5.4933906E-1,-1.2201756E0],"split_indices":[196,93,198,93,198,93,198,196,198,196,206,206,93,93,196,79,206,99,189,57,182,93,198,59,93,195,164,121,75,64,87,206,78,59,57,16,41,206,121,63,0,186,79,21,206,97,43,0,25,164,204,206,77,129,97,5,160,124,201,122,36,121,148,0,0,0,0,0,0,0,0,0,0,0,0,0,0,0,0,0,0,0,0,0,0,0,0,0,0,0,0,0,0,0,0,0,0,0,0,0,0,0,0,0,0,0,0,0,0,0,0,0,0,0,0,0,0,0,0,0,0,0,0],"split_type":[0,0,0,0,0,0,0,0,0,0,0,0,0,0,0,0,0,0,0,0,0,0,0,0,0,0,0,0,0,0,0,0,0,0,0,0,0,0,0,0,0,0,0,0,0,0,0,0,0,0,0,0,0,0,0,0,0,0,0,0,0,0,0,0,0,0,0,0,0,0,0,0,0,0,0,0,0,0,0,0,0,0,0,0,0,0,0,0,0,0,0,0,0,0,0,0,0,0,0,0,0,0,0,0,0,0,0,0,0,0,0,0,0,0,0,0,0,0,0,0,0,0,0],"sum_hessian":[9.257E3,5.217E3,4.04E3,3.363E3,1.854E3,2.757E3,1.283E3,1.903E3,1.46E3,3.94E2,1.46E3,1.177E3,1.58E3,9.85E2,2.98E2,2.14E2,1.689E3,6.86E2,7.74E2,2.3E1,3.71E2,6.81E2,7.79E2,2.13E2,9.64E2,1.138E3,4.42E2,4.02E2,5.83E2,2.55E2,4.3E1,2E2,1.4E1,4.57E2,1.232E3,3.68E2,3.18E2,5.5E2,2.24E2,9E0,1.4E1,3.19E2,5.2E1,2.33E2,4.48E2,4.93E2,2.86E2,4E0,2.09E2,9E1,8.74E2,1.028E3,1.1E2,8E0,4.34E2,3.33E2,6.9E1,5.49E2,3.4E1,8.9E1,1.66E2,1.6E1,2.7E1,7E0,1.93E2,1E1,4E0,1.9E1,4.38E2,7.45E2,4.87E2,4.1E1,3.27E2,2.29E2,8.9E1,6.2E1,4.88E2,2.21E2,3E0,2E0,7E0,2.89E2,3E1,4.9E1,3E0,2.26E2,7E0,1.22E2,3.26E2,2.11E2,2.82E2,2.82E2,4E0,1.96E2,1.3E1,6E1,3E1,3.93E2,4.81E2,1.45E2,8.83E2,2E0,1.08E2,6E0,2E0,2.87E2,1.47E2,1.49E2,1.84E2,3.5E1,3.4E1,1.65E2,3.84E2,2.5E1,9E0,8.1E1,8E0,6E1,1.06E2,1.3E1,3E0,9E0,1.8E1],"tree_param":{"num_deleted":"0","num_feature":"210","num_nodes":"123","size_leaf_vector":"0"}},{"base_weights":[-1.1654737E-1,3.124606E0,-2.6681898E0,1.9866208E0,5.649931E0,-5.4216614E0,-1.3586265E0,3.0800045E0,1.0957142E0,5.2227893E0,1.0279716E1,-8.166879E0,-4.2738447E0,-4.954903E-1,-2.877629E0,6.4317856E0,2.7768302E0,-1.4177406E0,1.4539806E0,6.4613476E0,4.1038513E0,4.8862424E0,1.1244191E1,-1.3094879E1,-7.705881E0,-3.7393286E0,-7.216634E0,-1.2072171E0,1.0790877E0,-2.4064994E0,-4.5372243E0,1.0027398E1,5.3579197E0,1.5692704E0,3.5015318E0,7.154532E0,-1.8205742E0,1.631161E0,-8.660091E-1,3.9232438E0,7.0105505E0,5.315617E0,3.43183E0,-3.4369236E-1,7.529851E0,1.1976405E1,4.18884E0,-1.7069643E1,-7.067702E0,-7.3709073E0,-1.2562953E1,-4.091475E0,-1.7853256E0,-1.2696671E1,-6.4617114E0,-2.272395E0,-8.188244E-1,3.9058282E0,7.761136E-1,-2.6509304E0,2.6454106E-1,-4.217468E0,-1.2844833E1,1.2002383E1,3.7985215E0,-6.1359674E-1,5.748576E0,4.1713877E0,1.1245487E0,4.2982945E0,2.464758E0,1.3180387E-1,1.0643929E1,-2.9068685E0,1.0012488E0,3.5219383E0,1.4424697E0,-3.9179678E0,6.045683E-1,1.0218892E0,5.7318077E0,6.7855477E0,1.3613459E1,6.4651856E0,3.856896E0,2.945027E0,5.1549463E0,-2.078491E0,1.4770293E0,2.6882758E0,8.845012E0,1.2489443E1,3.481855E0,7.828617E-1,7.4382453E0,-4.6068234E0,-1.7993225E1,-9.064202E0,2.1861012E0,-1.0115135E1,-6.7418714E0,-1.4105413E1,-2.6465523E0,-4.4231715E0,-2.3510597E0,-6.302752E0,-1.3651043E0,-1.3758397E1,-4.744734E0,-8.078977E0,-4.6602945E0,-1.744336E0,-4.3081975E0,-1.3977323E0,-1.2144699E-1,1.2182937E0,6.891233E0,8.674394E-1,-6.5242195E0,-3.2877884E0,-1.9378793E0,-6.705497E0,8.7879074E-1,-4.490279E0,2.1131048E0],"categories":[],"categories_nodes":[],"categories_segments":[],"categories_sizes":[],"default_left":[true,true,true,true,true,true,true,true,true,true,true,true,true,true,true,true,true,true,true,true,true,true,true,true,true,true,true,true,true,true,true,true,true,true,true,true,true,true,true,true,true,true,true,true,true,true,true,true,true,true,true,true,true,true,true,true,true,true,true,true,true,true,false,false,false,false,false,false,false,false,false,false,false,false,false,false,false,false,false,false,false,false,false,false,false,false,false,false,false,false,false,false,false,false,false,false,false,false,false,false,false,false,false,false,false,false,false,false,false,false,false,false,false,false,false,false,false,false,false,false,false,false,false,false,false],"id":12,"left_children":[1,3,5,7,9,11,13,15,17,19,21,23,25,27,29,31,33,35,37,39,41,43,45,47,49,51,53,55,57,59,61,63,65,67,69,71,73,75,77,79,81,83,85,87,89,91,93,95,97,99,101,103,105,107,109,111,113,115,117,119,121,123,-1,-1,-1,-1,-1,-1,-1,-1,-1,-1,-1,-1,-1,-1,-1,-1,-1,-1,-1,-1,-1,-1,-1,-1,-1,-1,-1,-1,-1,-1,-1,-1,-1,-1,-1,-1,-1,-1,-1,-1,-1,-1,-1,-1,-1,-1,-1,-1,-1,-1,-1,-1,-1,-1,-1,-1,-1,-1,-1,-1,-1,-1,-1],"loss_changes":[7.733531E4,1.1825887E4,1.8858418E4,2.7640508E3,2.475629E3,5.2776914E3,4.6490674E3,1.2777607E3,1.4131234E3,1.5991094E3,5.016582E2,1.0259023E3,1.8464219E3,2.5373774E3,9.938037E2,3.5170068E2,1.0192715E3,6.8985236E2,5.653823E2,7.461289E2,4.858291E2,2.514541E2,4.147754E2,8.615781E2,6.493086E2,6.876719E2,6.708916E2,6.431089E2,6.007511E2,6.5554443E2,6.975918E2,2.3735327E2,1.9715063E2,5.056422E2,5.932578E2,2.1914288E2,5.791926E2,4.4980542E2,4.4220654E2,5.241185E2,5.836074E2,3.4230566E2,3.2118506E2,2.518009E1,5.263159E1,3.0951465E2,1.0485095E2,1.9335889E2,3.523694E2,6.7235156E2,3.9094775E2,4.831836E2,2.8753384E2,1.12018555E2,4.3431494E2,4.3969482E2,4.616828E2,5.371942E2,4.3101938E2,4.10958E2,3.6980695E2,4.8270117E2,0E0,0E0,0E0,0E0,0E0,0E0,0E0,0E0,0E0,0E0,0E0,0E0,0E0,0E0,0E0,0E0,0E0,0E0,0E0,0E0,0E0,0E0,0E0,0E0,0E0,0E0,0E0,0E0,0E0,0E0,0E0,0E0,0E0,0E0,0E0,0E0,0E0,0E0,0E0,0E0,0E0,0E0,0E0,0E0,0E0,0E0,0E0,0E0,0E0,0E0,0E0,0E0,0E0,0E0,0E0,0E0,0E0,0E0,0E0,0E0,0E0,0E0,0E0],"parents":[2147483647,0,0,1,1,2,2,3,3,4,4,5,5,6,6,7,7,8,8,9,9,10,10,11,11,12,12,13,13,14,14,15,15,16,16,17,17,18,18,19,19,20,20,21,21,22,22,23,23,24,24,25,25,26,26,27,27,28,28,29,29,30,30,31,31,32,32,33,33,34,34,35,35,36,36,37,37,38,38,39,39,40,40,41,41,42,42,43,43,44,44,45,45,46,46,47,47,48,48,49,49,50,50,51,51,52,52,53,53,54,54,55,55,56,56,57,57,58,58,59,59,60,60,61,61],"right_children":[2,4,6,8,10,12,14,16,18,20,22,24,26,28,30,32,34,36,38,40,42,44,46,48,50,52,54,56,58,60,62,64,66,68,70,72,74,76,78,80,82,84,86,88,90,92,94,96,98,100,102,104,106,108,110,112,114,116,118,120,122,124,-1,-1,-1,-1,-1,-1,-1,-1,-1,-1,-1,-1,-1,-1,-1,-1,-1,-1,-1,-1,-1,-1,-1,-1,-1,-1,-1,-1,-1,-1,-1,-1,-1,-1,-1,-1,-1,-1,-1,-1,-1,-1,-1,-1,-1,-1,-1,-1,-1,-1,-1,-1,-1,-1,-1,-1,-1,-1,-1,-1,-1,-1,-1],"split_conditions":[-5E-1,2.125E1,-1.05E1,-7.5E0,4.795E1,3.2165E1,1.205E1,-2.05E1,-4.6499996E0,3.4415E1,5.3349996E-1,-3.15E1,2.35E1,4.8500004E0,1.85E1,4.7750002E-1,9.85E0,5.55E-2,2.45E1,5.255E-1,-2.145E1,1.065E-1,8.495E-1,4.2299998E-1,3.25E1,3.795E-1,1.15E1,3.6175E1,3.2235E1,1.1E1,5.22E1,5.5799997E-1,2.7595001E1,1.345E-1,2.825E-1,3.4E1,3.9495003E1,3.2815002E1,1.1E1,1.49E-1,2.425E1,3.5E0,3.135E-1,5.625E-1,4.4700003E-1,1.2E1,2.665E-1,5.645E-1,2.8350002E-1,7.4E-2,2.705E-1,4.0230003E1,-2.35E1,1.75E0,1.455E-1,4.645E-1,-3.15E0,2.15E1,3.475E-1,2.8350002E-1,1.0195E2,2.39E-1,-1.2844833E0,1.2002383E0,3.7985215E-1,-6.1359674E-2,5.7485765E-1,4.171388E-1,1.1245487E-1,4.2982945E-1,2.464758E-1,1.3180387E-2,1.0643929E0,-2.9068685E-1,1.0012489E-1,3.5219383E-1,1.4424698E-1,-3.917968E-1,6.045683E-2,1.0218892E-1,5.731808E-1,6.785548E-1,1.3613459E0,6.465186E-1,3.856896E-1,2.945027E-1,5.1549464E-1,-2.078491E-1,1.4770293E-1,